{"learner":{"attributes":{"scikit_learn":"{\"_estimator_type\": \"regressor\"}"},"feature_names":[],"feature_types":[],"gradient_booster":{"gbtree":{"model":{"gbtree_model_param":{"num_parallel_tree":"1","num_trees":"100"},"iteration_indptr":[0,1,2,3,4,5,6,7,8,9,10,11,12,13,14,15,16,17,18,19,20,21,22,23,24,25,26,27,28,29,30,31,32,33,34,35,36,37,38,39,40,41,42,43,44,45,46,47,48,49,50,51,52,53,54,55,56,57,58,59,60,61,62,63,64,65,66,67,68,69,70,71,72,73,74,75,76,77,78,79,80,81,82,83,84,85,86,87,88,89,90,91,92,93,94,95,96,97,98,99,100],"tree_info":[0,0,0,0,0,0,0,0,0,0,0,0,0,0,0,0,0,0,0,0,0,0,0,0,0,0,0,0,0,0,0,0,0,0,0,0,0,0,0,0,0,0,0,0,0,0,0,0,0,0,0,0,0,0,0,0,0,0,0,0,0,0,0,0,0,0,0,0,0,0,0,0,0,0,0,0,0,0,0,0,0,0,0,0,0,0,0,0,0,0,0,0,0,0,0,0,0,0,0,0],"trees":[{"base_weights":[-2.5425295E-5,-1.251474E2,1.5929375E2,-1.9923802E2,-6.2610725E1,8.4038414E1,2.76155E2,-1.3007306E2,-2.2443494E2,2.932176E1,-7.958526E1,1.808634E2,5.722361E1,1.3543962E2,3.0134503E2,-5.315402E1,-1.4522844E2,-8.065891E1,-2.3439642E2,-1.4387784E0,9.0896126E1,-1.0220523E1,-1.1642981E2,9.588737E1,2.4030428E2,1.13861275E2,-1.0173023E0,1.9900137E2,8.334057E1,2.5642896E2,3.4277237E2,-1.9628906E-1,-6.1969402E1,-1.302907E2,-1.6448578E2,-1.1840658E2,-3.214702E1,-2.0287686E2,-2.570161E2,8.3115234E1,-1.1556484E1,1.4448567E1,1.07613815E2,7.0699425E1,-2.1617975E1,-1.2958809E2,-6.054276E1,1.180401E2,1.5451388E0,2.6890753E2,1.7846503E2,1.6613255E2,8.786236E1,-1.8397802E1,3.787031E1,2.5270996E1,1.0240137E2,3.3765552E2,2.3719183E2,3.7502866E2,3.120706E2],"categories":[],"categories_nodes":[],"categories_segments":[],"categories_sizes":[],"default_left":[1,1,1,1,1,1,1,1,1,1,1,1,1,1,1,1,1,1,1,1,1,1,1,1,1,1,1,0,1,1,1,0,0,0,0,0,0,0,0,0,0,0,0,0,0,0,0,0,0,0,0,0,0,0,0,0,0,0,0,0,0],"id":0,"left_children":[1,3,5,7,9,11,13,15,17,19,21,23,25,27,29,31,33,35,37,39,41,43,45,47,49,51,53,-1,55,57,59,-1,-1,-1,-1,-1,-1,-1,-1,-1,-1,-1,-1,-1,-1,-1,-1,-1,-1,-1,-1,-1,-1,-1,-1,-1,-1,-1,-1,-1,-1],"loss_changes":[3.3710416E7,4.375336E6,6.51985E6,7.25416E5,8.059965E5,1.16839E6,9.90672E5,1.29837375E5,4.33677E5,1.5354967E5,1.110545E6,4.7196075E5,1.1777265E6,1.3574438E5,3.69848E5,9.791535E3,6.759875E3,3.6480203E4,1.58181E5,4.8012617E4,3.2951844E4,1.4171512E5,2.010015E5,8.7595E4,5.2831E4,2.313815E5,1.20328586E5,0E0,2.7297219E4,1.105435E5,6.756E3,0E0,0E0,0E0,0E0,0E0,0E0,0E0,0E0,0E0,0E0,0E0,0E0,0E0,0E0,0E0,0E0,0E0,0E0,0E0,0E0,0E0,0E0,0E0,0E0,0E0,0E0,0E0,0E0,0E0,0E0],"parents":[2147483647,0,0,1,1,2,2,3,3,4,4,5,5,6,6,7,7,8,8,9,9,10,10,11,11,12,12,13,13,14,14,15,15,16,16,17,17,18,18,19,19,20,20,21,21,22,22,23,23,24,24,25,25,26,26,28,28,29,29,30,30],"right_children":[2,4,6,8,10,12,14,16,18,20,22,24,26,28,30,32,34,36,38,40,42,44,46,48,50,52,54,-1,56,58,60,-1,-1,-1,-1,-1,-1,-1,-1,-1,-1,-1,-1,-1,-1,-1,-1,-1,-1,-1,-1,-1,-1,-1,-1,-1,-1,-1,-1,-1,-1],"split_conditions":[5.7333842E-2,-7.515097E-1,1.0554283E0,6.102047E-1,-1.2591934E0,-1.0939283E0,-2.3537108E-1,2.6101429E-2,-1.4926717E0,1.0700783E-1,-1.7181785E-1,6.8416834E-1,-6.3041127E-1,-9.8039055E-1,1.5761731E0,-4.1318285E-1,4.460765E-1,-1.0269239E0,1.2232716E0,-1.6438875E0,-5.58881E-1,-6.7868435E-1,5.597786E-1,-1.3499597E0,-1.2737973E0,-1.0214226E0,5.889826E-1,5.9700413E1,-1.0777574E0,-1.227952E0,-1.5572529E0,-5.888672E-2,-1.8590822E1,-3.908721E1,-4.9345737E1,-3.5521976E1,-9.644106E0,-6.086306E1,-7.7104836E1,2.4934572E1,-3.4669454E0,4.3345704E0,3.2284145E1,2.1209827E1,-6.485393E0,-3.8876427E1,-1.8162828E1,3.5412033E1,4.6354166E-1,8.0672264E1,5.353951E1,4.9839767E1,2.635871E1,-5.519341E0,1.13610935E1,7.5812993E0,3.0720411E1,1.0129666E2,7.1157555E1,1.125086E2,9.362118E1],"split_indices":[3,0,3,1,7,7,2,1,7,0,1,2,1,1,3,1,1,0,1,7,3,1,2,7,7,1,0,0,2,7,1,0,0,0,0,0,0,0,0,0,0,0,0,0,0,0,0,0,0,0,0,0,0,0,0,0,0,0,0,0,0],"split_type":[0,0,0,0,0,0,0,0,0,0,0,0,0,0,0,0,0,0,0,0,0,0,0,0,0,0,0,0,0,0,0,0,0,0,0,0,0,0,0,0,0,0,0,0,0,0,0,0,0,0,0,0,0,0,0,0,0,0,0,0,0],"sum_hessian":[1.689E3,9.46E2,7.43E2,4.32E2,5.14E2,4.53E2,2.9E2,1.17E2,3.15E2,8E1,4.34E2,9.7E1,3.56E2,4.5E1,2.45E2,2E1,9.7E1,2.1E1,2.94E2,5.4E1,2.6E1,1.51E2,2.83E2,4.1E1,5.6E1,1.8E2,1.76E2,1.9E1,2.6E1,1.21E2,1.24E2,3E0,1.7E1,5.9E1,3.8E1,1.1E1,1E1,1.27E2,1.67E2,5E0,4.9E1,5E0,2.1E1,1.8E1,1.33E2,2.28E2,5.5E1,3.3E1,8E0,3.6E1,2E1,5.8E1,1.22E2,1.22E2,5.4E1,7E0,1.9E1,2E1,1.01E2,5.5E1,6.9E1],"tree_param":{"num_deleted":"0","num_feature":"8","num_nodes":"61","size_leaf_vector":"1"}},{"base_weights":[2.6877153E-1,-7.1291084E1,1.402604E2,-1.2719425E2,-1.7990704E1,2.3030682E2,1.0318923E2,-1.5253789E2,-8.042365E1,-5.5533512E1,1.0135502E1,2.637921E2,2.0185222E2,1.9723727E2,7.3125046E1,-1.0641511E2,-1.695984E2,-8.4028225E0,-9.054188E1,1.0269566E1,-6.76046E1,9.66648E1,-4.9439722E-1,1.3109778E2,2.676062E2,8.108213E1,2.0772601E2,1.1982483E2,2.3126654E2,1.0341159E2,3.0951733E1,-1.2725749E1,-1.1131534E2,-9.180405E1,-1.7913248E2,5.2243553E1,-2.24423E1,-3.8631573E1,-1.0674103E2,3.302004E1,-8.811257E0,-1.8120909E1,-8.0770226E1,3.6385464E1,1.2915376E2,4.2718098E1,-2.0700766E1,1.5862996E2,2.1793869E2,6.698851E1,1.3758736E2,2.578766E2,1.651152E2,1.2788657E2,8.6295906E1,1.4251503E1,1.1304598E2],"categories":[],"categories_nodes":[],"categories_segments":[],"categories_sizes":[],"default_left":[1,1,1,1,1,1,1,1,1,1,1,1,1,1,1,1,1,1,1,1,1,1,1,0,0,0,1,1,1,1,1,0,0,0,0,0,0,0,0,0,0,0,0,0,0,0,0,0,0,0,0,0,0,0,0,0,0],"id":1,"left_children":[1,3,5,7,9,11,13,15,17,19,21,23,25,27,29,31,33,35,37,39,41,43,45,-1,-1,-1,47,49,51,53,55,-1,-1,-1,-1,-1,-1,-1,-1,-1,-1,-1,-1,-1,-1,-1,-1,-1,-1,-1,-1,-1,-1,-1,-1,-1,-1],"loss_changes":[1.694005E7,3.331951E6,1.885643E6,6.34926E5,6.066706E5,1.0492E5,1.1363605E6,2.59721E5,1.4061138E5,1.9609575E5,3.0266125E5,1.863E3,4.98385E4,2.30449E5,3.9275725E5,4.3575E4,1.734295E5,2.2458555E4,1.3882988E5,1.722076E4,1.3404481E5,6.58035E4,2.5759558E5,0E0,0E0,0E0,1.005325E4,2.0815438E4,7.536025E4,6.4367125E4,1.7798897E5,0E0,0E0,0E0,0E0,0E0,0E0,0E0,0E0,0E0,0E0,0E0,0E0,0E0,0E0,0E0,0E0,0E0,0E0,0E0,0E0,0E0,0E0,0E0,0E0,0E0,0E0],"parents":[2147483647,0,0,1,1,2,2,3,3,4,4,5,5,6,6,7,7,8,8,9,9,10,10,11,11,12,12,13,13,14,14,15,15,16,16,17,17,18,18,19,19,20,20,21,21,22,22,26,26,27,27,28,28,29,29,30,30],"right_children":[2,4,6,8,10,12,14,16,18,20,22,24,26,28,30,32,34,36,38,40,42,44,46,-1,-1,-1,48,50,52,54,56,-1,-1,-1,-1,-1,-1,-1,-1,-1,-1,-1,-1,-1,-1,-1,-1,-1,-1,-1,-1,-1,-1,-1,-1,-1,-1],"split_conditions":[3.6978078E-1,-5.675601E-1,-1.2820967E0,-7.773298E-1,-2.178948E-1,-1.5572529E0,-1.0942981E0,7.9605573E-1,-1.3290706E0,-3.4077334E-1,-1.4828742E0,-6.1853748E-2,8.4134424E-1,6.7210215E-1,-7.269573E-1,-1.04235664E-1,-1.3767644E0,5.4503614E-1,-2.8623685E-3,-5.821383E-1,-1.2114995E0,3.5981023E-1,-4.9524695E-1,3.9329334E1,8.028186E1,2.432464E1,-6.616821E-1,4.1900045E-1,-1.3054085E0,-1.060041E0,1.1634793E0,-3.817725E0,-3.3394604E1,-2.7541216E1,-5.3739746E1,1.5673066E1,-6.7326903E0,-1.1589472E1,-3.202231E1,9.906012E0,-2.6433773E0,-5.4362726E0,-2.423107E1,1.091564E1,3.874613E1,1.281543E1,-6.21023E0,4.758899E1,6.538161E1,2.0096554E1,4.1276207E1,7.7362976E1,4.9534565E1,3.8365974E1,2.5888773E1,4.275451E0,3.3913795E1],"split_indices":[3,3,1,0,0,1,7,1,7,1,7,7,3,3,1,1,7,1,1,1,7,2,1,0,0,0,6,0,7,1,0,0,0,0,0,0,0,0,0,0,0,0,0,0,0,0,0,0,0,0,0,0,0,0,0,0,0],"split_type":[0,0,0,0,0,0,0,0,0,0,0,0,0,0,0,0,0,0,0,0,0,0,0,0,0,0,0,0,0,0,0,0,0,0,0,0,0,0,0,0,0,0,0,0,0,0,0,0,0,0,0,0,0,0,0,0,0],"sum_hessian":[1.689E3,1.118E3,5.71E2,5.45E2,5.73E2,1.65E2,4.06E2,3.52E2,1.93E2,2.45E2,3.28E2,7.2E1,9.3E1,9.7E1,3.09E2,9.7E1,2.55E2,2.4E1,1.69E2,3.8E1,2.07E2,3.5E1,2.93E2,3E0,6.9E1,5E0,8.8E1,3.1E1,6.6E1,1.79E2,1.3E2,5E0,9.2E1,2.9E1,2.26E2,4E0,2E1,4.1E1,1.28E2,1.7E1,2.1E1,4.4E1,1.63E2,1.3E1,2.2E1,9.3E1,2E2,1.8E1,7E1,9E0,2.2E1,4.5E1,2.1E1,7.1E1,1.08E2,1.09E2,2.1E1],"tree_param":{"num_deleted":"0","num_feature":"8","num_nodes":"57","size_leaf_vector":"1"}},{"base_weights":[4.4158837E-1,-6.4640755E1,7.773156E1,-9.9172035E1,-3.2367645E1,3.6117676E1,1.3498357E2,-5.371815E1,-1.1060867E2,9.50434E0,-4.4389088E1,9.004103E1,2.0805628E1,6.555159E1,1.4950621E2,-1.7882345E1,-6.4884895E1,-7.213093E1,-1.20211044E2,6.38144E1,-7.8318305E0,-1.610548E1,-7.415453E1,5.548139E1,1.2147987E2,3.6383865E1,-2.8373138E1,3.8708687E1,1.07716866E2,1.26241714E2,1.7550499E2,-2.334598E1,5.1158813E1,-4.937442E1,-8.863782E1,-1.0780049E2,-4.3236725E1,-1.0745501E2,-1.5935037E2,1.17516045E2,4.1828106E1,2.0112268E1,-2.706178E1,5.290925E0,-3.1909113E1,-8.066583E1,-1.803089E1,1.3579483E2,4.1116844E1,1.5586072E2,9.427092E1,6.1345196E1,2.0581436E1,-4.3063835E1,2.8701334E1,-3.9038641E0,5.46357E1,7.186349E1,1.230714E2,1.1288671E2,1.8886957E2,1.4763725E2,1.905978E2],"categories":[],"categories_nodes":[],"categories_segments":[],"categories_sizes":[],"default_left":[1,1,1,1,1,1,1,1,1,1,1,1,1,1,1,1,1,1,1,1,1,1,1,1,1,1,1,1,1,1,1,0,0,0,0,0,0,0,0,0,0,0,0,0,0,0,0,0,0,0,0,0,0,0,0,0,0,0,0,0,0,0,0],"id":2,"left_children":[1,3,5,7,9,11,13,15,17,19,21,23,25,27,29,31,33,35,37,39,41,43,45,47,49,51,53,55,57,59,61,-1,-1,-1,-1,-1,-1,-1,-1,-1,-1,-1,-1,-1,-1,-1,-1,-1,-1,-1,-1,-1,-1,-1,-1,-1,-1,-1,-1,-1,-1,-1,-1],"loss_changes":[8.506083E6,1.019839E6,1.8367805E6,2.243465E5,2.4002203E5,3.6885562E5,3.179085E5,3.5255094E4,1.217545E5,1.0124332E5,3.102992E5,1.00825125E5,2.699399E5,6.1477062E4,1.39943E5,9.870314E3,2.1044469E4,7.057606E4,1.2317E5,2.5782734E4,4.460809E4,6.4753746E4,6.432425E4,5.0946203E4,3.3015688E4,1.0405547E5,7.2505414E4,2.5324844E4,3.2669219E3,9.995675E4,2.40155E4,0E0,0E0,0E0,0E0,0E0,0E0,0E0,0E0,0E0,0E0,0E0,0E0,0E0,0E0,0E0,0E0,0E0,0E0,0E0,0E0,0E0,0E0,0E0,0E0,0E0,0E0,0E0,0E0,0E0,0E0,0E0,0E0],"parents":[2147483647,0,0,1,1,2,2,3,3,4,4,5,5,6,6,7,7,8,8,9,9,10,10,11,11,12,12,13,13,14,14,15,15,16,16,17,17,18,18,19,19,20,20,21,21,22,22,23,23,24,24,25,25,26,26,27,27,28,28,29,29,30,30],"right_children":[2,4,6,8,10,12,14,16,18,20,22,24,26,28,30,32,34,36,38,40,42,44,46,48,50,52,54,56,58,60,62,-1,-1,-1,-1,-1,-1,-1,-1,-1,-1,-1,-1,-1,-1,-1,-1,-1,-1,-1,-1,-1,-1,-1,-1,-1,-1,-1,-1,-1,-1,-1,-1],"split_conditions":[5.259349E-3,-7.0847625E-1,9.454932E-1,4.70213E-1,-1.0841308E0,-1.0822821E0,-2.3537108E-1,-1.9757917E-2,-1.0621324E0,2.7470738E-1,-1.7344266E-2,7.093612E-1,-2.7319115E-1,1.392466E0,1.5848522E0,-4.102909E-2,-3.9315885E-1,-1.2657596E0,1.6142831E0,-8.975376E-2,-1.4649427E0,-3.673235E-1,1.366257E0,-1.705261E0,-4.773828E-1,-8.331579E-1,7.761781E-1,-1.4669933E0,-6.73097E-1,1.358692E0,1.5378704E0,-7.003794E0,1.5347645E1,-1.4812326E1,-2.6591347E1,-3.234015E1,-1.2971018E1,-3.2236504E1,-4.7805115E1,3.5254814E1,1.2548432E1,6.033681E0,-8.118535E0,1.5872775E0,-9.572734E0,-2.419975E1,-5.409267E0,4.073845E1,1.2335053E1,4.6758217E1,2.8281277E1,1.8403559E1,6.1744313E0,-1.2919151E1,8.6104E0,-1.1711593E0,1.639071E1,2.1559048E1,3.692142E1,3.3866016E1,5.6660873E1,4.4291176E1,5.717934E1],"split_indices":[3,0,3,1,7,7,2,1,7,1,1,2,1,3,3,3,4,0,1,1,7,1,6,7,5,1,0,6,2,5,0,0,0,0,0,0,0,0,0,0,0,0,0,0,0,0,0,0,0,0,0,0,0,0,0,0,0,0,0,0,0,0,0],"split_type":[0,0,0,0,0,0,0,0,0,0,0,0,0,0,0,0,0,0,0,0,0,0,0,0,0,0,0,0,0,0,0,0,0,0,0,0,0,0,0,0,0,0,0,0,0,0,0,0,0,0,0,0,0,0,0,0,0,0,0,0,0,0,0],"sum_hessian":[1.689E3,9.17E2,7.72E2,4.42E2,4.75E2,4.48E2,3.24E2,9E1,3.52E2,1.06E2,3.69E2,9.8E1,3.5E2,5.7E1,2.67E2,2.2E1,6.8E1,7.2E1,2.8E2,2.5E1,8.1E1,1.9E2,1.79E2,4.8E1,5E1,2.66E2,8.4E1,3.6E1,2.1E1,1.44E2,1.23E2,2.1E1,1E0,4.3E1,2.5E1,3.1E1,4.1E1,2.14E2,6.6E1,6E0,1.9E1,3.3E1,4.8E1,8.1E1,1.09E2,1.6E2,1.9E1,6E0,4.2E1,2E1,3E1,1.02E2,1.64E2,6.7E1,1.7E1,1E1,2.6E1,8E0,1.3E1,1.21E2,2.3E1,4.7E1,7.6E1],"tree_param":{"num_deleted":"0","num_feature":"8","num_nodes":"63","size_leaf_vector":"1"}},{"base_weights":[4.652096E-1,-3.849338E1,6.541594E1,-6.3083954E1,-8.460641E0,3.872425E1,1.05990425E2,9.756058E0,-6.907039E1,2.681997E1,-2.026291E1,9.549474E1,3.0523336E1,1.3966112E2,9.3472916E1,3.5258778E1,4.68154E-1,-9.456412E0,-7.233117E1,-4.701205E0,4.717882E1,4.7888155E0,-3.5270588E1,1.1343576E2,6.2140785E1,1.01630585E2,2.220889E1,4.349654E1,1.4198663E2,1.8133734E2,8.526687E1,5.7029682E1,1.1561035E1,4.3427246E1,-5.0900564E0,-3.3988647E1,1.2600319E1,-5.641879E1,-9.0071434E1,1.7683731E1,-2.4322449E1,1.1158632E2,3.974552E1,2.4016066E1,-4.1526957E0,-4.8505386E1,-1.4265618E1,1.1594947E2,2.0269104E1,6.87503E1,3.9733074E0,2.5531168E1,1.1346278E2,3.3547768E1,-3.7557545E0,1.1251922E2,1.5376096E2,9.752065E1,2.0295062E2,3.3030617E1,9.392589E1],"categories":[],"categories_nodes":[],"categories_segments":[],"categories_sizes":[],"default_left":[1,1,1,1,1,1,1,1,1,1,1,1,1,1,1,1,1,1,1,1,1,1,1,1,1,1,1,0,1,1,1,0,0,0,0,0,0,0,0,0,0,0,0,0,0,0,0,0,0,0,0,0,0,0,0,0,0,0,0,0,0],"id":3,"left_children":[1,3,5,7,9,11,13,15,17,19,21,23,25,27,29,31,33,35,37,39,41,43,45,47,49,51,53,-1,55,57,59,-1,-1,-1,-1,-1,-1,-1,-1,-1,-1,-1,-1,-1,-1,-1,-1,-1,-1,-1,-1,-1,-1,-1,-1,-1,-1,-1,-1,-1,-1],"loss_changes":[4.2788755E6,7.800845E5,6.825185E5,2.5402025E5,1.9916208E5,1.7586406E5,9.273525E4,1.0642502E4,1.0370225E5,7.7229984E4,1.3476556E5,2.1674375E4,1.9698316E5,8.58375E3,1.18647625E5,5.5317334E3,8.339419E3,1.6120194E4,1.3860375E5,2.1512688E4,3.0514469E4,2.330902E4,6.157925E4,4.675625E3,7.031547E3,2.8617938E4,8.93322E4,0E0,4.90425E3,7.3814375E3,7.4695625E4,0E0,0E0,0E0,0E0,0E0,0E0,0E0,0E0,0E0,0E0,0E0,0E0,0E0,0E0,0E0,0E0,0E0,0E0,0E0,0E0,0E0,0E0,0E0,0E0,0E0,0E0,0E0,0E0,0E0,0E0],"parents":[2147483647,0,0,1,1,2,2,3,3,4,4,5,5,6,6,7,7,8,8,9,9,10,10,11,11,12,12,13,13,14,14,15,15,16,16,17,17,18,18,19,19,20,20,21,21,22,22,23,23,24,24,25,25,26,26,28,28,29,29,30,30],"right_children":[2,4,6,8,10,12,14,16,18,20,22,24,26,28,30,32,34,36,38,40,42,44,46,48,50,52,54,-1,56,58,60,-1,-1,-1,-1,-1,-1,-1,-1,-1,-1,-1,-1,-1,-1,-1,-1,-1,-1,-1,-1,-1,-1,-1,-1,-1,-1,-1,-1,-1,-1],"split_conditions":[2.4827364E-1,-4.7609556E-1,1.111839E0,-8.975376E-2,-1.0841308E0,-1.2338238E0,-1.5572529E0,-2.7446654E-2,-1.5133762E0,3.5351202E-1,-3.5042793E-1,-2.5784537E-1,-1.4958144E0,-9.6923846E-1,-1.4033843E0,-5.242107E-1,-6.7144334E-1,-1.5349428E-1,9.408747E-1,-1.4649427E0,-1.6483241E0,-6.4247954E-1,9.7125214E-1,1.1010808E0,1.0764339E0,3.204464E-1,-4.3249202E-1,1.3048963E1,4.5168793E-1,-1.19669594E-1,-5.5565166E-1,1.7108906E1,3.4683106E0,1.3028174E1,-1.527017E0,-1.0196594E1,3.7800958E0,-1.6925638E1,-2.7021431E1,5.3051195E0,-7.296735E0,3.34759E1,1.1923656E1,7.20482E0,-1.2458087E0,-1.4551617E1,-4.2796855E0,3.4784843E1,6.0807314E0,2.062509E1,1.1919923E0,7.659351E0,3.4038837E1,1.0064331E1,-1.1267264E0,3.3755768E1,4.612829E1,2.9256197E1,6.088519E1,9.909185E0,2.8177767E1],"split_indices":[3,0,0,1,7,1,1,5,7,2,1,4,7,5,7,1,1,2,1,7,7,1,4,0,5,2,1,0,7,5,6,0,0,0,0,0,0,0,0,0,0,0,0,0,0,0,0,0,0,0,0,0,0,0,0,0,0,0,0,0,0],"split_type":[0,0,0,0,0,0,0,0,0,0,0,0,0,0,0,0,0,0,0,0,0,0,0,0,0,0,0,0,0,0,0,0,0,0,0,0,0,0,0,0,0,0,0,0,0,0,0,0,0,0,0,0,0,0,0,0,0,0,0,0,0],"sum_hessian":[1.689E3,1.056E3,6.33E2,5.8E2,4.76E2,3.83E2,2.5E2,4.4E1,5.36E2,1.19E2,3.57E2,4.7E1,3.36E2,6.5E1,1.85E2,1.1E1,3.3E1,2.8E1,5.08E2,4.7E1,7.2E1,1.34E2,2.23E2,2.9E1,1.8E1,3.4E1,3.02E2,2E0,6.3E1,1.4E1,1.71E2,5E0,6E0,3E0,3E1,1.3E1,1.5E1,2.7E2,2.38E2,2.2E1,2.5E1,6E0,6.6E1,4.2E1,9.2E1,1.36E2,8.7E1,2.8E1,1E0,1.6E1,2E0,5E0,2.9E1,2.1E2,9.2E1,2.1E1,4.2E1,4E0,1E1,2.5E1,1.46E2],"tree_param":{"num_deleted":"0","num_feature":"8","num_nodes":"61","size_leaf_vector":"1"}},{"base_weights":[5.3081733E-1,-2.0526035E1,6.3254215E1,-4.0561825E1,5.8840084E0,4.6521824E1,8.643563E1,-2.2637901E1,-5.1329628E1,-3.0234468E1,1.1776236E1,2.932457E1,7.605855E1,8.085333E1,1.5063905E2,3.9464123E1,-2.5158833E1,-2.4051937E1,-6.0870106E1,-4.577837E1,-1.5469623E1,4.6867867E1,7.4972577E0,2.037003E1,9.0540115E1,9.044877E1,4.0450226E1,5.246161E1,8.836993E1,2.4820408E1,7.024056E1,3.004772E0,-2.9090313E1,-4.8171112E1,-9.5813265E0,-7.33587E1,-3.568394E1,-8.827315E1,-3.470605E1,-2.9739328E1,-7.7822833E0,1.3996169E1,6.7623924E1,-1.0881189E0,3.1780352E1,8.963351E1,1.5493201E1,6.1532684E1,1.19156685E2,2.8842691E1,9.518076E1,2.9918543E1,8.2912254E1,1.2917949E1,5.8236618E1,6.3187187E1,9.8978035E1],"categories":[],"categories_nodes":[],"categories_segments":[],"categories_sizes":[],"default_left":[1,1,1,1,1,1,1,1,1,1,1,1,1,1,0,1,1,1,1,1,1,1,1,1,1,1,1,1,1,0,0,0,0,0,0,0,0,0,0,0,0,0,0,0,0,0,0,0,0,0,0,0,0,0,0,0,0],"id":4,"left_children":[1,3,5,7,9,11,13,15,17,19,21,23,25,27,-1,29,31,33,35,37,39,41,43,45,47,49,51,53,55,-1,-1,-1,-1,-1,-1,-1,-1,-1,-1,-1,-1,-1,-1,-1,-1,-1,-1,-1,-1,-1,-1,-1,-1,-1,-1,-1,-1],"loss_changes":[2.2333782E6,6.701375E5,1.6082812E5,1.37799E5,1.1676763E5,1.2424931E5,5.12575E4,4.357583E4,1.1538475E5,1.6963578E4,7.037223E4,8.531267E4,4.297075E4,3.05765E4,0E0,3.2140957E3,2.9097266E4,4.072272E4,1.018095E5,1.4345469E4,4.2660986E3,3.385017E4,8.780445E4,4.590134E4,9.269828E3,1.5911969E4,1.0040887E4,7.697211E3,2.8207062E4,0E0,0E0,0E0,0E0,0E0,0E0,0E0,0E0,0E0,0E0,0E0,0E0,0E0,0E0,0E0,0E0,0E0,0E0,0E0,0E0,0E0,0E0,0E0,0E0,0E0,0E0,0E0,0E0],"parents":[2147483647,0,0,1,1,2,2,3,3,4,4,5,5,6,6,7,7,8,8,9,9,10,10,11,11,12,12,13,13,15,15,16,16,17,17,18,18,19,19,20,20,21,21,22,22,23,23,24,24,25,25,26,26,27,27,28,28],"right_children":[2,4,6,8,10,12,14,16,18,20,22,24,26,28,-1,30,32,34,36,38,40,42,44,46,48,50,52,54,56,-1,-1,-1,-1,-1,-1,-1,-1,-1,-1,-1,-1,-1,-1,-1,-1,-1,-1,-1,-1,-1,-1,-1,-1,-1,-1,-1,-1],"split_conditions":[6.6486955E-1,-3.2454577E-1,1.4054846E0,4.460765E-1,-9.843509E-1,1.0935524E0,2.5728211E0,-1.2826705E0,-1.0480831E0,-1.4535075E0,-1.4856472E0,1.4956291E0,1.0614612E0,-7.0337665E-1,4.519172E1,6.101643E-1,-3.5042793E-1,-2.8890592E-1,8.130896E-1,6.108526E-1,-3.419733E-3,3.5981023E-1,5.620495E-1,-1.5640278E0,8.36425E-1,8.751551E-1,-1.3006717E-1,-1.306525E0,-1.364374E-1,7.4461226E0,2.107217E1,9.014316E-1,-8.727095E0,-1.4451334E1,-2.874398E0,-2.2007612E1,-1.0705183E1,-2.6481945E1,-1.0411816E1,-8.921799E0,-2.334685E0,4.198851E0,2.0287178E1,-3.264357E-1,9.534106E0,2.6890053E1,4.6479607E0,1.8459806E1,3.5747005E1,8.652808E0,2.855423E1,8.975563E0,2.4873678E1,3.8753848E0,1.7470985E1,1.8956158E1,2.969341E1],"split_indices":[3,3,3,1,6,2,3,7,7,6,7,5,4,6,0,2,1,2,7,7,3,2,7,7,0,0,7,4,5,0,0,0,0,0,0,0,0,0,0,0,0,0,0,0,0,0,0,0,0,0,0,0,0,0,0,0,0],"split_type":[0,0,0,0,0,0,0,0,0,0,0,0,0,0,0,0,0,0,0,0,0,0,0,0,0,0,0,0,0,0,0,0,0,0,0,0,0,0,0,0,0,0,0,0,0,0,0,0,0,0,0,0,0,0,0,0,0],"sum_hessian":[1.689E3,1.265E3,4.24E2,7.19E2,5.46E2,2.48E2,1.76E2,2.71E2,4.48E2,7.6E1,4.7E2,1.58E2,9E1,1.64E2,1.2E1,1E1,2.61E2,1.17E2,3.31E2,3.6E1,4E1,5E1,4.2E2,1.39E2,1.9E1,6.3E1,2.7E1,3.6E1,1.28E2,8E0,2E0,3.2E1,2.29E2,4.3E1,7.4E1,2.2E2,1.11E2,6E0,3E1,1.3E1,2.7E1,2E1,3E1,3.11E2,1.09E2,8E0,1.31E2,1.1E1,8E0,5E0,5.8E1,2.3E1,4E0,5E0,3.1E1,4E1,8.8E1],"tree_param":{"num_deleted":"0","num_feature":"8","num_nodes":"57","size_leaf_vector":"1"}},{"base_weights":[5.065999E-1,-1.8735458E1,3.6042007E1,-2.9087152E1,1.1115081E0,2.3027359E1,5.790371E1,-2.2620401E1,-4.5936516E1,-4.1166813E1,4.36052E0,1.1124581E1,4.2617588E1,1.00461586E2,5.0952457E1,-1.1546912E1,-2.8155785E1,7.333453E1,-4.813625E1,-8.178267E1,-3.268222E1,3.4504425E1,6.9864434E-1,5.228172E0,6.499042E1,7.747128E1,3.443816E1,6.770605E1,1.2489105E2,4.3408737E1,8.7314545E1,-2.2395498E1,-2.480585E0,-2.4886715E0,-3.167059E1,-3.0623508E1,-5.6791767E1,-1.0383362E1,-3.800385E1,-3.7134137E0,5.452624E1,-1.1720659E1,1.3034923E1,1.1310298E0,3.104355E1,2.2839783E1,7.543005E1,4.6693054E1,9.6929115E1,1.1875789E1,4.615683E1,2.1451399E1,9.615899E1,3.2154602E1,1.2892984E2,6.0541954E1,3.05527E1,-1.7549032E1,9.489041E1],"categories":[],"categories_nodes":[],"categories_segments":[],"categories_sizes":[],"default_left":[1,1,1,1,1,1,1,1,1,1,1,1,1,1,1,1,1,0,1,0,1,1,1,1,1,1,1,1,1,1,1,0,0,0,0,0,0,0,0,0,0,0,0,0,0,0,0,0,0,0,0,0,0,0,0,0,0,0,0],"id":5,"left_children":[1,3,5,7,9,11,13,15,17,19,21,23,25,27,29,31,33,-1,35,-1,37,39,41,43,45,47,49,51,53,55,57,-1,-1,-1,-1,-1,-1,-1,-1,-1,-1,-1,-1,-1,-1,-1,-1,-1,-1,-1,-1,-1,-1,-1,-1,-1,-1,-1,-1],"loss_changes":[1.1562539E6,2.2541066E5,1.6767288E5,7.75215E4,5.1965273E4,8.673453E4,6.025975E4,3.1732688E4,5.5740594E4,6.6316016E3,3.8720414E4,7.398215E4,3.7528766E4,1.5550125E4,4.8876438E4,1.7255246E4,3.1315938E4,0E0,2.7970875E4,0E0,2.4533809E3,2.9279719E4,4.8260082E4,2.2387975E4,8.398047E3,1.1044891E4,3.012236E4,1.7678477E4,1.847E3,3.3613E4,2.7087094E4,0E0,0E0,0E0,0E0,0E0,0E0,0E0,0E0,0E0,0E0,0E0,0E0,0E0,0E0,0E0,0E0,0E0,0E0,0E0,0E0,0E0,0E0,0E0,0E0,0E0,0E0,0E0,0E0],"parents":[2147483647,0,0,1,1,2,2,3,3,4,4,5,5,6,6,7,7,8,8,9,9,10,10,11,11,12,12,13,13,14,14,15,15,16,16,18,18,20,20,21,21,22,22,23,23,24,24,25,25,26,26,27,27,28,28,29,29,30,30],"right_children":[2,4,6,8,10,12,14,16,18,20,22,24,26,28,30,32,34,-1,36,-1,38,40,42,44,46,48,50,52,54,56,58,-1,-1,-1,-1,-1,-1,-1,-1,-1,-1,-1,-1,-1,-1,-1,-1,-1,-1,-1,-1,-1,-1,-1,-1,-1,-1,-1,-1],"split_conditions":[3.4154022E-1,-2.8838292E-1,1.2203307E0,1.2063762E0,-1.5076106E0,1.0337193E0,-1.1297913E0,1.998842E-1,-1.7128403E0,6.095586E-1,-1.4895291E0,1.4425311E0,-1.2673273E0,-2.6193398E-1,2.1721368E0,-1.2045443E-1,-1.2839646E0,2.200036E1,-1.0353277E0,-2.4534801E1,-1.3360596E-1,2.2597316E-1,5.620495E-1,8.487249E-1,5.0844E-1,-1.6171856E-1,9.9134547E-1,1.5978708E0,1.2319028E0,-1.5282891E0,-6.890844E-1,-6.71865E0,-7.4417555E-1,-7.4660146E-1,-9.501177E0,-9.187053E0,-1.703753E1,-3.1150086E0,-1.1401155E1,-1.1140242E0,1.6357874E1,-3.516198E0,3.910477E0,3.3930898E-1,9.313066E0,6.851935E0,2.2629017E1,1.4007916E1,2.9078735E1,3.5627367E0,1.384705E1,6.43542E0,2.8847698E1,9.646381E0,3.8678955E1,1.8162586E1,9.165811E0,-5.26471E0,2.8467125E1],"split_indices":[0,3,3,1,2,2,7,1,7,7,7,5,7,6,3,7,7,0,7,0,3,2,7,6,7,6,0,3,3,1,7,0,0,0,0,0,0,0,0,0,0,0,0,0,0,0,0,0,0,0,0,0,0,0,0,0,0,0,0],"split_type":[0,0,0,0,0,0,0,0,0,0,0,0,0,0,0,0,0,0,0,0,0,0,0,0,0,0,0,0,0,0,0,0,0,0,0,0,0,0,0,0,0,0,0,0,0,0,0,0,0,0,0,0,0,0,0,0,0,0,0],"sum_hessian":[1.689E3,1.096E3,5.93E2,7.2E2,3.76E2,3.73E2,2.2E2,5.22E2,1.98E2,2.6E1,3.5E2,2.33E2,1.4E2,2.9E1,1.91E2,1.75E2,3.47E2,3E0,1.95E2,3E0,2.3E1,3.7E1,3.13E2,2.11E2,2.2E1,2.5E1,1.15E2,1.4E1,1.5E1,1.6E2,3.1E1,7.9E1,9.6E1,4.2E1,3.05E2,6.6E1,1.29E2,5E0,1.8E1,1.3E1,2.4E1,1.56E2,1.57E2,1.83E2,2.8E1,5E0,1.7E1,1.1E1,1.4E1,4E1,7.5E1,6E0,8E0,1E0,1.4E1,6.7E1,9.3E1,2E0,2.9E1],"tree_param":{"num_deleted":"0","num_feature":"8","num_nodes":"59","size_leaf_vector":"1"}},{"base_weights":[4.6610245E-1,-1.6819069E1,2.0701801E1,9.966308E0,-2.0056087E1,6.3369484E0,3.4437157E1,1.4458656E1,-8.501404E0,-2.3447733E1,3.492536E-1,2.5986187E1,-1.4028873E0,8.6768585E1,3.2018124E1,2.8087921E1,3.7742443E0,-1.5622229E1,2.3887451E1,-3.2039974E1,-1.095807E1,-3.25752E0,6.7617485E1,1.2536341E1,4.317564E1,-1.3154745E1,1.0189972E1,1.299283E2,5.7958008E1,2.407105E1,5.2217876E1,3.1171564E1,-1.5194783E1,2.1142504E1,-7.136201E0,-5.0594816E0,-2.9989084E1,9.3163204E-1,-3.72146E1,-2.3910427E1,7.955252E0,3.0012842E1,-9.947726E0,9.885338E1,3.4304607E0,7.776003E1,6.6974645E0,5.3630836E1,1.9566772E1,-2.4429478E1,1.7977764E1,6.480714E1,7.668382E0,-1.977478E0,6.358646E1,2.23995E1,1.10189285E2,3.0452248E1,6.2375443E1],"categories":[],"categories_nodes":[],"categories_segments":[],"categories_sizes":[],"default_left":[1,1,1,1,1,1,1,1,1,1,1,1,1,1,1,1,1,1,0,1,1,1,1,1,1,1,1,0,1,1,1,0,0,0,0,0,0,0,0,0,0,0,0,0,0,0,0,0,0,0,0,0,0,0,0,0,0,0,0],"id":6,"left_children":[1,3,5,7,9,11,13,15,17,19,21,23,25,27,29,31,33,35,-1,37,39,41,43,45,47,49,51,-1,53,55,57,-1,-1,-1,-1,-1,-1,-1,-1,-1,-1,-1,-1,-1,-1,-1,-1,-1,-1,-1,-1,-1,-1,-1,-1,-1,-1,-1,-1],"loss_changes":[5.9147225E5,7.9274625E4,1.534834E5,8.336294E3,5.634325E4,5.813173E4,4.760528E4,1.1543645E4,4.985882E3,7.455422E4,2.8606953E4,2.4427852E4,3.7599395E4,1.3608367E4,6.0065125E4,5.145039E3,8.867667E3,2.4280796E3,0E0,7.049894E4,7.0252234E4,2.5228145E4,1.1690521E4,2.3090855E4,1.0551875E4,4.8527656E4,1.8646402E4,0E0,4.173871E3,3.726233E4,2.1756719E4,0E0,0E0,0E0,0E0,0E0,0E0,0E0,0E0,0E0,0E0,0E0,0E0,0E0,0E0,0E0,0E0,0E0,0E0,0E0,0E0,0E0,0E0,0E0,0E0,0E0,0E0,0E0,0E0],"parents":[2147483647,0,0,1,1,2,2,3,3,4,4,5,5,6,6,7,7,8,8,9,9,10,10,11,11,12,12,13,13,14,14,15,15,16,16,17,17,19,19,20,20,21,21,22,22,23,23,24,24,25,25,26,26,28,28,29,29,30,30],"right_children":[2,4,6,8,10,12,14,16,18,20,22,24,26,28,30,32,34,36,-1,38,40,42,44,46,48,50,52,-1,54,56,58,-1,-1,-1,-1,-1,-1,-1,-1,-1,-1,-1,-1,-1,-1,-1,-1,-1,-1,-1,-1,-1,-1,-1,-1,-1,-1,-1,-1],"split_conditions":[-1.5637528E-2,-4.0835553E-1,6.6486955E-1,1.5852507E0,3.0784994E-1,-1.0164719E0,-1.6252165E0,-5.821383E-1,-2.3379652E-1,5.2785033E-1,-1.4966235E-1,-2.0848575E-1,3.128818E-1,-2.3940006E-1,7.85792E-1,-3.4873894E-1,2.0582384E-1,2.135573E-1,7.1662354E0,-1.4466417E0,-1.0935981E0,-1.3281462E0,-1.7916468E-1,-1.7316961E0,5.78989E-1,5.080311E-2,2.1281179E-2,3.8978493E1,7.2668123E-1,2.5909529E0,5.6445265E-1,9.35147E0,-4.558435E0,6.3427515E0,-2.1408603E0,-1.5178446E0,-8.996726E0,2.7948964E-1,-1.116438E1,-7.1731286E0,2.3865757E0,9.003853E0,-2.984318E0,2.9656015E1,1.0291382E0,2.332801E1,2.0092394E0,1.6089252E1,5.870032E0,-7.3288436E0,5.3933296E0,1.9442142E1,2.3005147E0,-5.932434E-1,1.907594E1,6.71985E0,3.3056786E1,9.135674E0,1.8712633E1],"split_indices":[0,1,3,7,2,7,7,1,2,7,7,6,6,1,5,2,7,3,0,7,6,7,0,7,5,5,2,0,2,2,7,0,0,0,0,0,0,0,0,0,0,0,0,0,0,0,0,0,0,0,0,0,0,0,0,0,0,0,0],"split_type":[0,0,0,0,0,0,0,0,0,0,0,0,0,0,0,0,0,0,0,0,0,0,0,0,0,0,0,0,0,0,0,0,0,0,0,0,0,0,0,0,0,0,0,0,0,0,0,0,0,0,0,0,0,0,0,0,0,0,0],"sum_hessian":[1.689E3,9.11E2,7.78E2,9.8E1,8.13E2,3.81E2,3.97E2,7.9E1,1.9E1,6.97E2,1.16E2,1.07E2,2.74E2,1.6E1,3.81E2,3.4E1,4.5E1,1.6E1,3E0,4.12E2,2.85E2,1.11E2,5E0,6.1E1,4.6E1,1.36E2,1.38E2,5E0,1.1E1,2.75E2,1.06E2,3.2E1,2E0,1.7E1,2.8E1,1E1,6E0,5.6E1,3.56E2,1.69E2,1.16E2,1.8E1,9.3E1,3E0,2E0,4E0,5.7E1,3.1E1,1.5E1,1E2,3.6E1,5E0,1.33E2,1E0,1E1,2.71E2,4E0,3.5E1,7.1E1],"tree_param":{"num_deleted":"0","num_feature":"8","num_nodes":"59","size_leaf_vector":"1"}},{"base_weights":[4.5577896E-1,-9.500108E0,1.8841557E1,-1.6644068E1,-1.3647509E0,1.4998457E1,4.5644432E1,-2.4068588E1,-6.7670474E0,4.63681E1,-2.598142E0,5.573085E1,1.3090955E1,-1.8665426E1,5.057508E1,-4.646246E1,-1.7036493E1,-2.0710135E1,3.834089E0,2.179477E1,7.140452E1,-4.645524E0,1.9936176E1,3.634375E1,1.04603676E2,2.5662586E1,7.351812E0,1.2222107E1,-2.7287354E1,4.1015343E1,7.3573586E1,-2.7560009E1,-5.3274635E1,-2.2458023E1,5.089984E0,-1.670767E1,-4.667632E1,9.051505E0,-2.5510286E1,-9.895142E0,2.773549E1,-1.5052641E1,-1.5337266E0,8.884972E0,4.1403942E1,4.251436E1,-8.680745E0,2.316865E1,6.890434E1,2.3025135E1,1.103482E0,-3.2124603E1,-3.9691772E0,1.5439325E1,5.988545E1,4.6350925E1,8.915816E1],"categories":[],"categories_nodes":[],"categories_segments":[],"categories_sizes":[],"default_left":[1,1,1,1,1,1,1,1,1,1,1,1,1,1,1,1,1,1,1,1,0,1,1,1,0,1,1,0,1,1,1,0,0,0,0,0,0,0,0,0,0,0,0,0,0,0,0,0,0,0,0,0,0,0,0,0,0],"id":7,"left_children":[1,3,5,7,9,11,13,15,17,19,21,23,25,27,29,31,33,35,37,39,-1,41,43,45,-1,47,49,-1,51,53,55,-1,-1,-1,-1,-1,-1,-1,-1,-1,-1,-1,-1,-1,-1,-1,-1,-1,-1,-1,-1,-1,-1,-1,-1,-1,-1],"loss_changes":[3.0952794E5,6.373346E4,6.0501047E4,4.2663094E4,3.0381332E4,3.9750625E4,2.440861E4,5.1647906E4,3.7328176E4,6.4417188E3,2.3253066E4,1.7990867E4,3.5814383E4,1.9313696E3,1.2152672E4,8.704344E3,3.0703953E4,1.0548383E4,2.2277568E4,1.7805342E3,0E0,1.4906327E4,9.596404E3,5.3699707E3,0E0,1.5226961E4,3.366323E4,0E0,4.364707E2,2.3689133E4,3.92825E3,0E0,0E0,0E0,0E0,0E0,0E0,0E0,0E0,0E0,0E0,0E0,0E0,0E0,0E0,0E0,0E0,0E0,0E0,0E0,0E0,0E0,0E0,0E0,0E0,0E0,0E0],"parents":[2147483647,0,0,1,1,2,2,3,3,4,4,5,5,6,6,7,7,8,8,9,9,10,10,11,11,12,12,13,13,14,14,15,15,16,16,17,17,18,18,19,19,21,21,22,22,23,23,25,25,26,26,28,28,29,29,30,30],"right_children":[2,4,6,8,10,12,14,16,18,20,22,24,26,28,30,32,34,36,38,40,-1,42,44,46,-1,48,50,-1,52,54,56,-1,-1,-1,-1,-1,-1,-1,-1,-1,-1,-1,-1,-1,-1,-1,-1,-1,-1,-1,-1,-1,-1,-1,-1,-1,-1],"split_conditions":[3.4154022E-1,-5.148257E-1,1.8391047E0,5.33581E-1,-1.6455512E0,-1.6383417E0,5.550549E-1,-1.3001864E0,-1.2836362E0,1.0494889E0,1.5123969E0,-2.4213833E-1,-1.1614143E0,-1.2783346E0,4.6130067E-1,-1.2431105E0,1.2291722E0,1.710829E0,1.6556826E0,-7.8218514E-1,2.1421356E1,-8.582775E-1,-1.9112706E-1,8.246625E-1,3.1381104E1,1.7115672E0,-9.9964964E-1,3.6666322E0,2.2242541E0,1.9107456E0,-2.3335402E-1,-8.268003E0,-1.5982391E1,-6.737407E0,1.5269953E0,-5.0123014E0,-1.4002896E1,2.7154517E0,-7.653086E0,-2.9685426E0,8.320647E0,-4.5157924E0,-4.60118E-1,2.6654916E0,1.2421184E1,1.2754308E1,-2.6042237E0,6.9505954E0,2.0671303E1,6.907541E0,3.310446E-1,-9.637382E0,-1.1907532E0,4.631798E0,1.7965635E1,1.3905278E1,2.6747448E1],"split_indices":[0,0,0,7,7,7,2,0,6,1,5,6,1,4,7,7,6,1,7,4,0,6,1,4,0,6,7,0,0,2,6,0,0,0,0,0,0,0,0,0,0,0,0,0,0,0,0,0,0,0,0,0,0,0,0,0,0],"split_type":[0,0,0,0,0,0,0,0,0,0,0,0,0,0,0,0,0,0,0,0,0,0,0,0,0,0,0,0,0,0,0,0,0,0,0,0,0,0,0,0,0,0,0,0,0,0,0,0,0,0,0,0,0,0,0,0,0],"sum_hessian":[1.689E3,1.096E3,5.93E2,5.83E2,5.13E2,5.2E2,7.3E1,3.32E2,2.51E2,1.2E1,5.01E2,2.2E1,4.98E2,5E0,6.8E1,7.8E1,2.54E2,1.08E2,1.43E2,7E0,5E0,4.6E2,4.1E1,1.7E1,5E0,1.55E2,3.43E2,1E0,4E0,5E1,1.8E1,2.2E1,5.6E1,2.04E2,5E1,9.5E1,1.3E1,1.22E2,2.1E1,1E0,6E0,1.05E2,3.55E2,2.8E1,1.3E1,1.5E1,2E0,1.48E2,7E0,9.7E1,2.46E2,3E0,1E0,2.2E1,2.8E1,8E0,1E1],"tree_param":{"num_deleted":"0","num_feature":"8","num_nodes":"57","size_leaf_vector":"1"}},{"base_weights":[3.8765258E-1,-5.5483694E0,1.6224787E1,-5.7930634E1,-4.766482E0,8.665584E0,2.5377733E1,-4.1906864E1,-9.121106E1,5.5563717E0,-7.884806E0,-2.8282911E1,1.3740306E1,2.1790392E1,5.991549E1,-1.3311768E0,-4.4925674E1,4.6844214E-1,2.6547127E1,-9.599234E0,2.1919308E1,-6.2981186E0,-4.8500023E1,9.327371E0,3.44343E1,3.8918137E1,1.3969729E1,4.0273193E1,7.356624E1,5.46277E1,-1.4941937E0,3.5884155E1,-6.378972E0,-2.3141672E1,-3.0281048E0,3.7748535E1,3.9469702E0,-2.0082663E1,2.8044409E1,-5.468141E1,2.2110413E1,6.5631185E0,3.6421223E1,5.0509125E1,1.4855058E1,1.8051641E1,5.271083E1,-3.4144309E0,2.7227217E1,4.6192123E1,1.1064982E1,3.1216146E1,8.025174E1],"categories":[],"categories_nodes":[],"categories_segments":[],"categories_sizes":[],"default_left":[1,1,1,1,1,1,1,1,0,1,1,1,1,1,1,0,0,1,1,1,1,1,1,1,1,1,1,1,1,0,0,0,0,0,0,0,0,0,0,0,0,0,0,0,0,0,0,0,0,0,0,0,0],"id":8,"left_children":[1,3,5,7,9,11,13,15,-1,17,19,21,23,25,27,-1,-1,29,31,33,35,37,39,41,43,45,47,49,51,-1,-1,-1,-1,-1,-1,-1,-1,-1,-1,-1,-1,-1,-1,-1,-1,-1,-1,-1,-1,-1,-1,-1,-1],"loss_changes":[1.589662E5,5.0101008E4,3.1676203E4,5.776633E3,3.909029E4,4.8014465E4,2.446536E4,1.6550625E3,0E0,3.0105016E4,4.783281E4,1.3473078E4,2.0134781E4,2.4906883E4,2.1317734E3,0E0,0E0,2.4316863E4,1.713766E4,7.841832E4,1.4359908E4,8.1375435E3,8.1925625E3,1.3691291E4,1.1524266E4,1.6028992E4,3.0515045E4,1.2176963E3,3.2616406E2,0E0,0E0,0E0,0E0,0E0,0E0,0E0,0E0,0E0,0E0,0E0,0E0,0E0,0E0,0E0,0E0,0E0,0E0,0E0,0E0,0E0,0E0,0E0,0E0],"parents":[2147483647,0,0,1,1,2,2,3,3,4,4,5,5,6,6,7,7,9,9,10,10,11,11,12,12,13,13,14,14,17,17,18,18,19,19,20,20,21,21,22,22,23,23,24,24,25,25,26,26,27,27,28,28],"right_children":[2,4,6,8,10,12,14,16,-1,18,20,22,24,26,28,-1,-1,30,32,34,36,38,40,42,44,46,48,50,52,-1,-1,-1,-1,-1,-1,-1,-1,-1,-1,-1,-1,-1,-1,-1,-1,-1,-1,-1,-1,-1,-1,-1,-1],"split_conditions":[5.722927E-1,-1.8054986E0,9.266496E-1,1.8821981E0,-9.7099626E-1,-9.6085453E-1,4.6130067E-1,-1.5691454E0,-2.736332E1,3.6234146E-1,2.0086555E0,2.9525352E-1,1.8915131E0,-1.0845006E0,1.1817273E0,-3.9935306E-1,-1.3477703E1,-1.7285534E0,9.650112E-1,-1.6593005E-1,-5.515485E-1,-1.1080737E0,2.5668235E0,1.6661019E0,1.3851016E0,1.0250514E0,-1.326552E-1,1.1518108E0,-5.90491E-1,1.6388311E1,-4.4825813E-1,1.0765247E1,-1.9136916E0,-6.942502E0,-9.084315E-1,1.1324561E1,1.1840911E0,-6.024799E0,8.413323E0,-1.6404425E1,6.633124E0,1.9689356E0,1.0926367E1,1.5152738E1,4.4565177E0,5.4154925E0,1.581325E1,-1.0243293E0,8.168165E0,1.3857637E1,3.319495E0,9.364844E0,2.4075523E1],"split_indices":[3,6,2,1,7,5,7,0,0,4,4,2,3,7,2,0,0,7,1,7,7,6,4,5,0,3,7,2,4,0,0,0,0,0,0,0,0,0,0,0,0,0,0,0,0,0,0,0,0,0,0,0,0],"split_type":[0,0,0,0,0,0,0,0,0,0,0,0,0,0,0,0,0,0,0,0,0,0,0,0,0,0,0,0,0,0,0,0,0,0,0,0,0,0,0,0,0,0,0,0,0,0,0,0,0,0,0,0,0],"sum_hessian":[1.689E3,1.229E3,4.6E2,1.7E1,1.212E3,2.53E2,2.07E2,1.3E1,4E0,2.81E2,9.31E2,3E1,2.23E2,1.89E2,1.8E1,1E0,1.2E1,2.27E2,5.4E1,8.81E2,5E1,1.5E1,1.5E1,1.85E2,3.8E1,5.8E1,1.31E2,9E0,9E0,7E0,2.2E2,4.2E1,1.2E1,2.87E2,5.94E2,2.6E1,2.4E1,1.1E1,4E0,1.4E1,1E0,1.69E2,1.6E1,2E1,1.8E1,2.4E1,3.4E1,5.7E1,7.4E1,7E0,2E0,2E0,7E0],"tree_param":{"num_deleted":"0","num_feature":"8","num_nodes":"53","size_leaf_vector":"1"}},{"base_weights":[3.2597816E-1,-8.039964E0,7.303292E0,-1.1433313E1,2.967343E0,3.8078449E0,1.8178354E1,-1.6015121E1,-2.4645324E0,-7.940764E0,1.636675E1,-2.739568E0,1.1179523E1,1.6644629E1,6.334605E1,-5.1634483E1,-1.3002354E1,3.1324722E1,-4.5968423E0,2.8140747E1,-1.4070441E1,1.1923489E1,8.24083E1,3.6535316E0,-1.9866205E1,5.026702E1,8.888644E0,1.4651971E1,4.6940243E1,2.2347982E1,7.527568E1,-6.3596684E1,-2.8391459E1,-2.838648E1,-8.785522E0,1.3539404E1,3.8524956E1,-2.5324566E0,-2.6759731E1,4.8682656E0,5.40424E1,-2.1763792E1,9.649176E0,4.856601E1,7.626817E0,2.5925213E-1,3.704287E1,-1.4684006E0,-2.6902784E1,3.0863207E1,8.3930786E1,-1.1452249E1,1.2182735E1,3.9292553E1,1.1938261E1,8.85201E0,5.3060646E1,2.0015808E1,8.40867E1],"categories":[],"categories_nodes":[],"categories_segments":[],"categories_sizes":[],"default_left":[1,1,1,1,1,1,1,1,1,1,1,1,1,1,1,1,1,1,1,1,1,1,0,1,1,1,1,1,1,0,1,0,0,0,0,0,0,0,0,0,0,0,0,0,0,0,0,0,0,0,0,0,0,0,0,0,0,0,0],"id":9,"left_children":[1,3,5,7,9,11,13,15,17,19,21,23,25,27,29,31,33,35,37,39,41,43,-1,45,47,49,51,53,55,-1,57,-1,-1,-1,-1,-1,-1,-1,-1,-1,-1,-1,-1,-1,-1,-1,-1,-1,-1,-1,-1,-1,-1,-1,-1,-1,-1,-1,-1],"loss_changes":[9.8707055E4,2.875734E4,3.4978957E4,2.4123336E4,2.673148E4,3.376816E4,1.4463203E4,4.107332E4,1.4553825E4,2.2733922E4,2.3079482E4,4.0694227E4,2.9013418E4,1.2472637E4,1.7413848E3,6.5355312E3,2.3104629E4,1.0150967E3,8.579501E3,8.778844E3,1.6086049E4,1.1909984E4,0E0,3.0703574E4,1.3035711E4,9.167328E3,2.1045006E4,1.3305594E4,2.5608086E3,0E0,7.5141406E2,0E0,0E0,0E0,0E0,0E0,0E0,0E0,0E0,0E0,0E0,0E0,0E0,0E0,0E0,0E0,0E0,0E0,0E0,0E0,0E0,0E0,0E0,0E0,0E0,0E0,0E0,0E0,0E0],"parents":[2147483647,0,0,1,1,2,2,3,3,4,4,5,5,6,6,7,7,8,8,9,9,10,10,11,11,12,12,13,13,14,14,15,15,16,16,17,17,18,18,19,19,20,20,21,21,23,23,24,24,25,25,26,26,27,27,28,28,30,30],"right_children":[2,4,6,8,10,12,14,16,18,20,22,24,26,28,30,32,34,36,38,40,42,44,-1,46,48,50,52,54,56,-1,58,-1,-1,-1,-1,-1,-1,-1,-1,-1,-1,-1,-1,-1,-1,-1,-1,-1,-1,-1,-1,-1,-1,-1,-1,-1,-1,-1,-1],"split_conditions":[-2.6089916E-1,7.908341E-1,1.1124469E0,8.129048E-1,8.1111324E-1,5.650072E-1,2.5736327E0,-1.13554E0,8.5948956E-1,-1.0353277E0,-1.3247035E-1,1.6922152E-1,6.1344063E-1,4.5168793E-1,-7.1789324E-2,6.986612E-1,-1.3001864E0,-1.0840555E0,1.710829E0,-2.7702814E-1,1.9128084E0,-7.7985084E-1,2.4722492E1,5.941455E-2,-1.1227958E0,-5.284723E-1,-1.4672407E0,-1.394696E0,-2.2976606E-1,6.704395E0,2.1231256E0,-1.9079006E1,-8.517438E0,-8.5159445E0,-2.6356568E0,4.0618215E0,1.15574875E1,-7.59737E-1,-8.02792E0,1.4604797E0,1.621272E1,-6.529138E0,2.8947527E0,1.4569803E1,2.2880452E0,7.777564E-2,1.1112862E1,-4.405202E-1,-8.070836E0,9.258963E0,2.5179237E1,-3.4356747E0,3.6548207E0,1.1787766E1,3.5814784E0,2.655603E0,1.5918195E1,6.0047426E0,2.5226011E1],"split_indices":[3,4,2,7,6,7,2,6,7,7,7,7,7,7,4,7,0,2,1,6,4,7,0,7,1,4,6,7,6,0,0,0,0,0,0,0,0,0,0,0,0,0,0,0,0,0,0,0,0,0,0,0,0,0,0,0,0,0,0],"split_type":[0,0,0,0,0,0,0,0,0,0,0,0,0,0,0,0,0,0,0,0,0,0,0,0,0,0,0,0,0,0,0,0,0,0,0,0,0,0,0,0,0,0,0,0,0,0,0,0,0,0,0,0,0,0,0,0,0,0,0],"sum_hessian":[1.689E3,7.68E2,9.21E2,5.87E2,1.81E2,6.98E2,2.23E2,3.88E2,1.99E2,1E2,8.1E1,3.7E2,3.28E2,2.17E2,6E0,2.9E1,3.59E2,1.1E1,1.88E2,1.4E1,8.6E1,7.7E1,4E0,2.7E2,1E2,1.7E1,3.11E2,2.05E2,1.2E1,2E0,4E0,1.8E1,1.1E1,7.6E1,2.83E2,4E0,7E0,1.73E2,1.5E1,8E0,6E0,6.5E1,2.1E1,7E0,7E1,2.46E2,2.4E1,2.8E1,7.2E1,1.2E1,5E0,4.3E1,2.68E2,1.9E1,1.86E2,2E0,1E1,1E0,3E0],"tree_param":{"num_deleted":"0","num_feature":"8","num_nodes":"59","size_leaf_vector":"1"}},{"base_weights":[3.0685017E-1,-3.1383605E0,9.336039E0,-7.699605E0,2.6919618E0,4.537483E0,2.017656E1,-4.1876316E0,-2.4258781E1,-6.0138407E0,1.0157661E1,1.7557516E1,-3.373854E0,1.6108187E1,6.753264E1,8.38419E0,-7.1237903E0,-4.309675E1,-1.8847773E1,-1.9536434E1,-3.7109096E0,1.3497338E1,-9.339956E0,1.226801E1,6.5463104E1,-3.659666E1,1.49787E0,1.362473E1,4.5292236E1,8.117891E1,2.3356934E1,4.3373535E1,5.529744E0,-1.1900535E1,5.1300783E0,-4.638644E1,-1.3406845E1,-2.6518978E1,-2.9163647E0,-2.2453598E1,3.0406983E0,-1.0784106E1,6.7791015E-1,1.1052111E1,3.4866684E1,-2.111737E1,8.190752E0,1.9657207E1,-1.7179632E1,5.3513184E0,7.044133E1,-4.224505E0,-4.6097084E1,7.654501E0,-1.80091E1,4.3699865E0,2.1432945E1,2.073042E1,5.821171E1,8.8079994E1,1.6435669E1,2.732788E0,2.9320719E1],"categories":[],"categories_nodes":[],"categories_segments":[],"categories_sizes":[],"default_left":[1,1,1,1,1,1,1,1,1,1,1,1,1,1,1,1,1,1,1,1,1,1,1,1,1,1,1,1,1,1,1,0,0,0,0,0,0,0,0,0,0,0,0,0,0,0,0,0,0,0,0,0,0,0,0,0,0,0,0,0,0,0,0],"id":10,"left_children":[1,3,5,7,9,11,13,15,17,19,21,23,25,27,29,31,33,35,37,39,41,43,45,47,49,51,53,55,57,59,61,-1,-1,-1,-1,-1,-1,-1,-1,-1,-1,-1,-1,-1,-1,-1,-1,-1,-1,-1,-1,-1,-1,-1,-1,-1,-1,-1,-1,-1,-1,-1,-1],"loss_changes":[5.2600902E4,3.2571203E4,2.4201242E4,3.985116E4,3.5028344E4,3.3536145E4,2.646286E4,2.102623E4,1.1419617E4,7.6817607E3,1.9009625E4,3.0364707E4,3.291084E4,9.022387E3,4.735078E3,1.0546674E4,2.7045037E4,1.9175352E3,1.1532906E4,2.4392773E3,6.650509E3,1.2573375E4,9.051023E3,2.4708281E4,3.2140469E3,7.801543E3,2.1515154E4,8.866953E3,1.9665039E3,2.1267344E3,4.1186475E2,0E0,0E0,0E0,0E0,0E0,0E0,0E0,0E0,0E0,0E0,0E0,0E0,0E0,0E0,0E0,0E0,0E0,0E0,0E0,0E0,0E0,0E0,0E0,0E0,0E0,0E0,0E0,0E0,0E0,0E0,0E0,0E0],"parents":[2147483647,0,0,1,1,2,2,3,3,4,4,5,5,6,6,7,7,8,8,9,9,10,10,11,11,12,12,13,13,14,14,15,15,16,16,17,17,18,18,19,19,20,20,21,21,22,22,23,23,24,24,25,25,26,26,27,27,28,28,29,29,30,30],"right_children":[2,4,6,8,10,12,14,16,18,20,22,24,26,28,30,32,34,36,38,40,42,44,46,48,50,52,54,56,58,60,62,-1,-1,-1,-1,-1,-1,-1,-1,-1,-1,-1,-1,-1,-1,-1,-1,-1,-1,-1,-1,-1,-1,-1,-1,-1,-1,-1,-1,-1,-1,-1,-1],"split_conditions":[6.054406E-1,5.6260407E-1,-1.6944239E-1,2.1525171E-1,-1.0730336E0,-1.0826519E0,1.779491E0,-1.4109635E0,-1.1281431E0,-1.2291396E0,1.5933846E0,-1.1266485E0,3.0051656E-2,2.1735833E0,2.0064777E-1,-1.7218986E0,-1.6038424E-1,5.241531E-1,4.4133574E-1,1.6945031E0,-1.4531145E0,-1.6763636E-1,-1.2816994E-1,-1.2492108E0,-3.2515627E-1,-1.0197994E0,-4.29171E-1,2.1011378E-1,-5.7921493E-1,1.8304434E0,1.0623506E0,1.3012061E1,1.6589233E0,-3.5701606E0,1.5390235E0,-1.3915933E1,-4.0220537E0,-7.9556937E0,-8.7490946E-1,-6.7360797E0,9.122095E-1,-3.235232E0,2.0337306E-1,3.3156333E0,1.0460006E1,-6.3352113E0,2.4572258E0,5.8971624E0,-5.1538897E0,1.6053956E0,2.11324E1,-1.2673515E0,-1.3829125E1,2.2963505E0,-5.40273E0,1.310996E0,6.429884E0,6.219126E0,1.7463514E1,2.6424E1,4.930701E0,8.1983644E-1,8.796216E0],"split_indices":[2,7,7,7,2,7,6,7,2,5,7,7,6,3,7,7,7,7,7,7,4,4,4,7,6,7,7,4,4,2,0,0,0,0,0,0,0,0,0,0,0,0,0,0,0,0,0,0,0,0,0,0,0,0,0,0,0,0,0,0,0,0,0],"split_type":[0,0,0,0,0,0,0,0,0,0,0,0,0,0,0,0,0,0,0,0,0,0,0,0,0,0,0,0,0,0,0,0,0,0,0,0,0,0,0,0,0,0,0,0,0,0,0,0,0,0,0,0,0,0,0,0,0,0,0,0,0,0,0],"sum_hessian":[1.689E3,1.223E3,4.66E2,6.86E2,5.37E2,3.24E2,1.42E2,5.67E2,1.19E2,2.48E2,2.89E2,1.22E2,2.02E2,1.32E2,1E1,1.07E2,4.6E2,2.5E1,9.4E1,3.5E1,2.13E2,2.47E2,4.2E1,1.11E2,1.1E1,2.5E1,1.77E2,1.23E2,9E0,7E0,3E0,7E0,1E2,3.31E2,1.29E2,2.2E1,3E0,6.3E1,3.1E1,3.1E1,4E0,8.1E1,1.32E2,2.23E2,2.4E1,2.5E1,1.7E1,8.9E1,2.2E1,1E0,1E1,6E0,1.9E1,1.35E2,4.2E1,5.7E1,6.6E1,4E0,5E0,6E0,1E0,1E0,2E0],"tree_param":{"num_deleted":"0","num_feature":"8","num_nodes":"63","size_leaf_vector":"1"}},{"base_weights":[2.530033E-1,-3.7053125E0,4.713881E0,-1.05215225E1,1.8627806E0,1.3663862E0,1.1838403E1,1.4417361E0,-1.5599377E1,-2.6267102E0,1.1338291E1,2.5877862E0,-4.4882683E1,8.4515505E0,4.717014E1,-3.0524559E1,3.672338E0,-1.878208E1,-1.0996399E0,-8.44088E0,1.083401E0,1.9077385E1,4.267396E-1,9.773989E0,-2.930262E0,-4.839008E1,3.567505E-1,5.057351E0,3.5280083E1,7.5086426E1,3.2008633E1,-2.2518921E-1,-3.482087E1,1.6492378E0,3.0272263E1,-1.9921864E1,2.0699802E1,-5.2174363E0,2.6117258E1,-1.9990242E1,-2.766009E0,3.249173E0,-1.5475751E1,9.700279E0,2.9755407E1,-6.027687E0,1.5896027E1,4.660969E0,2.7186617E1,-1.1972463E1,1.3731618E1,-5.098647E1,-8.616699E0,6.517756E0,-3.7808228E1,5.0200882E1,2.2817024E1,4.028782E1,-2.900879E0],"categories":[],"categories_nodes":[],"categories_segments":[],"categories_sizes":[],"default_left":[1,1,1,1,1,1,1,1,1,1,1,1,1,1,1,1,1,1,1,1,1,1,1,1,1,1,0,1,1,0,1,0,0,0,0,0,0,0,0,0,0,0,0,0,0,0,0,0,0,0,0,0,0,0,0,0,0,0,0],"id":11,"left_children":[1,3,5,7,9,11,13,15,17,19,21,23,25,27,29,31,33,35,37,39,41,43,45,47,49,51,-1,53,55,-1,57,-1,-1,-1,-1,-1,-1,-1,-1,-1,-1,-1,-1,-1,-1,-1,-1,-1,-1,-1,-1,-1,-1,-1,-1,-1,-1,-1,-1],"loss_changes":[2.985875E4,3.402575E4,1.894402E4,2.45038E4,2.1044648E4,3.0732973E4,2.999584E4,8.739891E3,1.3039328E4,7.257073E3,1.3418693E4,2.1005506E4,2.2386816E3,2.1038871E4,6.9081523E3,1.033563E3,6.084906E3,1.085257E4,5.9640947E3,8.530598E3,7.438133E3,9.023355E3,6.785456E3,2.0350438E4,4.536242E4,9.031387E2,0E0,1.3267451E4,3.689496E3,0E0,4.7412266E3,0E0,0E0,0E0,0E0,0E0,0E0,0E0,0E0,0E0,0E0,0E0,0E0,0E0,0E0,0E0,0E0,0E0,0E0,0E0,0E0,0E0,0E0,0E0,0E0,0E0,0E0,0E0,0E0],"parents":[2147483647,0,0,1,1,2,2,3,3,4,4,5,5,6,6,7,7,8,8,9,9,10,10,11,11,12,12,13,13,14,14,15,15,16,16,17,17,18,18,19,19,20,20,21,21,22,22,23,23,24,24,25,25,27,27,28,28,30,30],"right_children":[2,4,6,8,10,12,14,16,18,20,22,24,26,28,30,32,34,36,38,40,42,44,46,48,50,52,-1,54,56,-1,58,-1,-1,-1,-1,-1,-1,-1,-1,-1,-1,-1,-1,-1,-1,-1,-1,-1,-1,-1,-1,-1,-1,-1,-1,-1,-1,-1,-1],"split_conditions":[1.5196913E-1,5.650072E-1,-1.6759379E-1,-1.0353277E0,-7.486756E-1,-1.9717142E-1,-3.673235E-1,-1.4895335E0,1.0527437E0,-1.4422488E0,1.2950203E0,-1.0053803E0,2.1532488E0,1.629044E0,-7.960033E-2,-1.6014206E0,2.1459149E-1,2.1552453E0,1.822299E0,1.1177393E0,1.5850658E0,9.814164E-1,-1.22531876E-1,2.4941204E-1,1.4955919E0,1.2703719E0,1.07025154E-1,1.5304371E0,1.4888689E-1,2.2525928E1,6.542518E-1,-6.755677E-2,-1.0446261E1,4.9477133E-1,9.081679E0,-5.976559E0,6.209941E0,-1.565231E0,7.835178E0,-5.9970727E0,-8.2980275E-1,9.747519E-1,-4.6427255E0,2.9100838E0,8.926622E0,-1.8083062E0,4.7688084E0,1.3982906E0,8.155986E0,-3.591739E0,4.1194854E0,-1.5295941E1,-2.5850098E0,1.9553269E0,-1.1342468E1,1.5060266E1,6.8451076E0,1.2086347E1,-8.702637E-1],"split_indices":[2,7,7,7,2,7,1,0,6,6,7,7,0,6,7,0,0,4,6,7,7,5,4,6,4,6,0,6,7,0,2,0,0,0,0,0,0,0,0,0,0,0,0,0,0,0,0,0,0,0,0,0,0,0,0,0,0,0,0],"split_type":[0,0,0,0,0,0,0,0,0,0,0,0,0,0,0,0,0,0,0,0,0,0,0,0,0,0,0,0,0,0,0,0,0,0,0,0,0,0,0,0,0,0,0,0,0,0,0,0,0,0,0,0,0,0,0,0,0,0,0],"sum_hessian":[1.689E3,8.95E2,7.94E2,4.02E2,4.93E2,5.41E2,2.53E2,1.2E2,2.82E2,3.35E2,1.58E2,5.28E2,1.3E1,2.32E2,2.1E1,7E0,1.13E2,2.31E2,5.1E1,1.3E2,2.05E2,9.2E1,6.6E1,2.29E2,2.99E2,1.2E1,1E0,2.07E2,2.5E1,6E0,1.5E1,1E0,6E0,1.06E2,7E0,2.25E2,6E0,4.5E1,6E0,4.2E1,8.8E1,1.82E2,2.3E1,5E1,4.2E1,4.7E1,1.9E1,1.78E2,5.1E1,1.94E2,1.05E2,1.1E1,1E0,2.01E2,6E0,1E1,1.5E1,1.2E1,3E0],"tree_param":{"num_deleted":"0","num_feature":"8","num_nodes":"59","size_leaf_vector":"1"}},{"base_weights":[2.0576796E-1,-8.9110926E-2,3.8252E1,2.014604E1,-6.46328E-1,4.9288857E1,1.0968628E0,1.0903756E1,5.5903645E1,-2.6413872E0,6.2242875E0,5.7573486E1,1.0766887E1,-1.18479E1,9.361084E0,2.089398E1,-1.4608953E1,1.1808594E1,6.681529E1,-6.192554E0,1.6431346E0,-4.092559E0,1.1677947E1,1.6520996E0,1.2389526E1,-2.697296E-1,2.8314764E1,1.3699493E1,-2.6937057E1,1.7782043E1,-6.915283E-2,-3.6898804E1,-5.319056E0,-2.2210815E0,7.98142E0,1.9876509E1,-1.1957688E1,2.1720161E1,6.2651377E0],"categories":[],"categories_nodes":[],"categories_segments":[],"categories_sizes":[],"default_left":[1,1,1,1,1,1,1,1,1,1,1,0,0,0,1,1,1,1,0,1,1,1,1,0,0,0,0,0,0,0,0,0,0,0,0,0,0,0,0],"id":12,"left_children":[1,3,5,7,9,11,13,15,17,19,21,-1,-1,-1,23,25,27,29,-1,31,33,35,37,-1,-1,-1,-1,-1,-1,-1,-1,-1,-1,-1,-1,-1,-1,-1,-1],"loss_changes":[1.896357E4,1.8933094E4,5.276924E3,1.4262129E4,2.2414145E4,2.5715156E3,5.388227E2,9.735713E3,3.5413496E3,1.9287646E4,2.0753152E4,0E0,0E0,0E0,4.9569916E1,4.2480234E3,4.207908E3,2.140831E2,0E0,1.8391275E4,1.4100917E4,2.4368215E4,1.2963859E4,0E0,0E0,0E0,0E0,0E0,0E0,0E0,0E0,0E0,0E0,0E0,0E0,0E0,0E0,0E0,0E0],"parents":[2147483647,0,0,1,1,2,2,3,3,4,4,5,5,6,6,7,7,8,8,9,9,10,10,14,14,15,15,16,16,17,17,19,19,20,20,21,21,22,22],"right_children":[2,4,6,8,10,12,14,16,18,20,22,-1,-1,-1,24,26,28,30,-1,32,34,36,38,-1,-1,-1,-1,-1,-1,-1,-1,-1,-1,-1,-1,-1,-1,-1,-1],"split_conditions":[2.5728211E0,-1.6448119E0,-1.3520925E0,-1.6612643E0,7.908341E-1,2.882375E0,7.718748E-1,-3.5819024E-1,-5.9658927E-1,5.252623E-1,2.7168214E-1,1.7272047E1,3.230066E0,-3.5543702E0,1.3011863E0,-7.454424E-1,-5.8485293E-1,-9.0212685E-1,2.0044588E1,-1.2118771E0,-5.854689E-1,-1.0351428E0,-5.539516E-1,4.956299E-1,3.7168581E0,-8.0918886E-2,8.49443E0,4.109848E0,-8.081118E0,5.3346133E0,-2.0745851E-2,-1.1069641E1,-1.5957168E0,-6.663245E-1,2.394426E0,5.9629526E0,-3.5873067E0,6.516049E0,1.8795414E0],"split_indices":[3,7,1,7,4,3,0,6,0,7,6,0,0,0,0,6,4,0,0,6,6,7,7,0,0,0,0,0,0,0,0,0,0,0,0,0,0,0,0],"split_type":[0,0,0,0,0,0,0,0,0,0,0,0,0,0,0,0,0,0,0,0,0,0,0,0,0,0,0,0,0,0,0,0,0,0,0,0,0,0,0],"sum_hessian":[1.689E3,1.677E3,1.2E1,4.4E1,1.633E3,9E0,3E0,3.6E1,8E0,1.266E3,3.67E2,7E0,2E0,1E0,2E0,2.6E1,1E1,2E0,6E0,6.92E2,5.74E2,1.27E2,2.4E2,1E0,1E0,7E0,1.9E1,3E0,7E0,1E0,1E0,1.8E1,6.74E2,3.57E2,2.17E2,3.1E1,9.6E1,8.3E1,1.57E2],"tree_param":{"num_deleted":"0","num_feature":"8","num_nodes":"39","size_leaf_vector":"1"}},{"base_weights":[1.7409834E-1,-9.2442447E-1,8.955511E0,5.088749E0,-2.66673E0,-1.6317415E1,1.07713785E1,1.6785458E-1,1.57107935E1,-7.6509166E0,1.6301241E0,6.68396E-2,-5.31987E1,2.7610219E0,2.177537E1,1.5456625E1,-3.097809E0,1.0838339E1,4.086859E1,-1.263862E1,1.0280398E0,-9.615802E0,3.6066914E0,4.7618475E0,-2.1094116E1,2.3311277E1,-3.777173E0,1.0834441E1,3.837907E1,9.487011E0,4.86982E1,-6.749814E0,1.7661728E1,2.5524137E1,5.4957285E0,2.0228796E1,7.5336754E1,-1.8520283E1,-7.748164E0,-1.9944412E1,5.191069E0,-2.4138615E1,-4.004078E0,2.3477492E0,2.0453894E1,-1.1762817E1,1.1163583E1,1.5124167E1,3.0920298E1,1.1334107E0,-2.4804558E1,-1.6194376E1,1.4525623E1,4.782482E1,1.5649658E1],"categories":[],"categories_nodes":[],"categories_segments":[],"categories_sizes":[],"default_left":[1,1,1,1,1,1,1,1,1,1,1,1,0,1,1,1,1,1,1,1,1,1,1,1,0,1,1,1,1,0,0,0,0,0,0,0,0,0,0,0,0,0,0,0,0,0,0,0,0,0,0,0,0,0,0],"id":13,"left_children":[1,3,5,7,9,11,13,15,17,19,21,23,-1,25,27,29,31,33,35,37,39,41,43,45,-1,47,49,51,53,-1,-1,-1,-1,-1,-1,-1,-1,-1,-1,-1,-1,-1,-1,-1,-1,-1,-1,-1,-1,-1,-1,-1,-1,-1,-1],"loss_changes":[1.6311003E4,1.5760178E4,8.803509E3,1.766461E4,2.4983902E4,7.8590967E3,1.5453555E4,1.1631173E4,1.2673139E4,2.3388543E4,1.3971843E4,1.0939556E3,0E0,1.3927293E4,1.3027016E4,7.6740137E3,1.4675487E4,6.999631E3,1.0570098E4,9.7225625E3,1.7390701E4,7.564161E3,1.1277934E4,1.083394E3,0E0,1.0897529E3,8.1853945E3,4.824574E3,5.477754E3,0E0,0E0,0E0,0E0,0E0,0E0,0E0,0E0,0E0,0E0,0E0,0E0,0E0,0E0,0E0,0E0,0E0,0E0,0E0,0E0,0E0,0E0,0E0,0E0,0E0,0E0],"parents":[2147483647,0,0,1,1,2,2,3,3,4,4,5,5,6,6,7,7,8,8,9,9,10,10,11,11,13,13,14,14,15,15,16,16,17,17,18,18,19,19,20,20,21,21,22,22,23,23,25,25,26,26,27,27,28,28],"right_children":[2,4,6,8,10,12,14,16,18,20,22,24,-1,26,28,30,32,34,36,38,40,42,44,46,-1,48,50,52,54,-1,-1,-1,-1,-1,-1,-1,-1,-1,-1,-1,-1,-1,-1,-1,-1,-1,-1,-1,-1,-1,-1,-1,-1,-1,-1],"split_conditions":[1.310087E0,-1.0353277E0,1.480951E-1,-6.0513377E-2,4.4096604E-1,6.397437E-2,-1.3616756E-1,-1.6448119E0,5.0893104E-1,9.486999E-1,-1.5412269E0,1.3118091E-1,-1.5959611E1,-4.565303E-1,5.653117E-1,-1.6612643E0,-1.1281276E0,-1.4137365E0,-7.0095354E-1,-1.6389659E-1,-4.244986E-2,1.1177393E0,1.5852072E0,-5.097288E-1,-6.328235E0,-5.367596E-1,6.167338E-2,5.5356426E-3,1.2015262E0,2.8461034E0,1.4609461E1,-2.0249443E0,5.2985187E0,7.6572413E0,1.6487186E0,6.0686393E0,2.2601027E1,-5.556085E0,-2.3244493E0,-5.983324E0,1.5573208E0,-7.241585E0,-1.2012234E0,7.043248E-1,6.1361685E0,-3.5288453E0,3.349075E0,4.5372505E0,9.27609E0,3.4002322E-1,-7.4413676E0,-4.858313E0,4.357687E0,1.4347447E1,4.6948977E0],"split_indices":[6,7,4,6,7,0,7,7,4,4,6,4,0,7,4,7,7,7,5,7,6,7,0,1,0,7,3,2,3,0,0,0,0,0,0,0,0,0,0,0,0,0,0,0,0,0,0,0,0,0,0,0,0,0,0],"split_type":[0,0,0,0,0,0,0,0,0,0,0,0,0,0,0,0,0,0,0,0,0,0,0,0,0,0,0,0,0,0,0,0,0,0,0,0,0,0,0,0,0,0,0,0,0,0,0,0,0,0,0,0,0,0,0],"sum_hessian":[1.689E3,1.502E3,1.87E2,3.37E2,1.165E3,1.2E1,1.75E2,2.31E2,1.06E2,5.39E2,6.26E2,9E0,3E0,1.02E2,7.3E1,4E1,1.91E2,9E1,1.6E1,3.42E2,1.97E2,9.3E1,5.33E2,8E0,1E0,2.4E1,7.8E1,4.5E1,2.8E1,3.5E1,5E0,1.63E2,2.8E1,2.3E1,6.7E1,1.1E1,5E0,1.54E2,1.88E2,3.2E1,1.65E2,2.5E1,6.8E1,4.97E2,3.6E1,2E0,6E0,1.3E1,1.1E1,6.4E1,1.4E1,5E0,4E1,1.9E1,9E0],"tree_param":{"num_deleted":"0","num_feature":"8","num_nodes":"55","size_leaf_vector":"1"}},{"base_weights":[1.5001774E-1,-2.0258272E-2,4.109213E1,-1.0653913E0,5.3152947E0,1.1951375E1,5.0358154E1,6.7126923E0,-2.0461195E0,7.426109E0,-9.927149E0,8.27887E0,5.8808258E1,4.0262384E0,2.4046879E1,-5.232575E0,1.1385171E0,3.318E0,1.6763304E1,-3.6018417E1,-1.8287308E0,1.34189E0,1.7389637E1,-2.2375488E0,2.6931425E1,-9.690705E-1,-1.0924237E1,-1.2703413E0,7.417156E0,2.0271109E1,1.1625036E-1,9.162993E0,3.129339E1,-3.9248257E1,-6.704773E0,3.6904883E0,-4.7212646E1],"categories":[],"categories_nodes":[],"categories_segments":[],"categories_sizes":[],"default_left":[1,1,1,1,1,0,1,1,1,1,1,0,0,1,1,1,1,1,1,1,1,0,0,0,0,0,0,0,0,0,0,0,0,0,0,0,0],"id":14,"left_children":[1,3,5,7,9,-1,11,13,15,17,19,-1,-1,21,23,25,27,29,31,33,35,-1,-1,-1,-1,-1,-1,-1,-1,-1,-1,-1,-1,-1,-1,-1,-1],"loss_changes":[1.1782598E4,9.396258E3,1.2882842E3,1.0761849E4,8.953733E3,0E0,1.2910049E3,7.2608438E3,1.2710881E4,9.265425E3,7.1182646E3,0E0,0E0,4.927004E3,1.6524521E3,1.5180201E4,9.492392E3,9.225178E3,7.8853125E3,4.942754E2,6.9373E3,0E0,0E0,0E0,0E0,0E0,0E0,0E0,0E0,0E0,0E0,0E0,0E0,0E0,0E0,0E0,0E0],"parents":[2147483647,0,0,1,1,2,2,3,3,4,4,6,6,7,7,8,8,9,9,10,10,13,13,14,14,15,15,16,16,17,17,18,18,19,19,20,20],"right_children":[2,4,6,8,10,-1,12,14,16,18,20,-1,-1,22,24,26,28,30,32,34,36,-1,-1,-1,-1,-1,-1,-1,-1,-1,-1,-1,-1,-1,-1,-1,-1],"split_conditions":[2.5736327E0,1.0606619E0,-7.1789324E-2,-1.4109635E0,2.7865875E-1,3.5854127E0,2.1231256E0,-5.7042106E-3,4.4096604E-1,3.032189E-3,2.9455674E-1,2.483661E0,1.7642479E1,1.5937123E-1,-6.186813E-1,-2.6219594E-1,-3.818046E-1,-7.192167E-1,5.0893104E-1,1.8197396E0,1.623908E0,4.02567E-1,5.2168913E0,-6.7126465E-1,8.079428E0,-2.9072115E-1,-3.2772713E0,-3.811024E-1,2.225147E0,6.0813327E0,3.487511E-2,2.748898E0,9.388018E0,-1.1774477E1,-2.011432E0,1.1071465E0,-1.41637945E1],"split_indices":[2,6,4,7,7,0,0,6,7,7,7,0,0,4,4,5,2,7,4,0,3,0,0,0,0,0,0,0,0,0,0,0,0,0,0,0,0],"split_type":[0,0,0,0,0,0,0,0,0,0,0,0,0,0,0,0,0,0,0,0,0,0,0,0,0,0,0,0,0,0,0,0,0,0,0,0,0],"sum_hessian":[1.689E3,1.683E3,6E0,1.408E3,2.75E2,2E0,4E0,1.57E2,1.251E3,2.42E2,3.3E1,1E0,3E0,1.37E2,2E1,6.25E2,6.26E2,1.69E2,7.3E1,7E0,2.6E1,1.15E2,2.2E1,2E0,1.8E1,3.58E2,2.67E2,4.53E2,1.73E2,2.6E1,1.43E2,4.9E1,2.4E1,6E0,1E0,2.4E1,2E0],"tree_param":{"num_deleted":"0","num_feature":"8","num_nodes":"37","size_leaf_vector":"1"}},{"base_weights":[1.20652996E-1,-2.238076E1,3.3551985E-1,-2.85054E1,3.1195068E0,6.478846E-1,-1.5226627E1,-1.2022949E1,-3.224784E1,3.954443E-1,1.841127E1,-2.3998438E1,4.498668E0,-3.5368843E1,-1.3175883E1,1.8385673E-1,1.922828E1,1.0429276E1,4.5060596E1,-2.831321E1,-2.8026123E0,-5.7695312E0,9.070435E0,-5.840463E-1,5.397995E0,3.5359314E1,1.0304087E1,-1.8912842E1,1.7112976E1,-3.294736E1,-2.6983032E0,-2.1105957E1,7.049713E0,-1.0048309E1,-9.9383545E-1,3.90177E0,1.3263657E1],"categories":[],"categories_nodes":[],"categories_segments":[],"categories_sizes":[],"default_left":[1,1,1,1,0,1,1,0,1,1,1,1,1,0,0,1,1,1,0,1,1,1,1,0,0,0,0,0,0,0,0,0,0,0,0,0,0],"id":15,"left_children":[1,3,5,7,-1,9,11,-1,13,15,17,19,21,-1,-1,23,25,27,-1,29,31,33,35,-1,-1,-1,-1,-1,-1,-1,-1,-1,-1,-1,-1,-1,-1],"loss_changes":[8.178334E3,2.5878008E3,8.1521514E3,4.1418555E2,0E0,7.3602515E3,5.817837E3,0E0,1.292207E2,6.455815E3,4.4224907E3,2.0241191E3,5.6871405E2,0E0,0E0,6.425492E3,2.22687E3,4.049819E3,0E0,2.16646E3,1.0504435E3,7.17502E1,1.2163513E2,0E0,0E0,0E0,0E0,0E0,0E0,0E0,0E0,0E0,0E0,0E0,0E0,0E0,0E0],"parents":[2147483647,0,0,1,1,2,2,3,3,5,5,6,6,8,8,9,9,10,10,11,11,12,12,15,15,16,16,17,17,19,19,20,20,21,21,22,22],"right_children":[2,4,6,8,-1,10,12,-1,14,16,18,20,22,-1,-1,24,26,28,-1,30,32,34,36,-1,-1,-1,-1,-1,-1,-1,-1,-1,-1,-1,-1,-1,-1],"split_conditions":[-1.8243045E0,-1.7469428E0,1.6532793E0,-2.0112827E0,9.358521E-1,2.121736E0,1.6972761E0,-3.606885E0,-1.8402648E0,2.3967435E0,2.46309E0,5.0506735E-1,-6.4123356E-1,-1.0610653E1,-3.9527652E0,1.2077663E0,8.8104314E-1,1.9794339E-1,1.351818E1,1.6500929E-1,1.661598E0,-1.5328033E0,-9.494636E-1,-1.752139E-1,1.6193986E0,1.0607795E1,3.091226E0,-5.673853E0,5.133893E0,-9.884209E0,-8.09491E-1,-6.3317876E0,2.114914E0,-3.014493E0,-2.9815066E-1,1.170531E0,3.9790971E0],"split_indices":[6,2,7,4,0,2,7,0,6,6,0,0,4,0,0,7,4,6,0,4,7,2,0,0,0,0,0,0,0,0,0,0,0,0,0,0,0],"split_type":[0,0,0,0,0,0,0,0,0,0,0,0,0,0,0,0,0,0,0,0,0,0,0,0,0,0,0,0,0,0,0,0,0,0,0,0,0],"sum_hessian":[1.689E3,1.5E1,1.674E3,1.2E1,3E0,1.642E3,3.2E1,3E0,9E0,1.62E3,2.2E1,2.2E1,1E1,7E0,2E0,1.603E3,1.7E1,1.8E1,4E0,1.8E1,4E0,3E0,7E0,1.398E3,2.05E2,5E0,1.2E1,3E0,1.5E1,1.5E1,3E0,1E0,3E0,1E0,2E0,4E0,3E0],"tree_param":{"num_deleted":"0","num_feature":"8","num_nodes":"37","size_leaf_vector":"1"}},{"base_weights":[8.315011E-2,-2.9797974E0,1.4132146E0,-7.4188647E0,2.8458568E-1,4.4385742E1,1.1923897E0,3.0986261E0,-1.2554758E1,5.573499E0,-8.709154E0,6.1467755E-1,1.3163184E1,-3.3672917E0,1.1286251E1,-1.5162467E1,9.580528E0,-4.2790392E-1,1.7680004E1,-1.1652615E1,8.078753E0,-8.84252E0,1.320661E0,3.2308428E0,3.6550568E1,1.47290535E1,-1.4373993E1,3.209546E1,4.1758547E0,-1.2460098E1,-2.8724394E1,3.2181904E0,2.2934032E1,2.7950268E1,-4.2247314E0,2.7056728E1,1.2570689E1,3.2994232E0,-1.3673962E1,-1.16688125E-2,1.9638166E1,-1.198813E0,-1.53657255E1,6.487505E0,4.1045225E-3,-1.5406755E0,3.5985302E1,7.305008E0,4.2737617E1],"categories":[],"categories_nodes":[],"categories_segments":[],"categories_sizes":[],"default_left":[1,1,1,1,1,0,1,1,1,1,1,1,1,1,1,1,1,1,1,1,1,1,1,1,1,0,0,0,0,0,0,0,0,0,0,0,0,0,0,0,0,0,0,0,0,0,0,0,0],"id":16,"left_children":[1,3,5,7,9,-1,11,13,15,17,19,21,23,25,27,29,31,33,35,37,39,41,43,45,47,-1,-1,-1,-1,-1,-1,-1,-1,-1,-1,-1,-1,-1,-1,-1,-1,-1,-1,-1,-1,-1,-1,-1,-1],"loss_changes":[6.889132E3,7.421409E3,1.1135081E4,1.1760528E4,1.4128404E4,0E0,8.1109097E3,3.849721E3,8.572732E3,1.359424E4,5.5297393E3,7.4961743E3,1.242565E4,8.378139E3,4.60075E3,4.4431523E3,1.285546E3,1.3694207E4,2.630213E3,2.8861025E3,1.5900781E3,3.870775E3,7.1017217E3,6.1506934E3,2.5829023E3,0E0,0E0,0E0,0E0,0E0,0E0,0E0,0E0,0E0,0E0,0E0,0E0,0E0,0E0,0E0,0E0,0E0,0E0,0E0,0E0,0E0,0E0,0E0,0E0],"parents":[2147483647,0,0,1,1,2,2,3,3,4,4,6,6,7,7,8,8,9,9,10,10,11,11,12,12,13,13,14,14,15,15,16,16,17,17,18,18,19,19,20,20,21,21,22,22,23,23,24,24],"right_children":[2,4,6,8,10,-1,12,14,16,18,20,22,24,26,28,30,32,34,36,38,40,42,44,46,48,-1,-1,-1,-1,-1,-1,-1,-1,-1,-1,-1,-1,-1,-1,-1,-1,-1,-1,-1,-1,-1,-1,-1,-1],"split_conditions":[-5.629513E-1,8.8333654E-1,-5.523112E-1,-1.3290706E0,1.3454871E0,1.3315723E1,1.6437447E0,-1.5758588E0,1.4734707E0,1.2077663E0,-1.33808E-1,-1.3109448E0,6.4394253E-1,-6.8633807E-1,-1.5350049E0,-7.625725E-4,-5.0028205E-1,9.2215717E-1,-1.0118622E0,-1.39486E0,1.7586137E-1,-1.2546539E0,-1.0353277E0,1.2132183E0,-1.0021787E0,4.4187164E0,-4.312198E0,9.628638E0,1.2527565E0,-3.7380297E0,-8.617318E0,9.6545714E-1,6.88021E0,8.38508E0,-1.2674195E0,8.117019E0,3.7712069E0,9.89827E-1,-4.1021886E0,-3.500644E-3,5.89145E0,-3.596439E-1,-4.609718E0,1.9462515E0,1.2313568E-3,-4.6220267E-1,1.0795591E1,2.1915026E0,1.2821286E1],"split_indices":[6,7,6,7,7,0,5,7,3,7,4,0,7,4,7,2,4,7,0,0,0,3,7,2,2,0,0,0,0,0,0,0,0,0,0,0,0,0,0,0,0,0,0,0,0,0,0,0,0],"split_type":[0,0,0,0,0,0,0,0,0,0,0,0,0,0,0,0,0,0,0,0,0,0,0,0,0,0,0,0,0,0,0,0,0,0,0,0,0,0,0,0,0,0,0,0,0,0,0,0,0],"sum_hessian":[1.689E3,5.11E2,1.178E3,2.16E2,2.95E2,5E0,1.173E3,7.1E1,1.45E2,1.86E2,1.09E2,1.12E3,5.3E1,4E1,3.1E1,1.3E2,1.5E1,1.25E2,6.1E1,9.3E1,1.6E1,7.7E1,1.043E3,3.8E1,1.5E1,1.5E1,2.5E1,7E0,2.4E1,1.1E2,2E1,1.1E1,4E0,1.4E1,1.11E2,2E1,4.1E1,1.1E1,8.2E1,1E1,6E0,3.6E1,4.1E1,2.11E2,8.32E2,3.4E1,4E0,3E0,1.2E1],"tree_param":{"num_deleted":"0","num_feature":"8","num_nodes":"49","size_leaf_vector":"1"}},{"base_weights":[9.601708E-2,-1.6196573E-1,1.4376465E1,-3.5194772E-1,1.9392555E1,1.791483E1,-2.344043E1,-1.7560825E0,2.1575587E0,1.3078711E1,5.705011E1,1.357697E1,3.5153587E1,-1.0126287E0,-1.1195416E1,1.9723043E1,9.148617E-1,1.9512247E1,2.9386334E0,2.8066864E0,1.7846695E1,-2.0850927E1,-7.659081E-1,-1.4353184E1,2.85637E1,5.3791473E1,1.058959E1,-3.4861157E0,5.7458034E0,6.415436E0,2.4991415E1,-8.257446E0,9.068555E0,1.07102785E1,-7.774475E0,1.9666122E1,-5.63208E0],"categories":[],"categories_nodes":[],"categories_segments":[],"categories_sizes":[],"default_left":[1,1,1,1,1,1,0,1,1,1,0,1,0,1,1,1,1,1,1,1,1,0,0,0,0,0,0,0,0,0,0,0,0,0,0,0,0],"id":17,"left_children":[1,3,5,7,9,11,-1,13,15,17,-1,19,-1,21,23,25,27,29,31,33,35,-1,-1,-1,-1,-1,-1,-1,-1,-1,-1,-1,-1,-1,-1,-1,-1],"loss_changes":[6.2284746E3,6.1774517E3,4.4342305E3,5.803775E3,3.0580815E3,1.616541E3,0E0,7.399364E3,1.2882643E4,9.212092E2,0E0,1.0535771E3,0E0,4.7806553E3,1.0077335E4,1.1565705E4,1.1777289E4,4.8550586E2,5.553007E2,7.5230023E2,8.369663E2,0E0,0E0,0E0,0E0,0E0,0E0,0E0,0E0,0E0,0E0,0E0,0E0,0E0,0E0,0E0,0E0],"parents":[2147483647,0,0,1,1,2,2,3,3,4,4,5,5,7,7,8,8,9,9,11,11,13,13,14,14,15,15,16,16,17,17,18,18,19,19,20,20],"right_children":[2,4,6,8,10,12,-1,14,16,18,-1,20,-1,22,24,26,28,30,32,34,36,-1,-1,-1,-1,-1,-1,-1,-1,-1,-1,-1,-1,-1,-1,-1,-1],"split_conditions":[2.2680063E0,2.5381048E0,1.4690169E0,2.731668E-1,1.2804422E0,1.0171655E0,-7.0321293E0,1.4424774E-1,-1.0939283E0,-1.3520925E0,1.7115034E1,-4.4938758E-1,1.0546077E1,-1.8914678E0,1.6296942E0,2.3524898E-1,-1.6759379E-1,-1.7020719E0,-9.118606E-1,-5.513636E-1,-3.426564E-1,-6.2552786E0,-2.2977245E-1,-4.3059554E0,8.56911E0,1.6137444E1,3.1768773E0,-1.0458348E0,1.723741E0,1.9246308E0,7.4974246E0,-2.477234E0,2.7205665E0,3.2130837E0,-2.3323426E0,5.899837E0,-1.6896241E0],"split_indices":[4,3,0,6,5,0,0,6,7,1,0,1,0,5,3,5,7,1,4,7,7,0,0,0,0,0,0,0,0,0,0,0,0,0,0,0,0],"split_type":[0,0,0,0,0,0,0,0,0,0,0,0,0,0,0,0,0,0,0,0,0,0,0,0,0,0,0,0,0,0,0,0,0,0,0,0,0],"sum_hessian":[1.689E3,1.66E3,2.9E1,1.645E3,1.5E1,2.7E1,2E0,1.055E3,5.9E2,1.4E1,1E0,2.3E1,4E0,9.79E2,7.6E1,3.8E1,5.52E2,8E0,6E0,7E0,1.6E1,1.1E1,9.68E2,7.1E1,5E0,7E0,3.1E1,2.89E2,2.63E2,3E0,5E0,2E0,4E0,4E0,3E0,1.5E1,1E0],"tree_param":{"num_deleted":"0","num_feature":"8","num_nodes":"37","size_leaf_vector":"1"}},{"base_weights":[9.8651774E-2,-8.559563E-1,3.4831393E0,-6.0474885E-1,-2.8166239E1,5.4285593E0,-5.788745E0,-8.135364E0,-6.811363E-2,-3.554926E1,2.6523499E1,3.5665374E0,2.0329367E1,3.9287667E0,-1.6573397E1,-6.3451695E0,-1.9927141E1,-3.7277588E-1,1.2936868E1,-8.496277E0,-4.4632095E1,1.0167719E1,-5.5692863E0,2.333709E1,-1.7828369E0,-2.1891382E1,7.9665723E0,-3.0835928E1,-4.5595703E0,-9.459624E0,1.3783171E0,-2.3736362E1,-1.0608801E1,-6.399474E-1,1.5355551E1,4.8977156E0,4.1597473E1,-7.444924E0,1.3640656E1,-1.4894094E1,4.687545E0,1.2674561E1,3.827467E1,-1.6422812E1,1.3451416E1,-2.5280548E1,-4.1673584E0,5.4791384E0,4.12948E1,-3.7003254E1,4.11202E0,1.4020909E1,-1.5018219E1],"categories":[],"categories_nodes":[],"categories_segments":[],"categories_sizes":[],"default_left":[1,1,1,1,1,1,1,1,1,1,0,1,1,1,1,1,1,1,1,0,0,1,1,1,1,1,1,1,1,0,0,0,0,0,0,0,0,0,0,0,0,0,0,0,0,0,0,0,0,0,0,0,0],"id":18,"left_children":[1,3,5,7,9,11,13,15,17,19,-1,21,23,25,27,29,31,33,35,-1,-1,37,39,41,43,45,47,49,51,-1,-1,-1,-1,-1,-1,-1,-1,-1,-1,-1,-1,-1,-1,-1,-1,-1,-1,-1,-1,-1,-1,-1,-1],"loss_changes":[5.463134E3,9.032027E3,6.7414526E3,5.2853257E3,5.788198E3,8.473148E3,6.8771113E3,1.7100918E3,4.8465415E3,2.3236885E3,0E0,1.6641115E4,2.3028564E3,3.8233853E3,5.171176E3,1.8652314E3,1.386372E2,5.0314097E3,6.247662E3,0E0,0E0,9.888371E3,1.1164402E4,4.2930566E3,1.3360554E3,1.9499512E2,2.3436948E3,3.1696543E3,3.7084497E3,0E0,0E0,0E0,0E0,0E0,0E0,0E0,0E0,0E0,0E0,0E0,0E0,0E0,0E0,0E0,0E0,0E0,0E0,0E0,0E0,0E0,0E0,0E0,0E0],"parents":[2147483647,0,0,1,1,2,2,3,3,4,4,5,5,6,6,7,7,8,8,9,9,11,11,12,12,13,13,14,14,15,15,16,16,17,17,18,18,21,21,22,22,23,23,24,24,25,25,26,26,27,27,28,28],"right_children":[2,4,6,8,10,12,14,16,18,20,-1,22,24,26,28,30,32,34,36,-1,-1,38,40,42,44,46,48,50,52,-1,-1,-1,-1,-1,-1,-1,-1,-1,-1,-1,-1,-1,-1,-1,-1,-1,-1,-1,-1,-1,-1,-1,-1],"split_conditions":[7.908341E-1,7.6828194E-1,8.731675E-1,-1.1173542E0,2.5298452E-1,-1.5835078E-1,-1.0383182E0,1.2015488E0,2.1721368E0,1.585898E-1,7.95705E0,-5.221557E-1,1.1092978E0,1.2065128E0,3.5061723E-1,2.3830408E-1,-1.4052014E0,7.2317743E-1,-1.4810906E-1,-2.5488832E0,-1.3389629E1,-2.7702814E-1,1.3545034E0,-6.5344477E-1,1.3807983E0,1.047289E0,2.8331776E0,2.0229787E-1,1.040963E0,-2.8378873E0,4.1349515E-1,-7.120909E0,-3.1826403E0,-1.9198424E-1,4.6066656E0,1.4693147E0,1.2479242E1,-2.2334774E0,4.092197E0,-4.4682283E0,1.4062635E0,3.8023684E0,1.1482401E1,-4.9268436E0,4.035425E0,-7.5841646E0,-1.2502075E0,1.6437416E0,1.238844E1,-1.1100977E1,1.2336061E0,4.206273E0,-4.505466E0],"split_indices":[4,4,3,5,1,7,1,1,3,3,0,7,2,0,6,4,5,4,6,0,0,6,6,5,0,0,0,1,3,0,0,0,0,0,0,0,0,0,0,0,0,0,0,0,0,0,0,0,0,0,0,0,0],"split_type":[0,0,0,0,0,0,0,0,0,0,0,0,0,0,0,0,0,0,0,0,0,0,0,0,0,0,0,0,0,0,0,0,0,0,0,0,0,0,0,0,0,0,0,0,0,0,0,0,0,0,0,0,0],"sum_hessian":[1.689E3,1.318E3,3.71E2,1.307E3,1.1E1,3.07E2,6.4E1,8.6E1,1.221E3,1E1,1E0,2.74E2,3.3E1,3.4E1,3E1,7.6E1,1E1,1.194E3,2.7E1,3E0,7E0,1.59E2,1.15E2,2.9E1,4E0,4E0,3E1,1.3E1,1.7E1,5.4E1,2.2E1,6E0,4E0,1.175E3,1.9E1,2.2E1,5E0,2.6E1,1.33E2,6E1,5.5E1,1.8E1,1.1E1,2E0,2E0,3E0,1E0,2.9E1,1E0,1.1E1,2E0,6E0,1.1E1],"tree_param":{"num_deleted":"0","num_feature":"8","num_nodes":"53","size_leaf_vector":"1"}},{"base_weights":[7.253718E-2,3.4472415E-1,-9.049984E0,-5.70358E0,7.0739996E-1,-1.4896324E1,-5.4551476E-1,-2.965801E0,-1.4949021E1,-4.7755995E-1,4.357086E0,-1.8835863E1,1.7592075E-1,-3.2280922E0,6.698944E0,-1.4557489E1,-1.1082592E0,-2.8638542E1,-6.0586505E0,-7.006601E-3,-1.9007385E1,5.283828E1,3.7008014E0,-2.177558E1,5.716858E-1,-3.1066163E0,5.5881753E0,-6.4946623E0,3.2986348E0,2.9083252E-1,7.9224E0,-1.6737488E1,-3.8916626E0,-5.5817075E0,5.6445384E0,1.21332855E1,-1.2123114E1,-4.7249705E-1,2.0009352E1,-7.8784084E0,-3.650222E1,2.4039605E0,2.4458876E1,-2.3359812E1,4.1624146E0,-4.521118E0,3.7763264E0,1.3919373E0,-4.579239E0,-9.846962E0,1.8336029E0,6.7617593E0,-1.2336731E-1],"categories":[],"categories_nodes":[],"categories_segments":[],"categories_sizes":[],"default_left":[1,1,1,1,1,1,1,1,1,1,1,1,1,1,1,1,1,0,1,1,1,0,1,1,1,1,0,1,1,0,0,0,0,0,0,0,0,0,0,0,0,0,0,0,0,0,0,0,0,0,0,0,0],"id":19,"left_children":[1,3,5,7,9,11,13,15,17,19,21,23,25,27,29,31,33,-1,35,37,39,-1,41,43,45,47,-1,49,51,-1,-1,-1,-1,-1,-1,-1,-1,-1,-1,-1,-1,-1,-1,-1,-1,-1,-1,-1,-1,-1,-1,-1,-1],"loss_changes":[4.199443E3,3.6058828E3,2.4281555E3,2.3096777E3,6.705415E3,1.7252671E3,4.2973505E2,1.5557058E3,2.382292E3,1.0210133E4,1.1895094E4,1.3246606E3,1.4172179E2,3.625437E2,4.4736145E1,1.6737817E2,1.9648365E3,0E0,1.6916338E3,1.06592705E4,5.35871E3,0E0,1.0063091E4,9.1906836E2,8.235565E1,3.949737E1,0E0,3.2516272E2,7.19391E1,0E0,0E0,0E0,0E0,0E0,0E0,0E0,0E0,0E0,0E0,0E0,0E0,0E0,0E0,0E0,0E0,0E0,0E0,0E0,0E0,0E0,0E0,0E0,0E0],"parents":[2147483647,0,0,1,1,2,2,3,3,4,4,5,5,6,6,7,7,8,8,9,9,10,10,11,11,12,12,13,13,14,14,15,15,16,16,18,18,19,19,20,20,22,22,23,23,24,24,25,25,27,27,28,28],"right_children":[2,4,6,8,10,12,14,16,18,20,22,24,26,28,30,32,34,-1,36,38,40,-1,42,44,46,48,-1,50,52,-1,-1,-1,-1,-1,-1,-1,-1,-1,-1,-1,-1,-1,-1,-1,-1,-1,-1,-1,-1,-1,-1,-1,-1],"split_conditions":[1.6307263E0,-1.509495E0,-1.2816994E-1,-1.0682349E0,6.757385E-1,1.6950577E0,1.6937637E0,-2.1657739E0,1.7387624E0,6.3192666E-1,6.9145167E-1,1.3447189E0,-1.0764123E0,4.218815E-1,-1.2021029E0,-1.6729989E0,6.4158213E-1,-8.591563E0,-1.3195515E0,5.7351077E-1,-3.536924E-1,1.5851484E1,1.6968429E0,1.7035491E0,-9.968004E-1,-1.6495523E0,1.6764526E0,6.329684E-1,5.9855145E-1,8.7249756E-2,2.3767202E0,-5.0212464E0,-1.1674988E0,-1.6745123E0,1.6933616E0,3.6399858E0,-3.6369343E0,-1.4174911E-1,6.0028057E0,-2.3635225E0,-1.0950666E1,7.211882E-1,7.337663E0,-7.0079436E0,1.2487245E0,-1.3563355E0,1.132898E0,4.175812E-1,-1.3737717E0,-2.9540887E0,5.500809E-1,2.028528E0,-3.7010193E-2],"split_indices":[7,4,4,6,7,7,7,2,5,7,7,5,0,6,6,4,1,0,0,7,4,0,5,0,0,3,0,4,5,0,0,0,0,0,0,0,0,0,0,0,0,0,0,0,0,0,0,0,0,0,0,0,0],"split_type":[0,0,0,0,0,0,0,0,0,0,0,0,0,0,0,0,0,0,0,0,0,0,0,0,0,0,0,0,0,0,0,0,0,0,0,0,0,0,0,0,0,0,0,0,0,0,0,0,0,0,0,0,0],"sum_hessian":[1.689E3,1.641E3,4.8E1,9.2E1,1.549E3,2.8E1,2E1,7.2E1,2E1,1.17E3,3.79E2,2.2E1,6E0,1.5E1,5E0,9E0,6.3E1,7E0,1.3E1,1.142E3,2.8E1,4E0,3.75E2,1.9E1,3E0,4E0,2E0,1E1,5E0,1E0,4E0,7E0,2E0,3.8E1,2.5E1,3E0,1E1,1.117E3,2.5E1,1.8E1,1E1,3.54E2,2.1E1,1.8E1,1E0,1E0,2E0,1E0,3E0,7E0,3E0,2E0,3E0],"tree_param":{"num_deleted":"0","num_feature":"8","num_nodes":"53","size_leaf_vector":"1"}},{"base_weights":[4.986435E-2,2.973851E0,-6.806289E-1,1.0992919E0,1.9170767E1,-4.0659437E0,8.5822046E-1,3.388838E0,-8.076913E0,3.8301846E1,4.592817E0,-1.0876657E0,-1.959831E1,2.3709284E1,1.4949481E-1,1.4978371E0,2.3398142E1,-2.3812878E1,-3.9128911E-1,9.452118E0,4.4726604E1,9.014903E0,-1.136084E1,-7.3555E0,3.7823339E0,-2.8083876E1,-7.913798E0,1.4616036E1,4.890102E1,-9.988138E-1,5.6194654E0,6.3503677E-1,2.4714066E1,1.1548553E1,3.5277832E1,-4.601329E1,-8.319326E0,9.034516E0,-1.1211401E1,1.521761E1,-3.9221802E0,1.5396729E0,4.851272E1,-9.814148E-1,2.0383438E1,-2.0593912E1,1.6591797E0,-1.1932958E1,3.5141966E0,5.584276E0,-1.1928804E1,-3.3745743E1,-1.06040535E1,-3.826938E1,-3.1235714E0,2.8297827E1,1.0003536E1,5.2824993E1,1.2678589E1,-8.460358E0,5.9911597E-1,1.1249923E1,1.5191431E0],"categories":[],"categories_nodes":[],"categories_segments":[],"categories_sizes":[],"default_left":[1,1,1,1,1,1,1,1,1,1,1,1,1,1,1,1,1,1,1,1,1,1,1,1,1,1,1,1,1,1,1,0,0,0,0,0,0,0,0,0,0,0,0,0,0,0,0,0,0,0,0,0,0,0,0,0,0,0,0,0,0,0,0],"id":20,"left_children":[1,3,5,7,9,11,13,15,17,19,21,23,25,27,29,31,33,35,37,39,41,43,45,47,49,51,53,55,57,59,61,-1,-1,-1,-1,-1,-1,-1,-1,-1,-1,-1,-1,-1,-1,-1,-1,-1,-1,-1,-1,-1,-1,-1,-1,-1,-1,-1,-1,-1,-1,-1,-1],"loss_changes":[3.6117837E3,1.0241307E4,7.0519277E3,6.414212E3,9.585304E3,1.954654E4,1.5074125E4,9.19733E3,7.368066E3,2.3575254E3,1.5839342E3,1.0894489E4,6.5199297E3,5.6993535E3,5.6838306E3,4.4712427E3,2.548751E3,6.496466E3,4.384797E3,3.6812387E2,1.8874336E3,1.9519441E3,6.3524304E2,7.8038037E3,5.757037E3,3.5019297E3,4.2427656E3,1.1052808E3,3.2520508E2,8.92349E3,3.60752E3,0E0,0E0,0E0,0E0,0E0,0E0,0E0,0E0,0E0,0E0,0E0,0E0,0E0,0E0,0E0,0E0,0E0,0E0,0E0,0E0,0E0,0E0,0E0,0E0,0E0,0E0,0E0,0E0,0E0,0E0,0E0,0E0],"parents":[2147483647,0,0,1,1,2,2,3,3,4,4,5,5,6,6,7,7,8,8,9,9,10,10,11,11,12,12,13,13,14,14,15,15,16,16,17,17,18,18,19,19,20,20,21,21,22,22,23,23,24,24,25,25,26,26,27,27,28,28,29,29,30,30],"right_children":[2,4,6,8,10,12,14,16,18,20,22,24,26,28,30,32,34,36,38,40,42,44,46,48,50,52,54,56,58,60,62,-1,-1,-1,-1,-1,-1,-1,-1,-1,-1,-1,-1,-1,-1,-1,-1,-1,-1,-1,-1,-1,-1,-1,-1,-1,-1,-1,-1,-1,-1,-1,-1],"split_conditions":[-1.0353277E0,-1.1211028E0,-1.6759379E-1,-1.2591934E0,-1.0857944E0,-2.968111E-1,-9.08768E-2,3.5296795E-1,-1.2257336E0,2.9695796E-2,1.5938139E0,5.188801E-1,1.2362411E0,-1.0640506E-1,2.2702797E-1,1.767113E0,3.3850953E-2,4.564072E-2,4.8654757E-2,-3.319335E-1,-3.3530155E-1,5.07219E-1,1.9574466E0,1.6421815E0,1.0409632E0,1.2703719E0,-1.6930487E0,6.4424455E-1,5.760726E-1,4.2340434E-1,-9.5866764E-1,1.9051103E-1,7.41422E0,3.4645662E0,1.058335E1,-1.38039875E1,-2.495798E0,2.710355E0,-3.3634205E0,4.5652833E0,-1.1766541E0,4.6190187E-1,1.4553816E1,-2.9442444E-1,6.1150317E0,-6.178174E0,4.9775392E-1,-3.5798874E0,1.0542591E0,1.675283E0,-3.5786414E0,-1.0123723E1,-3.1812162E0,-1.1480814E1,-9.3707144E-1,8.489348E0,3.001061E0,1.5847499E1,3.8035767E0,-2.5381074E0,1.797348E-1,3.3749769E0,4.5574296E-1],"split_indices":[7,7,7,7,7,7,7,6,7,4,0,6,4,7,4,3,0,6,3,0,6,0,0,4,3,6,5,4,0,7,1,0,0,0,0,0,0,0,0,0,0,0,0,0,0,0,0,0,0,0,0,0,0,0,0,0,0,0,0,0,0,0,0],"split_type":[0,0,0,0,0,0,0,0,0,0,0,0,0,0,0,0,0,0,0,0,0,0,0,0,0,0,0,0,0,0,0,0,0,0,0,0,0,0,0,0,0,0,0,0,0,0,0,0,0,0,0,0,0,0,0,0,0,0,0,0,0,0,0],"sum_hessian":[1.689E3,3.37E2,1.352E3,3.03E2,3.4E1,4.22E2,9.3E2,2.43E2,6E1,1.4E1,2E1,3.55E2,6.7E1,2.7E1,9.03E2,2.23E2,2E1,1.9E1,4.1E1,3E0,1.1E1,1.6E1,4E0,1.55E2,2E2,3.8E1,2.9E1,2.1E1,6E0,7.47E2,1.56E2,2.16E2,7E0,1.1E1,9E0,7E0,1.2E1,2.2E1,1.9E1,2E0,1E0,1E0,1E1,9E0,7E0,2E0,2E0,1.09E2,4.6E1,1.8E2,2E1,2.8E1,1E1,3E0,2.6E1,4E0,1.7E1,5E0,1E0,1.31E2,6.16E2,6.5E1,9.1E1],"tree_param":{"num_deleted":"0","num_feature":"8","num_nodes":"63","size_leaf_vector":"1"}},{"base_weights":[5.0118532E-2,-3.7213176E-2,2.1052473E1,1.753547E1,-1.3155502E-1,6.0441895E0,2.5846949E1,2.4776632E1,2.289856E0,-5.3482497E-1,4.004875E0,6.0306396E0,2.9293365E1,6.062683E0,2.7306885E1,-4.8480225E0,1.1851746E1,-5.66264E0,3.1596754E-2,-3.5171623E0,6.01081E0,-7.1954956E0,-7.6538086E-2,-3.6385303E0,-2.702516E1,3.0023704E0,-1.1537287E0,1.4221802E1,-8.157762E0,1.2453069E1,1.2553933E0],"categories":[],"categories_nodes":[],"categories_segments":[],"categories_sizes":[],"default_left":[1,1,1,1,1,0,1,1,1,1,1,0,0,0,0,1,0,1,1,1,1,0,0,0,0,0,0,0,0,0,0],"id":21,"left_children":[1,3,5,7,9,-1,11,13,15,17,19,-1,-1,-1,-1,21,-1,23,25,27,29,-1,-1,-1,-1,-1,-1,-1,-1,-1,-1],"loss_changes":[3.100533E3,2.794108E3,3.4747437E2,9.3682886E2,2.7978743E3,0E0,1.648186E2,1.1855298E2,3.3046393E2,4.4382637E3,2.26936E3,0E0,0E0,0E0,0E0,3.305207E1,0E0,6.474162E3,4.8523403E3,2.7502397E3,3.59937E3,0E0,0E0,0E0,0E0,0E0,0E0,0E0,0E0,0E0,0E0],"parents":[2147483647,0,0,1,1,2,2,3,3,4,4,6,6,7,7,8,8,9,9,10,10,15,15,17,17,18,18,19,19,20,20],"right_children":[2,4,6,8,10,-1,12,14,16,18,20,-1,-1,-1,-1,22,-1,24,26,28,30,-1,-1,-1,-1,-1,-1,-1,-1,-1,-1],"split_conditions":[2.5736327E0,-1.7281837E0,-7.1789324E-2,9.409779E-2,1.50123E0,1.8132569E0,2.1231256E0,-7.751781E-1,1.1247492E0,-1.1173542E0,7.8303516E-2,1.809192E0,8.78801E0,1.818805E0,8.192066E0,2.791417E-1,3.5555239E0,1.3151739E0,-2.5940132E-1,1.591439E0,5.062437E-1,-2.1586487E0,-2.2961427E-2,-1.0915592E0,-8.107549E0,9.007111E-1,-3.4611863E-1,4.2665405E0,-2.4473286E0,3.7359207E0,3.76618E-1],"split_indices":[2,7,4,0,4,0,0,0,0,5,6,0,0,0,0,0,0,4,5,4,2,0,0,0,0,0,0,0,0,0,0],"split_type":[0,0,0,0,0,0,0,0,0,0,0,0,0,0,0,0,0,0,0,0,0,0,0,0,0,0,0,0,0,0,0],"sum_hessian":[1.689E3,1.683E3,6E0,8E0,1.675E3,2E0,4E0,5E0,3E0,1.527E3,1.48E2,1E0,3E0,1E0,4E0,2E0,1E0,1.51E2,1.376E3,3.1E1,1.17E2,1E0,1E0,1.39E2,1.2E1,3.92E2,9.84E2,6E0,2.5E1,4.9E1,6.8E1],"tree_param":{"num_deleted":"0","num_feature":"8","num_nodes":"31","size_leaf_vector":"1"}},{"base_weights":[4.753931E-2,-7.618482E-2,1.222793E1,3.5624862E0,-4.925356E-1,2.4433695E1,5.106054E0,2.1876535E0,1.6830376E1,-1.8560843E1,-1.9920324E-1,4.001404E0,2.7719873E1,-1.7293243E0,1.5021448E1,3.9993005E0,-8.541042E0,2.7917221E1,5.10536E0,-2.172178E1,2.7070374E1,1.2585703E1,-5.266564E-1,-3.661621E0,5.8983765E0,2.2637024E0,1.7644958E1,1.44731E1,6.047891E-1,-1.6619316E1,1.7117289E1,1.1048584E0,3.1589722E1,2.5321777E1,-9.223145E0,-7.9300537E0,-3.3703358E1,4.8650208E0,2.826504E1,-1.226065E1,-2.52047E-1,-6.461222E0,-1.2495362E0],"categories":[],"categories_nodes":[],"categories_segments":[],"categories_sizes":[],"default_left":[1,1,1,1,1,1,1,1,1,1,1,0,0,1,1,1,1,1,1,1,0,1,1,1,0,0,0,0,0,0,0,0,0,0,0,0,0,0,0,0,0,0,0],"id":22,"left_children":[1,3,5,7,9,11,13,15,17,19,21,-1,-1,23,25,27,29,31,33,35,-1,37,39,41,-1,-1,-1,-1,-1,-1,-1,-1,-1,-1,-1,-1,-1,-1,-1,-1,-1,-1,-1],"loss_changes":[2.5477756E3,2.5378037E3,1.3530154E3,3.1006545E3,7.962231E3,2.9194604E2,8.392826E2,3.085706E3,1.9373677E3,4.0497158E3,6.202586E3,0E0,0E0,1.3950948E2,1.2740747E2,4.7909604E3,5.051804E3,7.528457E2,2.8405857E3,3.5334043E3,0E0,4.3415317E3,4.64986E3,3.91966E1,0E0,0E0,0E0,0E0,0E0,0E0,0E0,0E0,0E0,0E0,0E0,0E0,0E0,0E0,0E0,0E0,0E0,0E0,0E0],"parents":[2147483647,0,0,1,1,2,2,3,3,4,4,5,5,6,6,7,7,8,8,9,9,10,10,13,13,14,14,15,15,16,16,17,17,18,18,19,19,21,21,22,22,23,23],"right_children":[2,4,6,8,10,12,14,16,18,20,22,-1,-1,24,26,28,30,32,34,36,-1,38,40,42,-1,-1,-1,-1,-1,-1,-1,-1,-1,-1,-1,-1,-1,-1,-1,-1,-1,-1,-1],"split_conditions":[2.413075E0,-1.3928473E0,-3.8424996E-1,1.034379E0,-1.3547661E0,4.976549E-1,-3.35262E-1,6.470778E-1,1.3129077E0,2.54055E0,-1.2880316E0,1.2004212E0,8.315963E0,1.140394E0,-4.5888218E-1,4.2193997E-1,-1.8200909E-1,-4.5517755E-1,-6.4299995E-1,-2.6912147E-1,8.121113E0,7.248855E-2,-1.2257336E0,-4.309104E-1,1.769513E0,6.7911077E-1,5.2934875E0,4.34193E0,1.8143673E-1,-4.985795E0,5.1351867E0,3.3145753E-1,9.476917E0,7.5965333E0,-2.7669435E0,-2.3790162E0,-1.0111008E1,1.4595063E0,8.479512E0,-3.678195E0,-7.56141E-2,-1.9383668E0,-3.7486085E-1],"split_indices":[6,7,7,0,7,4,7,0,3,0,7,0,0,4,0,1,6,4,6,4,0,6,7,0,0,0,0,0,0,0,0,0,0,0,0,0,0,0,0,0,0,0,0],"split_type":[0,0,0,0,0,0,0,0,0,0,0,0,0,0,0,0,0,0,0,0,0,0,0,0,0,0,0,0,0,0,0,0,0,0,0,0,0,0,0,0,0,0,0],"sum_hessian":[1.689E3,1.673E3,1.6E1,1.71E2,1.502E3,5E0,1.1E1,1.56E2,1.5E1,2.3E1,1.479E3,1E0,4E0,7E0,4E0,1.34E2,2.2E1,7E0,8E0,2.2E1,1E0,3.6E1,1.443E3,6E0,1E0,1E0,3E0,3.2E1,1.02E2,1.7E1,5E0,1E0,6E0,3E0,5E0,1.1E1,1.1E1,2.5E1,1.1E1,3.2E1,1.411E3,2E0,4E0],"tree_param":{"num_deleted":"0","num_feature":"8","num_nodes":"43","size_leaf_vector":"1"}},{"base_weights":[5.4602988E-2,2.9433188E-1,-5.943147E0,7.684918E-2,9.142234E0,-2.6685354E1,-3.769874E0,4.3724906E-1,-7.0010924E0,-7.648105E0,2.2464228E1,-5.921244E0,-3.5587097E1,-6.2866454E0,1.33749695E1,-1.4324203E-1,1.2579161E1,-3.8470736E-1,-1.5357558E1,8.811442E0,-1.4656504E1,8.402787E0,3.348186E1,-8.695293E0,2.667511E0,2.6358795E1,3.1291503E-1,-7.2242513E0,5.2154857E-1,2.2151817E1,7.929628E0,-5.5713196E0,2.0404488E1,-3.2799244E1,-1.1938692E1,2.0993713E1,-1.0368733E1,4.2043457E0,-1.6578604E1,1.40784235E1,-1.1425049E1,1.8200684E-1,4.0123634E1,-1.207905E1,-3.5125597E0,-3.558426E-1,6.9713745E0,2.996932E1,7.763611E0,-8.818889E0,9.340413E0],"categories":[],"categories_nodes":[],"categories_segments":[],"categories_sizes":[],"default_left":[1,1,1,1,1,1,1,1,1,1,1,0,0,1,1,1,1,1,1,1,1,1,1,1,1,1,1,0,0,0,0,0,0,0,0,0,0,0,0,0,0,0,0,0,0,0,0,0,0,0,0],"id":23,"left_children":[1,3,5,7,9,11,13,15,17,19,21,-1,-1,23,25,27,29,31,33,35,37,39,41,43,45,47,49,-1,-1,-1,-1,-1,-1,-1,-1,-1,-1,-1,-1,-1,-1,-1,-1,-1,-1,-1,-1,-1,-1,-1,-1],"loss_changes":[2.4316885E3,3.1281533E3,2.8295002E3,4.0538738E3,8.895359E3,8.983013E2,2.6730627E3,1.0658788E4,4.2513906E3,2.2055361E3,3.1269834E3,0E0,0E0,1.1662681E3,1.3485153E3,6.8012363E3,2.8954229E3,4.858001E3,1.6358677E3,1.6196267E3,5.4098364E2,1.3987378E3,2.6467373E3,6.941299E2,1.5862592E2,3.58833E1,4.9455875E2,0E0,0E0,0E0,0E0,0E0,0E0,0E0,0E0,0E0,0E0,0E0,0E0,0E0,0E0,0E0,0E0,0E0,0E0,0E0,0E0,0E0,0E0,0E0,0E0],"parents":[2147483647,0,0,1,1,2,2,3,3,4,4,5,5,6,6,7,7,8,8,9,9,10,10,13,13,14,14,15,15,16,16,17,17,18,18,19,19,20,20,21,21,22,22,23,23,24,24,25,25,26,26],"right_children":[2,4,6,8,10,12,14,16,18,20,22,-1,-1,24,26,28,30,32,34,36,38,40,42,44,46,48,50,-1,-1,-1,-1,-1,-1,-1,-1,-1,-1,-1,-1,-1,-1,-1,-1,-1,-1,-1,-1,-1,-1,-1,-1],"split_conditions":[1.5933846E0,1.4992907E0,1.600779E0,1.3523269E0,-4.3826336E-1,-3.1687176E-1,4.55858E-1,1.2077663E0,-1.6625464E-1,1.5222135E0,-5.963565E-1,-1.7763733E0,-1.0676129E1,1.6950577E0,8.1328166E-1,-1.3296859E0,1.2739462E0,-3.9002866E-1,-1.5838029E0,-6.2799764E-1,-1.7369759E0,-7.4606097E-1,-5.9658927E-1,-1.2816994E-1,-9.494636E-1,1.4066184E0,1.9001923E0,-2.1672754E0,1.5646458E-1,6.6455455E0,2.3788884E0,-1.6713959E0,6.1213465E0,-9.839773E0,-3.5816078E0,6.2981143E0,-3.1106203E0,1.2613038E0,-4.9735813E0,4.2235274E0,-3.4275148E0,5.4602053E-2,1.2037091E1,-3.6237152E0,-1.0537679E0,-1.0675278E-1,2.0914125E0,8.990796E0,2.3290834E0,-2.6456666E0,2.802124E0],"split_indices":[7,7,7,7,4,0,2,7,0,7,6,0,0,7,2,2,7,0,1,1,0,6,0,4,0,0,3,0,0,0,0,0,0,0,0,0,0,0,0,0,0,0,0,0,0,0,0,0,0,0,0],"split_type":[0,0,0,0,0,0,0,0,0,0,0,0,0,0,0,0,0,0,0,0,0,0,0,0,0,0,0,0,0,0,0,0,0,0,0,0,0,0,0,0,0,0,0,0,0,0,0,0,0,0,0],"sum_hessian":[1.689E3,1.625E3,6.4E1,1.587E3,3.8E1,5E0,5.9E1,1.511E3,7.6E1,1.7E1,2.1E1,2E0,3E0,5.2E1,7E0,1.443E3,6.8E1,4.3E1,3.3E1,5E0,1.2E1,1E1,1.1E1,4.1E1,1.1E1,3E0,4E0,1.23E2,1.32E3,2.1E1,4.7E1,3.5E1,8E0,4E0,2.9E1,3E0,2E0,1E0,1.1E1,8E0,2E0,2E0,9E0,2.4E1,1.7E1,7E0,4E0,2E0,1E0,2E0,2E0],"tree_param":{"num_deleted":"0","num_feature":"8","num_nodes":"51","size_leaf_vector":"1"}},{"base_weights":[4.218544E-2,-7.066694E-2,1.1853783E1,-1.7094221E1,7.7436754E-4,7.0526857E0,4.193512E1,-2.8352646E1,-1.5622406E0,-5.5159277E-1,2.48279E0,1.027708E1,-4.383667E0,5.749237E0,-5.915812E0,-2.0887676E-1,-7.756315E0,3.0292768E1,1.8212038E0,2.0151306E1,7.5474854E0,-1.1744568E1,1.9848226E0,-3.5422525E0,2.9689884E-1,4.262549E0,-1.3166105E1,4.684143E0,3.378018E1,-1.8195442E1,2.43613E0,8.050769E0,1.2573242E0,-2.694702E-1,3.246704E0],"categories":[],"categories_nodes":[],"categories_segments":[],"categories_sizes":[],"default_left":[1,1,1,1,1,1,0,0,1,1,1,1,1,0,0,1,1,1,1,0,1,0,1,0,0,0,0,0,0,0,0,0,0,0,0],"id":24,"left_children":[1,3,5,7,9,11,-1,-1,13,15,17,19,21,-1,-1,23,25,27,29,-1,31,-1,33,-1,-1,-1,-1,-1,-1,-1,-1,-1,-1,-1,-1],"loss_changes":[2.2535518E3,2.037123E3,2.0150193E3,1.1797657E3,2.2895415E3,5.981808E2,0E0,0E0,1.6133557E2,3.371271E3,5.538033E3,1.7133997E2,2.1082217E2,0E0,0E0,2.2012039E3,4.0873315E3,4.6692383E2,3.7123367E3,0E0,2.4700623E1,0E0,9.40884E0,0E0,0E0,0E0,0E0,0E0,0E0,0E0,0E0,0E0,0E0,0E0,0E0],"parents":[2147483647,0,0,1,1,2,2,3,3,4,4,5,5,8,8,9,9,10,10,11,11,12,12,15,15,16,16,17,17,18,18,20,20,22,22],"right_children":[2,4,6,8,10,12,-1,-1,14,16,18,20,22,-1,-1,24,26,28,30,-1,32,-1,34,-1,-1,-1,-1,-1,-1,-1,-1,-1,-1,-1,-1],"split_conditions":[2.5381048E0,-1.9693567E0,1.2804422E0,1.1395528E0,9.0467E-1,9.199344E-1,1.2580537E1,-8.505795E0,-2.0618787E0,7.59851E-1,9.2156553E-1,6.3416773E-1,7.718748E-1,1.7247711E0,-1.7747437E0,-6.998696E-1,-1.0226479E0,-1.190451E0,-1.7824771E0,6.045392E0,3.6830956E-1,-3.5233705E0,1.6562124E0,-1.0626758E0,8.906966E-2,1.2787647E0,-3.9498317E0,1.4052429E0,1.0134055E1,-5.458633E0,7.30839E-1,2.4152308E0,3.771973E-1,-8.0841064E-2,9.7401124E-1],"split_indices":[3,0,5,7,1,5,0,0,0,1,1,0,0,0,0,0,2,0,5,0,6,0,0,0,0,0,0,0,0,0,0,0,0,0,0],"split_type":[0,0,0,0,0,0,0,0,0,0,0,0,0,0,0,0,0,0,0,0,0,0,0,0,0,0,0,0,0,0,0,0,0,0,0],"sum_hessian":[1.689E3,1.674E3,1.5E1,6E0,1.668E3,1.4E1,1E0,3E0,3E0,1.365E3,3.03E2,1.1E1,3E0,1E0,2E0,1.304E3,6.1E1,6E0,2.97E2,1E0,1E1,1E0,2E0,1.71E2,1.133E3,1.9E1,4.2E1,1E0,5E0,8E0,2.89E2,9E0,1E0,1E0,1E0],"tree_param":{"num_deleted":"0","num_feature":"8","num_nodes":"35","size_leaf_vector":"1"}},{"base_weights":[3.7438277E-2,-3.1718957E-1,3.1290073E0,-3.5269782E-2,-7.162554E0,2.4851202E1,1.510631E0,-4.538085E-1,4.950468E0,-2.1203026E1,-4.908095E0,3.2649246E1,1.092804E0,-1.2526803E1,3.6748064E0,2.2630498E-1,-5.0060325E0,-7.8249664E0,6.9857383E0,-2.288243E1,-4.7236023E0,3.3922424E1,-6.30719E0,4.5781445E1,1.2987195E1,8.434123E0,-1.0465576E1,-2.5316956E1,-3.40979E0,-1.1541421E0,1.0896118E1,1.4585608E-1,3.152594E1,-1.132904E1,-1.1667186E0,2.3496878E0,-1.4164728E1,-9.181885E0,8.723834E0,-5.607015E-1,-1.3528384E1,1.1838318E1,5.1307648E1,1.5428528E1,1.6109314E0,-8.857312E0,-3.6713207E1,7.8795776E0,-7.205034E0,-1.3157405E1,3.980923E0,2.8777729E1,1.1980045E0],"categories":[],"categories_nodes":[],"categories_segments":[],"categories_sizes":[],"default_left":[1,1,1,1,1,1,1,1,1,1,1,1,1,1,1,1,1,1,1,0,0,0,1,1,1,0,0,1,1,1,1,0,0,0,0,0,0,0,0,0,0,0,0,0,0,0,0,0,0,0,0,0,0],"id":25,"left_children":[1,3,5,7,9,11,13,15,17,19,21,23,25,27,29,31,33,35,37,-1,-1,-1,39,41,43,-1,-1,45,47,49,51,-1,-1,-1,-1,-1,-1,-1,-1,-1,-1,-1,-1,-1,-1,-1,-1,-1,-1,-1,-1,-1,-1],"loss_changes":[1.8538347E3,2.92732E3,6.079374E3,3.0446907E3,1.7951536E3,2.1875498E3,4.997887E3,4.1683877E3,2.9928281E3,1.1331714E2,3.0933174E3,1.7292812E3,4.2768295E2,2.47905E3,4.964306E3,2.9465225E3,4.2350835E3,1.0653608E3,2.8339868E3,0E0,0E0,0E0,2.1502332E3,3.3048633E2,1.1401196E2,0E0,0E0,1.3630239E3,6.5661523E2,5.3532065E3,9.850344E3,0E0,0E0,0E0,0E0,0E0,0E0,0E0,0E0,0E0,0E0,0E0,0E0,0E0,0E0,0E0,0E0,0E0,0E0,0E0,0E0,0E0,0E0],"parents":[2147483647,0,0,1,1,2,2,3,3,4,4,5,5,6,6,7,7,8,8,9,9,10,10,11,11,12,12,13,13,14,14,15,15,16,16,17,17,18,18,22,22,23,23,24,24,27,27,28,28,29,29,30,30],"right_children":[2,4,6,8,10,12,14,16,18,20,22,24,26,28,30,32,34,36,38,-1,-1,-1,40,42,44,-1,-1,46,48,50,52,-1,-1,-1,-1,-1,-1,-1,-1,-1,-1,-1,-1,-1,-1,-1,-1,-1,-1,-1,-1,-1,-1],"split_conditions":[1.3503082E0,1.1882193E0,1.4062009E0,9.31113E-1,-8.280891E-1,1.1776619E-1,-7.38019E-1,6.292925E-1,-1.2485461E0,1.3985419E0,-1.3516294E0,4.895222E-1,1.9488399E0,1.7387624E0,6.4209396E-1,6.2090856E-1,5.3499028E-2,-1.3183007E0,-1.487257E0,-6.864729E0,-1.4170808E0,1.0176727E1,1.0000887E-1,-3.9146E-1,-1.1517209E0,2.530237E0,-3.139673E0,2.7395934E-2,-1.3195515E0,-2.3064741E-1,8.3915496E-1,4.3756828E-2,9.457783E0,-3.398712E0,-3.5001558E-1,7.0490634E-1,-4.2494187E0,-2.7545655E0,2.6171503E0,-1.6821045E-1,-4.0585155E0,3.5514956E0,1.5392295E1,4.6285586E0,4.8327944E-1,-2.6571937E0,-1.1013963E1,2.3638735E0,-2.1615102E0,-3.9472215E0,1.1942769E0,8.633319E0,3.5940135E-1],"split_indices":[5,5,5,5,6,0,6,5,0,7,4,1,0,5,7,5,7,3,1,0,0,0,2,1,0,0,0,0,0,2,7,0,0,0,0,0,0,0,0,0,0,0,0,0,0,0,0,0,0,0,0,0,0],"split_type":[0,0,0,0,0,0,0,0,0,0,0,0,0,0,0,0,0,0,0,0,0,0,0,0,0,0,0,0,0,0,0,0,0,0,0,0,0,0,0,0,0,0,0,0,0,0,0,0,0,0,0,0,0],"sum_hessian":[1.689E3,1.516E3,1.73E2,1.457E3,5.9E1,1.1E1,1.62E2,1.345E3,1.12E2,7E0,5.2E1,8E0,3E0,2.1E1,1.41E2,1.171E3,1.74E2,1.5E1,9.7E1,6E0,1E0,1E0,5.1E1,4E0,4E0,2E0,1E0,8E0,1.3E1,8.5E1,5.6E1,1.169E3,2E0,6.5E1,1.09E2,6E0,9E0,9E0,8.8E1,2.9E1,2.2E1,1E0,3E0,3E0,1E0,4E0,4E0,3E0,1E1,2.5E1,6E1,1.9E1,3.7E1],"tree_param":{"num_deleted":"0","num_feature":"8","num_nodes":"53","size_leaf_vector":"1"}},{"base_weights":[3.566367E-2,-3.1852596E-2,1.6273054E1,1.8740049E-1,-4.873005E0,2.9448242E0,1.8003622E1,4.7159452E-2,4.5251442E1,-1.6293781E1,3.7308997E-1,5.019165E0,1.959668E1,1.1988447E-1,-1.9390402E1,4.9689453E1,1.3749695E1,-8.506029E0,-3.6941406E1,-7.6440916E0,7.7825885E0,-1.19211435E-1,7.7050734E0,-1.7526041E0,-2.7771149E1,-2.1925732E1,7.349867E0,-4.3534107E1,-1.9889526E0,-1.2588434E1,2.1460815E1,1.7407541E1,7.746124E-2],"categories":[],"categories_nodes":[],"categories_segments":[],"categories_sizes":[],"default_left":[1,1,1,1,1,0,1,1,1,1,1,0,0,1,1,0,0,1,1,1,1,0,0,0,0,0,0,0,0,0,0,0,0],"id":26,"left_children":[1,3,5,7,9,-1,11,13,15,17,19,-1,-1,21,23,-1,-1,25,27,29,31,-1,-1,-1,-1,-1,-1,-1,-1,-1,-1,-1,-1],"loss_changes":[1.853245E3,1.788374E3,1.0844031E2,1.0185429E4,4.379836E3,0E0,2.5750977E1,2.2753887E3,1.5811523E1,3.3841426E3,3.0890586E3,0E0,0E0,2.9080994E3,8.382356E2,0E0,0E0,3.991217E3,1.2959985E3,3.8677737E3,2.0010118E3,0E0,0E0,0E0,0E0,0E0,0E0,0E0,0E0,0E0,0E0,0E0,0E0],"parents":[2147483647,0,0,1,1,2,2,3,3,4,4,6,6,7,7,8,8,9,9,10,10,13,13,14,14,17,17,18,18,19,19,20,20],"right_children":[2,4,6,8,10,-1,12,14,16,18,20,-1,-1,22,24,-1,-1,26,28,30,32,-1,-1,-1,-1,-1,-1,-1,-1,-1,-1,-1,-1],"split_conditions":[2.5736327E0,1.6635407E0,-3.8188273E-1,1.6194532E0,3.4096685E-1,8.834473E-1,1.2492611E0,1.5879622E0,1.658817E0,-1.0161022E0,1.8240429E0,1.5057496E0,5.879004E0,1.3753974E0,-1.1517596E0,1.49068365E1,4.1249084E0,1.3780007E0,2.6094036E0,-5.1938343E-1,1.5935314E0,-3.576343E-2,2.311522E0,-5.257813E-1,-8.331345E0,-6.5777197E0,2.20496E0,-1.3060233E1,-5.966858E-1,-3.7765305E0,6.438245E0,5.2222624E0,2.3238374E-2],"split_indices":[2,2,4,2,6,0,3,2,2,7,0,0,0,2,1,0,0,3,0,1,3,0,0,0,0,0,0,0,0,0,0,0,0],"split_type":[0,0,0,0,0,0,0,0,0,0,0,0,0,0,0,0,0,0,0,0,0,0,0,0,0,0,0,0,0,0,0,0,0],"sum_hessian":[1.689E3,1.683E3,6E0,1.611E3,7.2E1,1E0,5E0,1.607E3,4E0,2.2E1,5E1,1E0,4E0,1.602E3,5E0,3E0,1E0,1.7E1,5E0,2.4E1,2.6E1,1.554E3,4.8E1,2E0,3E0,9E0,8E0,4E0,1E0,2.1E1,3E0,1.1E1,1.5E1],"tree_param":{"num_deleted":"0","num_feature":"8","num_nodes":"33","size_leaf_vector":"1"}},{"base_weights":[3.1236999E-2,1.3916302E0,-7.1501464E-1,4.3713555E-1,1.2339326E1,-9.359571E0,7.8996205E-1,1.4717436E0,-2.0550386E1,5.0736614E1,5.6459846E0,-2.261941E1,-5.3915277E0,1.7257776E1,2.7902317E-1,4.2937618E-1,1.1192087E1,-2.3186897E1,7.391825E0,1.6573189E1,-1.715879E0,-3.2014053E1,-1.5509015E1,-2.7040012E0,-1.7309406E1,1.0451685E1,3.618295E1,-4.1860487E-2,1.2046501E1,6.129421E0,-1.1373812E0,5.018884E0,2.7148489E1,-2.5717403E1,-1.1309143E1,-2.593689E-1,1.1347107E1,2.7009054E1,9.974156E0,3.8793793E0,-1.7457205E1,-1.858736E1,-4.9056202E1,9.137207E-1,-1.9014523E1,-4.260125E0,1.9468018E1,-3.057632E1,-8.195296E0,7.343869E0,2.7686563E1,4.4129944E1,1.9190216E1,-1.4647388E-1,3.062382E1,2.2017178E1,5.685089E0],"categories":[],"categories_nodes":[],"categories_segments":[],"categories_sizes":[],"default_left":[1,1,1,1,1,1,1,1,1,0,1,1,1,1,1,1,1,1,1,1,1,1,1,1,1,1,1,1,1,0,0,0,0,0,0,0,0,0,0,0,0,0,0,0,0,0,0,0,0,0,0,0,0,0,0,0,0],"id":27,"left_children":[1,3,5,7,9,11,13,15,17,-1,19,21,23,25,27,29,31,33,35,37,39,41,43,45,47,49,51,53,55,-1,-1,-1,-1,-1,-1,-1,-1,-1,-1,-1,-1,-1,-1,-1,-1,-1,-1,-1,-1,-1,-1,-1,-1,-1,-1,-1,-1],"loss_changes":[1.7166757E3,6.253866E3,1.4214158E4,1.2016296E4,1.204984E4,8.401777E3,7.828661E3,5.3348477E3,2.0868105E3,0E0,3.4071104E3,1.9750801E3,3.9889258E3,3.2284072E3,3.4140005E3,4.266862E3,4.887353E3,4.3051953E2,9.373097E1,9.0133984E2,2.3577195E3,2.5204697E3,1.3414849E3,3.6711865E3,2.5304897E3,9.7505566E2,9.8424805E1,2.83077E3,1.3970925E3,0E0,0E0,0E0,0E0,0E0,0E0,0E0,0E0,0E0,0E0,0E0,0E0,0E0,0E0,0E0,0E0,0E0,0E0,0E0,0E0,0E0,0E0,0E0,0E0,0E0,0E0,0E0,0E0],"parents":[2147483647,0,0,1,1,2,2,3,3,4,4,5,5,6,6,7,7,8,8,10,10,11,11,12,12,13,13,14,14,15,15,16,16,17,17,18,18,19,19,20,20,21,21,22,22,23,23,24,24,25,25,26,26,27,27,28,28],"right_children":[2,4,6,8,10,12,14,16,18,-1,20,22,24,26,28,30,32,34,36,38,40,42,44,46,48,50,52,54,56,-1,-1,-1,-1,-1,-1,-1,-1,-1,-1,-1,-1,-1,-1,-1,-1,-1,-1,-1,-1,-1,-1,-1,-1,-1,-1,-1,-1],"split_conditions":[-5.221557E-1,-6.016456E-1,-1.6759379E-1,-6.458272E-1,-5.8630216E-1,6.8934906E-1,-9.08768E-2,8.58499E-1,2.0988646E0,1.5220984E1,1.4557117E-1,8.7025267E-1,4.7208242E-2,-1.0640506E-1,1.7249292E0,-7.3214465E-1,1.2541568E0,1.2249649E0,3.3723685E-1,1.0727372E0,-5.5191815E-1,-3.8357362E-1,-4.230706E-1,1.0148246E0,4.2185527E-1,-2.0630327E-1,1.6258849E-1,2.6955981E0,5.4824805E-1,1.8388264E0,-3.4121436E-1,1.5056653E0,8.144547E0,-7.7152214E0,-3.392743E0,-7.7810675E-2,3.4041321E0,8.102716E0,2.992247E0,1.1638138E0,-5.2371616E0,-5.576208E0,-1.4716861E1,2.7411622E-1,-5.704357E0,-1.2780375E0,5.8404055E0,-9.172896E0,-2.458589E0,2.2031608E0,8.305969E0,1.3238984E1,5.757065E0,-4.394217E-2,9.187146E0,6.6051536E0,1.7055268E0],"split_indices":[7,7,7,7,7,4,7,6,4,0,3,6,3,7,6,0,2,4,0,4,7,0,7,2,3,5,5,1,5,0,0,0,0,0,0,0,0,0,0,0,0,0,0,0,0,0,0,0,0,0,0,0,0,0,0,0,0],"split_type":[0,0,0,0,0,0,0,0,0,0,0,0,0,0,0,0,0,0,0,0,0,0,0,0,0,0,0,0,0,0,0,0,0,0,0,0,0,0,0,0,0,0,0,0,0,0,0,0,0,0,0,0,0,0,0,0,0],"sum_hessian":[1.689E3,5.98E2,1.091E3,5.51E2,4.7E1,1.61E2,9.3E2,5.26E2,2.5E1,6E0,4.1E1,3.6E1,1.25E2,2.7E1,9.03E2,4.76E2,5E1,2.3E1,2E0,1.6E1,2.5E1,1.4E1,2.2E1,1.03E2,2.2E1,2.1E1,6E0,8.8E2,2.3E1,1.02E2,3.74E2,3.7E1,1.3E1,1.8E1,5E0,1E0,1E0,5E0,1.1E1,1.9E1,6E0,9E0,5E0,4E0,1.8E1,9.7E1,6E0,8E0,1.4E1,1.9E1,2E0,3E0,3E0,8.78E2,2E0,8E0,1.5E1],"tree_param":{"num_deleted":"0","num_feature":"8","num_nodes":"57","size_leaf_vector":"1"}},{"base_weights":[4.5398273E-2,2.8697997E-1,-5.3097334E0,-1.3751857E-1,4.3820615E0,-8.333357E0,1.4572431E1,-4.6550626E-1,2.9502628E0,2.644972E0,1.640248E1,-1.4978716E1,-3.0792105E0,-1.0305928E1,2.2080261E1,-2.0885303E0,5.214473E-1,9.0760016E-1,9.110682E0,-1.1490548E1,4.2586274E0,2.5374023E1,3.6147597E0,-1.737589E1,-3.2930908E0,3.5578065E0,-1.0282606E1,6.645101E0,2.6117798E1,4.036609E-2,-1.086521E1,1.8548384E1,1.8779518E-1,1.5752877E0,-2.2763998E1,4.364535E0,2.4583359E1,-1.3584207E1,-2.8603516E0,9.775546E0,-1.7044988E0,2.8222265E1,-1.5541992E0,9.258464E0,-5.754486E0,-1.8289362E1,1.3602295E0,-8.275238E0,4.447469E0,-2.8571951E0,1.5879552E1,4.7946167E-1,-1.7174782E1],"categories":[],"categories_nodes":[],"categories_segments":[],"categories_sizes":[],"default_left":[1,1,1,1,1,1,1,1,1,1,1,1,1,0,1,1,1,1,1,1,1,1,1,1,1,1,1,0,0,0,0,0,0,0,0,0,0,0,0,0,0,0,0,0,0,0,0,0,0,0,0,0,0],"id":28,"left_children":[1,3,5,7,9,11,13,15,17,19,21,23,25,-1,27,29,31,33,35,37,39,41,43,45,47,49,51,-1,-1,-1,-1,-1,-1,-1,-1,-1,-1,-1,-1,-1,-1,-1,-1,-1,-1,-1,-1,-1,-1,-1,-1,-1,-1],"loss_changes":[2.1878796E3,2.813263E3,4.5099185E3,1.4870839E3,3.1304585E3,2.1884814E3,2.0953828E3,2.1267432E3,1.7660265E3,3.105455E3,2.0880645E3,7.271294E2,1.8055186E3,0E0,3.2500464E2,9.380129E3,4.96468E3,1.7270195E3,2.4629512E3,2.141062E2,3.9973303E3,8.87542E2,5.291729E2,4.18521E2,2.681915E2,1.6262513E3,1.3433679E3,0E0,0E0,0E0,0E0,0E0,0E0,0E0,0E0,0E0,0E0,0E0,0E0,0E0,0E0,0E0,0E0,0E0,0E0,0E0,0E0,0E0,0E0,0E0,0E0,0E0,0E0],"parents":[2147483647,0,0,1,1,2,2,3,3,4,4,5,5,6,6,7,7,8,8,9,9,10,10,11,11,12,12,14,14,15,15,16,16,17,17,18,18,19,19,20,20,21,21,22,22,23,23,24,24,25,25,26,26],"right_children":[2,4,6,8,10,12,14,16,18,20,22,24,26,-1,28,30,32,34,36,38,40,42,44,46,48,50,52,-1,-1,-1,-1,-1,-1,-1,-1,-1,-1,-1,-1,-1,-1,-1,-1,-1,-1,-1,-1,-1,-1,-1,-1,-1,-1],"split_conditions":[1.9642622E0,1.1749988E0,-9.795871E-1,1.50123E0,6.386065E-1,-1.5239604E0,2.0994267E0,-1.5705675E-1,2.722937E-1,-7.372838E-1,1.32645E0,1.1395528E0,-1.406538E0,-3.0917785E0,-8.17449E-1,-5.197525E-1,-9.050708E-2,2.336753E-1,-7.975557E-1,1.5998011E0,-1.7644157E-1,-3.285092E-2,1.6408331E0,2.7100801E0,-1.5448148E0,-4.2589206E-1,-1.3991632E0,1.9935304E0,7.8353395E0,1.2109828E-2,-3.259563E0,5.564515E0,5.6338556E-2,4.7258633E-1,-6.8292E0,1.3093605E0,7.375008E0,-4.075262E0,-8.581055E-1,2.932664E0,-5.113497E-1,8.46668E0,-4.6625978E-1,2.7775393E0,-1.7263459E0,-5.486809E0,4.0806887E-1,-2.4825716E0,1.3342408E0,-8.571586E-1,4.763866E0,1.4383851E-1,-5.152435E0],"split_indices":[1,1,0,4,4,0,1,7,1,5,4,7,3,0,6,7,7,1,3,1,6,0,1,1,6,2,0,0,0,0,0,0,0,0,0,0,0,0,0,0,0,0,0,0,0,0,0,0,0,0,0,0,0],"split_type":[0,0,0,0,0,0,0,0,0,0,0,0,0,0,0,0,0,0,0,0,0,0,0,0,0,0,0,0,0,0,0,0,0,0,0,0,0,0,0,0,0,0,0,0,0,0,0,0,0,0,0,0,0],"sum_hessian":[1.689E3,1.617E3,7.2E1,1.466E3,1.51E2,6.3E1,9E0,1.326E3,1.4E2,1.33E2,1.8E1,2.7E1,3.6E1,2E0,7E0,5.01E2,8.25E2,1.06E2,3.4E1,1.3E1,1.2E2,1E1,8E0,2.2E1,5E0,1.9E1,1.7E1,2E0,5E0,4.04E2,9.7E1,1.4E1,8.11E2,1.04E2,2E0,2.7E1,7E0,1E1,3E0,6.2E1,5.8E1,9E0,1E0,5E0,3E0,2.1E1,1E0,3E0,2E0,1.3E1,6E0,7E0,1E1],"tree_param":{"num_deleted":"0","num_feature":"8","num_nodes":"53","size_leaf_vector":"1"}},{"base_weights":[3.8069107E-2,-6.490862E-2,9.098106E0,1.3354447E0,-7.3227483E-1,1.5728526E1,5.6066327E0,-2.461608E0,2.696357E0,-5.245807E0,3.1592805E-2,1.963359E1,5.2789307E0,8.099379E0,9.3307495E-1,-9.003335E0,4.114308E0,1.4758626E0,8.703936E0,-9.996701E-1,-9.085331E0,1.0047532E1,-2.4401145E-1,-2.3191325E-1,1.5735474E0,-1.417051E1,1.2777759E0,-6.0329995E0,7.3604393E0,4.776737E0,-2.7107937E0,6.230023E0,2.3954704E1,-9.08443E0,3.1378427E0,-5.049942E0,-2.9478048E1,1.9634804E1,-4.811002E0,7.0124884E0,-5.060273E-1,-3.0996704E-1,-3.7902832E-2,2.134969E0,-5.5358887E-2],"categories":[],"categories_nodes":[],"categories_segments":[],"categories_sizes":[],"default_left":[1,1,1,1,1,1,1,1,1,1,1,0,0,0,1,1,1,1,1,1,1,1,1,1,1,0,0,0,0,0,0,0,0,0,0,0,0,0,0,0,0,1,1,0,0],"id":29,"left_children":[1,3,5,7,9,11,13,15,17,19,21,-1,-1,-1,23,25,27,29,31,33,35,37,39,-1,43,-1,-1,-1,-1,-1,-1,-1,-1,-1,-1,-1,-1,-1,-1,-1,-1,-1,-1,-1,-1],"loss_changes":[1.5773302E3,1.563543E3,3.516648E2,2.7970635E3,3.9064565E3,1.411936E2,1.5554254E2,6.188594E3,2.905376E3,2.6646333E3,2.6800742E3,0E0,0E0,0E0,4.841783E0,3.8430562E3,2.4160488E3,4.6010654E3,2.3786099E3,2.6711184E3,6.9282964E3,3.7982356E3,1.800294E3,3.3681124E-2,3.7762022E0,0E0,0E0,0E0,0E0,0E0,0E0,0E0,0E0,0E0,0E0,0E0,0E0,0E0,0E0,0E0,0E0,0E0,0E0,0E0,0E0],"parents":[2147483647,0,0,1,1,2,2,3,3,4,4,5,5,6,6,7,7,8,8,9,9,10,10,14,14,15,15,16,16,17,17,18,18,19,19,20,20,21,21,22,22,23,23,24,24],"right_children":[2,4,6,8,10,12,14,16,18,20,22,-1,-1,-1,24,26,28,30,32,34,36,38,40,-1,44,-1,-1,-1,-1,-1,-1,-1,-1,-1,-1,-1,-1,-1,-1,-1,-1,-1,-1,-1,-1],"split_conditions":[2.3800411E0,-5.7045305E-1,8.1902444E-1,-9.2929435E-1,-4.7609556E-1,-3.7154265E-2,2.6253834E0,1.123285E0,4.182282E-1,1.3954297E-1,-1.3643261E0,5.8900776E0,1.5836793E0,2.4298136E0,-4.309104E-1,-7.859836E-1,-1.6560848E0,-5.8187634E-2,-5.9658927E-1,-7.6226807E-1,-6.417744E-1,-2.092881E-1,-1.6448119E0,-6.9573976E-2,2.3092583E-2,-4.2511535E0,3.833328E-1,-1.8098999E0,2.2081318E0,1.4330212E0,-8.1323814E-1,1.869007E0,7.1864114E0,-2.725329E0,9.4135284E-1,-1.5149827E0,-8.843415E0,5.8904414E0,-1.4433006E0,2.1037467E0,-1.5180819E-1,-9.2990115E-2,-1.137085E-2,6.404907E-1,-1.6607666E-2],"split_indices":[6,3,4,6,0,0,6,7,7,1,2,0,0,0,0,3,4,5,0,0,0,0,7,0,0,0,0,0,0,0,0,0,0,0,0,0,0,0,0,0,0,2147483647,2147483647,0,0],"split_type":[0,0,0,0,0,0,0,0,0,0,0,0,0,0,0,0,0,0,0,0,0,0,0,0,0,0,0,0,0,0,0,0,0,0,0,0,0,0,0,0,0,0,0,0,0],"sum_hessian":[1.689E3,1.671E3,1.8E1,5.39E2,1.132E3,5E0,1.3E1,1.42E2,3.97E2,1.63E2,9.69E2,3E0,2E0,8E0,5E0,7.1E1,7.1E1,3.31E2,6.6E1,7.8E1,8.5E1,2.5E1,9.44E2,2E0,3E0,4.7E1,2.4E1,1.7E1,5.4E1,1.85E2,1.46E2,5.8E1,8E0,2.6E1,5.2E1,7.2E1,1.3E1,1.5E1,1E1,3.2E1,9.12E2,1E0,1E0,2E0,1E0],"tree_param":{"num_deleted":"2","num_feature":"8","num_nodes":"45","size_leaf_vector":"1"}},{"base_weights":[3.3128798E-2,1.9270422E-1,-5.429695E0,-5.4204696E-1,1.5402603E0,-8.590897E0,-9.562029E-1,3.9955452E-1,-8.795524E0,9.259602E-1,1.7079058E1,-9.986489E0,2.2792816E0,-2.7761688E0,4.0564065E0,-3.7706262E-1,7.9692636E0,-1.5968608E1,-4.570968E0,1.716746E-1,9.537764E0,6.451965E1,9.1090145E0,-1.1712874E1,2.005249E0,-1.8529358E0,4.2743325E0,-5.7466154E0,3.1323445E0,1.5274658E0,6.0761924E0,1.1369476E0,-3.092306E0,4.119884E0,2.4030172E1,-8.777658E0,-2.7368347E1,-1.4826757E1,-1.2576463E0,4.800111E-1,-1.9429153E1,2.450042E1,5.6404204E0,1.626499E1,-1.0299092E1,-5.929297E0,-1.5260789E1,-2.4812622E0,4.3278403E0,-1.2522177E0,-9.283244E0,5.9196777E0,2.5875854E-1,2.8672485E0,1.2512207E-1],"categories":[],"categories_nodes":[],"categories_segments":[],"categories_sizes":[],"default_left":[1,1,1,1,1,1,1,1,1,1,1,1,1,1,1,1,1,1,1,1,1,0,1,1,1,0,0,1,1,1,0,0,0,0,0,0,0,0,0,0,0,0,0,0,0,0,0,0,0,0,0,0,0,0,0],"id":30,"left_children":[1,3,5,7,9,11,13,15,17,19,21,23,25,27,29,31,33,35,37,39,41,-1,43,45,47,-1,-1,49,51,53,-1,-1,-1,-1,-1,-1,-1,-1,-1,-1,-1,-1,-1,-1,-1,-1,-1,-1,-1,-1,-1,-1,-1,-1,-1],"loss_changes":[1.474274E3,1.6275996E3,6.7058276E2,8.272375E3,5.520567E3,4.475315E2,2.0283963E2,5.623105E3,3.230045E3,3.629492E3,7.730568E3,5.410459E2,4.0896E1,2.9881516E2,2.1366325E1,3.5717825E3,5.403383E3,3.0387686E3,2.3600042E3,3.1218064E3,2.4859646E3,0E0,2.9451938E3,3.6094653E2,5.2419827E1,0E0,0E0,1.6322052E2,4.652608E1,7.1565876E0,0E0,0E0,0E0,0E0,0E0,0E0,0E0,0E0,0E0,0E0,0E0,0E0,0E0,0E0,0E0,0E0,0E0,0E0,0E0,0E0,0E0,0E0,0E0,0E0,0E0],"parents":[2147483647,0,0,1,1,2,2,3,3,4,4,5,5,6,6,7,7,8,8,9,9,10,10,11,11,12,12,13,13,14,14,15,15,16,16,17,17,18,18,19,19,20,20,22,22,23,23,24,24,27,27,28,28,29,29],"right_children":[2,4,6,8,10,12,14,16,18,20,22,24,26,28,30,32,34,36,38,40,42,-1,44,46,48,-1,-1,50,52,54,-1,-1,-1,-1,-1,-1,-1,-1,-1,-1,-1,-1,-1,-1,-1,-1,-1,-1,-1,-1,-1,-1,-1,-1,-1],"split_conditions":[1.6320205E0,4.4096604E-1,-1.2816994E-1,2.1525171E-1,3.2117122E-1,1.7059646E0,1.6937637E0,5.9229694E-2,2.9566592E-1,-1.7891249E-1,5.8053553E-1,1.3447189E0,-1.3475232E0,4.218815E-1,-9.494636E-1,9.4943196E-2,1.3540084E0,2.7865875E-1,-6.243178E-1,-2.1274087E-1,-9.9979624E-2,1.9355896E1,7.6545954E-1,-1.0398339E0,-9.968004E-1,-5.558808E-1,1.2822998E0,1.6460698E0,5.9855145E-1,-1.2872763E0,1.8228577E0,3.410843E-1,-9.276918E-1,1.2359653E0,7.209052E0,-2.6332977E0,-8.210505E0,-4.4480276E0,-3.772939E-1,1.4400333E-1,-5.8287463E0,7.3501263E0,1.6921262E0,4.879497E0,-3.0897279E0,-1.7787892E0,-4.578237E0,-7.443787E-1,1.2983521E0,-3.756653E-1,-2.7849734E0,1.7759033E0,7.762757E-2,8.601746E-1,3.753662E-2],"split_indices":[7,7,4,7,6,7,7,7,7,4,7,5,0,6,0,3,6,7,6,4,4,0,6,0,0,0,0,7,5,0,0,0,0,0,0,0,0,0,0,0,0,0,0,0,0,0,0,0,0,0,0,0,0,0,0],"split_type":[0,0,0,0,0,0,0,0,0,0,0,0,0,0,0,0,0,0,0,0,0,0,0,0,0,0,0,0,0,0,0,0,0,0,0,0,0,0,0,0,0,0,0,0,0,0,0,0,0,0,0,0,0,0,0],"sum_hessian":[1.689E3,1.642E3,4.7E1,1.063E3,5.79E2,2.7E1,2E1,9.55E2,1.08E2,5.58E2,2.1E1,2.4E1,3E0,1.5E1,5E0,8.67E2,8.8E1,3.9E1,6.9E1,5.14E2,4.4E1,2E0,1.9E1,2.1E1,3E0,1E0,2E0,1E1,5E0,3E0,2E0,5.57E2,3.1E2,7.2E1,1.6E1,2.5E1,1.4E1,1.6E1,5.3E1,5.07E2,7E0,8E0,3.6E1,1.4E1,5E0,9E0,1.2E1,1E0,2E0,5E0,5E0,2E0,3E0,1E0,2E0],"tree_param":{"num_deleted":"0","num_feature":"8","num_nodes":"55","size_leaf_vector":"1"}},{"base_weights":[3.0909829E-2,-7.7578865E-2,7.8973546E0,-2.9671628E-2,-1.9999573E1,4.549066E0,1.9041382E1,1.6841832E0,-4.7888687E-1,-2.3598673E1,-4.6011353E0,8.788796E0,-2.0992432E1,-6.407934E-2,9.243043E0,-2.9441294E1,-3.4637484E-1,1.9677979E0,1.07361965E1,9.055061E-1,-1.4334971E1,1.7962484E1,2.5749528E0,-3.5926254E1,-1.0980916E1,1.577337E1,-4.5711035E-1,-8.557129E-2,5.090637E0,1.6339926E0,1.2242599E1],"categories":[],"categories_nodes":[],"categories_segments":[],"categories_sizes":[],"default_left":[1,1,1,1,1,1,0,1,1,0,0,1,0,1,1,1,1,1,1,0,0,0,0,0,0,0,0,0,0,0,0],"id":31,"left_children":[1,3,5,7,9,11,-1,13,15,-1,-1,17,-1,19,21,23,25,27,29,-1,-1,-1,-1,-1,-1,-1,-1,-1,-1,-1,-1],"loss_changes":[1.4428931E3,1.5913586E3,7.7158826E2,1.2826731E3,1.1310156E2,2.2419907E3,0E0,4.572938E3,5.0557876E3,0E0,0E0,2.0468787E2,0E0,3.9149714E3,3.7329785E3,3.2378613E2,2.3545222E3,3.2497322E1,1.5824622E2,0E0,0E0,0E0,0E0,0E0,0E0,0E0,0E0,0E0,0E0,0E0,0E0],"parents":[2147483647,0,0,1,1,2,2,3,3,4,4,5,5,7,7,8,8,11,11,13,13,14,14,15,15,16,16,17,17,18,18],"right_children":[2,4,6,8,10,12,-1,14,16,-1,-1,18,-1,20,22,24,26,28,30,-1,-1,-1,-1,-1,-1,-1,-1,-1,-1,-1,-1],"split_conditions":[2.121736E0,2.039859E0,2.0043411E0,-9.990951E-1,2.3533545E0,1.877048E0,5.7124147E0,-1.1562262E0,-9.898521E-1,-7.0796022E0,-1.3803406E0,1.2391355E0,-6.29773E0,-1.205399E0,-1.0857944E0,1.024272E0,-9.70072E-1,1.9595983E0,1.9410798E-1,2.7165183E-1,-4.300492E0,5.3887453E0,7.724859E-1,-1.0777877E1,-3.294275E0,4.7320113E0,-1.371331E-1,-2.5671387E-2,1.5271913E0,4.9019778E-1,3.6727798E0],"split_indices":[2,2,3,7,0,3,0,7,7,0,0,3,0,7,7,2,7,0,6,0,0,0,0,0,0,0,0,0,0,0,0],"split_type":[0,0,0,0,0,0,0,0,0,0,0,0,0,0,0,0,0,0,0,0,0,0,0,0,0,0,0,0,0,0,0],"sum_hessian":[1.689E3,1.667E3,2.2E1,1.664E3,3E0,1.8E1,4E0,3.45E2,1.319E3,2E0,1E0,1.6E1,2E0,2.81E2,6.4E1,5E0,1.314E3,4E0,1.2E1,2.64E2,1.7E1,2.7E1,3.7E1,3E0,2E0,8E0,1.306E3,3E0,1E0,2E0,1E1],"tree_param":{"num_deleted":"0","num_feature":"8","num_nodes":"31","size_leaf_vector":"1"}},{"base_weights":[1.5279231E-2,-6.559942E-2,8.481308E0,4.3584478E-1,-1.5508099E0,1.4827104E0,1.989852E1,1.209492E-1,1.24473E1,-1.9209726E1,-9.88482E-1,-1.1207397E1,3.8724608E0,5.5462036E0,3.24021E1,-1.0431338E-1,8.778757E0,3.5405663E1,7.9030457E0,-1.1686333E0,-4.7841747E1,-1.5606664E0,1.4221232E1,-1.081014E0,5.2459564E0,-1.2744223E-2,-2.1840282E1,1.5296796E1,-8.8538685E0,1.3038488E1,-3.0751547E-2,-1.2940845E1,1.0837305E1,-7.304077E0,-5.6150146E1,-1.1613592E0,-2.7388632E1,-2.7297974E0,1.8686472E1,3.0029297E-2,-1.6515503E0,5.892072E0,3.6157227E-1],"categories":[],"categories_nodes":[],"categories_segments":[],"categories_sizes":[],"default_left":[1,1,1,1,1,1,1,1,1,1,1,0,1,0,0,1,1,0,1,1,1,1,1,1,1,0,0,0,0,0,0,0,0,0,0,0,0,0,0,1,1,0,0],"id":32,"left_children":[1,3,5,7,9,11,13,15,17,19,21,-1,23,-1,-1,25,27,-1,29,31,33,35,37,-1,41,-1,-1,-1,-1,-1,-1,-1,-1,-1,-1,-1,-1,-1,-1,-1,-1,-1,-1],"loss_changes":[1.1577349E3,1.2481323E3,1.2489675E3,4.7377847E3,4.181444E3,3.769883E2,8.9702344E2,2.3841582E3,3.058704E3,6.6592783E3,3.5990298E3,0E0,7.370671E1,0E0,0E0,2.3722122E3,3.69827E3,0E0,1.1412206E3,1.4122719E3,1.2738906E3,4.0625698E3,1.1863665E3,1.9512665E0,2.3116623E1,0E0,0E0,0E0,0E0,0E0,0E0,0E0,0E0,0E0,0E0,0E0,0E0,0E0,0E0,0E0,0E0,0E0,0E0],"parents":[2147483647,0,0,1,1,2,2,3,3,4,4,5,5,6,6,7,7,8,8,9,9,10,10,12,12,15,15,16,16,18,18,19,19,20,20,21,21,22,22,23,23,24,24],"right_children":[2,4,6,8,10,12,14,16,18,20,22,-1,24,-1,-1,26,28,-1,30,32,34,36,38,-1,42,-1,-1,-1,-1,-1,-1,-1,-1,-1,-1,-1,-1,-1,-1,-1,-1,-1,-1],"split_conditions":[2.5381048E0,7.0086956E-1,8.295422E-1,1.0258465E0,7.2023463E-1,-9.795173E-1,-1.6103532E0,1.1132889E0,-1.25716E0,4.768228E-1,1.6661019E0,-3.3622193E0,-5.1074034E-1,1.6638612E0,9.720631E0,1.0756794E0,6.1480266E-1,1.0621699E1,3.973378E-1,2.4538061E-1,-1.0153402E-1,1.5627004E0,5.716622E-1,-3.2430422E-1,9.9259496E-1,-3.823267E-3,-6.552085E0,4.589039E0,-2.6561606E0,3.9115467E0,-9.225464E-3,-3.8822534E0,3.2511916E0,-2.1912231E0,-1.6845045E1,-3.4840778E-1,-8.21659E0,-8.1893927E-1,5.605942E0,9.008789E-3,-4.954651E-1,1.7676218E0,1.08471684E-1],"split_indices":[3,0,7,2,0,4,1,3,7,3,5,0,6,0,0,3,0,0,5,3,2,5,7,0,5,0,0,0,0,0,0,0,0,0,0,0,0,0,0,2147483647,2147483647,0,0],"split_type":[0,0,0,0,0,0,0,0,0,0,0,0,0,0,0,0,0,0,0,0,0,0,0,0,0,0,0,0,0,0,0,0,0,0,0,0,0,0,0,0,0,0,0],"sum_hessian":[1.689E3,1.674E3,1.5E1,1.252E3,4.22E2,1E1,5E0,1.221E3,3.1E1,1.2E1,4.1E2,1E0,9E0,3E0,2E0,1.191E3,3E1,4E0,2.7E1,8E0,4E0,3.96E2,1.4E1,2E0,7E0,1.187E3,4E0,2.2E1,8E0,1.6E1,1.1E1,4E0,4E0,1E0,3E0,3.91E2,5E0,3E0,1.1E1,1E0,1E0,6E0,1E0],"tree_param":{"num_deleted":"2","num_feature":"8","num_nodes":"43","size_leaf_vector":"1"}},{"base_weights":[8.340219E-3,-8.288292E-1,8.3859736E-1,-4.8205477E-1,