{"learner":{"attributes":{"scikit_learn":"{\"_estimator_type\": \"regressor\"}"},"feature_names":[],"feature_types":[],"gradient_booster":{"gbtree":{"model":{"gbtree_model_param":{"num_parallel_tree":"1","num_trees":"100"},"iteration_indptr":[0,1,2,3,4,5,6,7,8,9,10,11,12,13,14,15,16,17,18,19,20,21,22,23,24,25,26,27,28,29,30,31,32,33,34,35,36,37,38,39,40,41,42,43,44,45,46,47,48,49,50,51,52,53,54,55,56,57,58,59,60,61,62,63,64,65,66,67,68,69,70,71,72,73,74,75,76,77,78,79,80,81,82,83,84,85,86,87,88,89,90,91,92,93,94,95,96,97,98,99,100],"tree_info":[0,0,0,0,0,0,0,0,0,0,0,0,0,0,0,0,0,0,0,0,0,0,0,0,0,0,0,0,0,0,0,0,0,0,0,0,0,0,0,0,0,0,0,0,0,0,0,0,0,0,0,0,0,0,0,0,0,0,0,0,0,0,0,0,0,0,0,0,0,0,0,0,0,0,0,0,0,0,0,0,0,0,0,0,0,0,0,0,0,0,0,0,0,0,0,0,0,0,0,0],"trees":[{"base_weights":[4.0539555E-5,-1.1143654E2,1.9052353E2,-1.9516457E2,-4.564114E1,1.0407883E2,2.9494598E2,-1.133031E2,-2.1805313E2,-8.671255E1,-4.9421005E0,2.05653E2,8.114047E1,3.9365826E2,2.5524263E2,-4.881399E1,-1.3274026E2,-1.1641828E2,-2.2964404E2,3.5531833E0,-9.895828E1,1.379357E2,-1.8186275E1,1.0900807E2,2.4242725E2,1.5736978E2,3.7665737E1,4.353119E2,3.5964093E2,3.6849353E2,2.221954E2,2.6286303E1,-6.510138E1,-1.649231E2,-1.16630104E2,-1.5834012E2,-7.461628E1,-1.9674016E2,-2.5875595E2,-3.3603493E1,6.541518E1,-3.4334465E1,-1.25230705E2,6.9565475E1,1.809235E2,4.433924E1,-3.8181633E1,1.6896463E2,5.8317623E1,2.849349E2,1.9914113E2,1.9417183E2,1.1979253E2,7.107645E1,6.9380026E0,1.2323981E2,4.366704E2,3.612007E2,1.4565308E2,3.432562E2,4.1486133E2,2.709366E2,1.6935632E2],"categories":[],"categories_nodes":[],"categories_segments":[],"categories_sizes":[],"default_left":[1,1,1,1,1,1,1,1,1,1,1,1,1,1,1,1,1,1,1,1,1,1,1,1,1,1,1,1,1,1,1,0,0,0,0,0,0,0,0,0,0,0,0,0,0,0,0,0,0,0,0,0,0,0,0,0,0,0,0,0,0,0,0],"id":0,"left_children":[1,3,5,7,9,11,13,15,17,19,21,23,25,27,29,31,33,35,37,39,41,43,45,47,49,51,53,55,57,59,61,-1,-1,-1,-1,-1,-1,-1,-1,-1,-1,-1,-1,-1,-1,-1,-1,-1,-1,-1,-1,-1,-1,-1,-1,-1,-1,-1,-1,-1,-1,-1,-1],"loss_changes":[1.4348102E8,2.348112E7,2.2482064E7,3.490336E6,3.992945E6,3.166017E6,4.324312E6,5.09956E5,1.699096E6,1.314637E6,2.275159E6,8.65638E5,3.6925515E6,2.997E5,2.942168E6,1.20360516E5,1.446015E5,2.5455238E5,1.207768E6,3.3089597E5,1.773322E6,2.8720062E5,1.376935E6,2.0593131E5,2.76296E5,5.36823E5,7.3047125E5,5.538E3,8.474E3,6.9402E4,1.57149E6,0E0,0E0,0E0,0E0,0E0,0E0,0E0,0E0,0E0,0E0,0E0,0E0,0E0,0E0,0E0,0E0,0E0,0E0,0E0,0E0,0E0,0E0,0E0,0E0,0E0,0E0,0E0,0E0,0E0,0E0,0E0,0E0],"parents":[2147483647,0,0,1,1,2,2,3,3,4,4,5,5,6,6,7,7,8,8,9,9,10,10,11,11,12,12,13,13,14,14,15,15,16,16,17,17,18,18,19,19,20,20,21,21,22,22,23,23,24,24,25,25,26,26,27,27,28,28,29,29,30,30],"right_children":[2,4,6,8,10,12,14,16,18,20,22,24,26,28,30,32,34,36,38,40,42,44,46,48,50,52,54,56,58,60,62,-1,-1,-1,-1,-1,-1,-1,-1,-1,-1,-1,-1,-1,-1,-1,-1,-1,-1,-1,-1,-1,-1,-1,-1,-1,-1,-1,-1,-1,-1,-1,-1],"split_conditions":[2.3280454E-1,-6.906347E-1,1.0651805E0,4.561469E-1,-3.0711508E-1,-1.0824873E0,-1.5415902E0,1.1674278E-2,-1.3848076E0,-1.3291658E0,-1.4819951E0,6.4372456E-1,-8.9638805E-1,-1.7088649E0,-1.072101E0,-4.4474652E-1,4.3634665E-1,-1.0613673E0,1.1587003E0,2.591263E-1,-8.8690504E-2,3.3416986E-1,-5.188253E-1,-1.5279922E0,-1.4044676E0,-1.1114554E0,-5.713973E-1,1.1482835E0,1.6652873E0,1.6036942E0,-1.226158E0,7.885891E0,-1.9530415E1,-4.9476933E1,-3.4989033E1,-4.7502037E1,-2.2384884E1,-5.902205E1,-7.7626785E1,-1.0081048E1,1.9624554E1,-1.030034E1,-3.7569214E1,2.0869644E1,5.427705E1,1.3301773E1,-1.1454491E1,5.0689392E1,1.7495287E1,8.548048E1,5.974234E1,5.8251553E1,3.593776E1,2.1322935E1,2.0814009E0,3.6971943E1,1.3100113E2,1.0836022E2,4.3695923E1,1.0297686E2,1.24458405E2,8.128099E1,5.08069E1],"split_indices":[3,0,3,1,3,7,1,1,7,7,7,2,1,1,7,1,7,0,1,2,1,2,1,7,7,1,1,0,7,3,1,0,0,0,0,0,0,0,0,0,0,0,0,0,0,0,0,0,0,0,0,0,0,0,0,0,0,0,0,0,0,0,0],"split_type":[0,0,0,0,0,0,0,0,0,0,0,0,0,0,0,0,0,0,0,0,0,0,0,0,0,0,0,0,0,0,0,0,0,0,0,0,0,0,0,0,0,0,0,0,0,0,0,0,0,0,0,0,0,0,0,0,0,0,0,0,0,0,0],"sum_hessian":[6.756E3,4.263E3,2.493E3,1.875E3,2.388E3,1.365E3,1.128E3,4.11E2,1.464E3,1.188E3,1.2E3,2.5E2,1.115E3,3.21E2,8.07E2,9.6E1,3.15E2,1.51E2,1.313E3,1.42E2,1.046E3,1.01E2,1.099E3,7E1,1.8E2,4.04E2,7.11E2,1.39E2,1.82E2,1.8E2,6.27E2,1.7E1,7.9E1,1.02E2,2.13E2,7.4E1,7.7E1,6.2E2,6.93E2,8.9E1,5.3E1,3.03E2,7.43E2,4E1,6.1E1,2.66E2,8.33E2,3.1E1,3.9E1,8.8E1,9.2E1,2.02E2,2.02E2,3.4E2,3.71E2,1E0,1.38E2,1.8E2,2E0,1.22E2,5.8E1,3.24E2,3.03E2],"tree_param":{"num_deleted":"0","num_feature":"8","num_nodes":"63","size_leaf_vector":"1"}},{"base_weights":[1.1051882E-1,-6.834255E1,1.5417104E2,-1.2512024E2,-9.860949E0,1.0078861E2,2.2131172E2,-5.782246E1,-1.4322734E2,4.827494E1,-2.7279783E1,1.6904674E2,7.856957E1,2.8795453E2,1.9601521E2,9.971828E0,-7.783865E1,-8.707131E1,-1.5739616E2,1.4029418E1,1.129674E2,1.918096E1,-6.52479E1,2.0277528E2,1.3577747E2,1.8069693E2,5.7418926E1,2.4465329E2,3.0467566E2,2.8121884E2,1.7458752E2,3.317204E1,-4.148461E0,-9.842389E1,-6.1981438E1,-1.2921071E2,-5.9210526E1,-1.203477E2,-1.794645E2,1.1157663E2,-4.2825937E-2,1.6971255E2,8.549969E1,5.0937836E1,-2.700734E0,-8.085411E1,-3.2500427E1,1.903552E2,2.6715698E2,1.281355E2,1.9397502E2,1.5251263E2,2.3401526E2,8.6122574E1,2.5828382E1,1.2058954E2,2.4814777E2,1.6861238E2,3.076507E2,1.9017125E2,2.886767E2,1.306827E2,1.9503918E2],"categories":[],"categories_nodes":[],"categories_segments":[],"categories_sizes":[],"default_left":[1,1,1,1,1,1,1,1,1,1,1,1,1,1,1,1,1,1,1,1,1,1,1,1,1,1,1,1,1,1,1,0,0,0,0,0,0,0,0,0,0,0,0,0,0,0,0,0,0,0,0,0,0,0,0,0,0,0,0,0,0,0,0],"id":1,"left_children":[1,3,5,7,9,11,13,15,17,19,21,23,25,27,29,31,33,35,37,39,41,43,45,47,49,51,53,55,57,59,61,-1,-1,-1,-1,-1,-1,-1,-1,-1,-1,-1,-1,-1,-1,-1,-1,-1,-1,-1,-1,-1,-1,-1,-1,-1,-1,-1,-1,-1,-1,-1,-1],"loss_changes":[7.126929E7,1.5535154E7,7.429108E6,2.884596E6,2.3365095E6,1.746008E6,1.49452E6,6.8605275E5,1.474192E6,1.1770224E6,3.1323995E6,2.91151E5,1.883997E6,1.07196E5,1.174132E6,3.8138477E4,1.21205E5,4.3730925E5,1.198256E6,4.790799E5,2.72283E5,5.55358E5,4.9668125E5,6.02935E4,4.007725E4,1.897205E5,6.5789975E5,2.591E3,1.9774E4,3.5411E4,4.57595E5,0E0,0E0,0E0,0E0,0E0,0E0,0E0,0E0,0E0,0E0,0E0,0E0,0E0,0E0,0E0,0E0,0E0,0E0,0E0,0E0,0E0,0E0,0E0,0E0,0E0,0E0,0E0,0E0,0E0,0E0,0E0,0E0],"parents":[2147483647,0,0,1,1,2,2,3,3,4,4,5,5,6,6,7,7,8,8,9,9,10,10,11,11,12,12,13,13,14,14,15,15,16,16,17,17,18,18,19,19,20,20,21,21,22,22,23,23,24,24,25,25,26,26,27,27,28,28,29,29,30,30],"right_children":[2,4,6,8,10,12,14,16,18,20,22,24,26,28,30,32,34,36,38,40,42,44,46,48,50,52,54,56,58,60,62,-1,-1,-1,-1,-1,-1,-1,-1,-1,-1,-1,-1,-1,-1,-1,-1,-1,-1,-1,-1,-1,-1,-1,-1,-1,-1,-1,-1,-1,-1,-1,-1],"split_conditions":[4.5777103E-1,-4.9684262E-1,1.1798799E0,2.6975515E-1,-1.0735848E0,-1.1592481E0,-1.589383E0,-1.9383456E-1,-1.0735848E0,5.68681E-1,-3.3243355E-1,-1.3313022E0,-1.2429211E0,1.7541405E0,-1.2388408E0,-4.925393E-1,4.6713507E-1,-1.0803252E0,7.9069614E-1,-1.6348244E0,-1.4871883E0,-6.5742433E-1,1.0981076E-1,2.1000266E0,2.018476E0,1.0370598E0,-7.2911346E-1,2.5912634E-1,-1.3801775E0,1.2862852E0,1.1298585E0,9.951612E0,-1.2445383E0,-2.9527168E1,-1.8594433E1,-3.8763214E1,-1.7763159E1,-3.6104313E1,-5.383935E1,3.3472992E1,-1.2847782E-2,5.091377E1,2.5649908E1,1.5281351E1,-8.102202E-1,-2.4256235E1,-9.750129E0,5.710656E1,8.0147095E1,3.844065E1,5.819251E1,4.575379E1,7.020458E1,2.5836773E1,7.748515E0,3.6176865E1,7.4444336E1,5.0583717E1,9.229521E1,5.7051376E1,8.660301E1,3.920481E1,5.8511757E1],"split_indices":[3,0,0,1,7,1,1,1,7,2,1,1,7,3,7,1,7,0,1,7,7,1,0,3,3,3,1,2,6,2,3,0,0,0,0,0,0,0,0,0,0,0,0,0,0,0,0,0,0,0,0,0,0,0,0,0,0,0,0,0,0,0,0],"split_type":[0,0,0,0,0,0,0,0,0,0,0,0,0,0,0,0,0,0,0,0,0,0,0,0,0,0,0,0,0,0,0,0,0,0,0,0,0,0,0,0,0,0,0,0,0,0,0,0,0,0,0,0,0,0,0,0,0,0,0,0,0,0,0],"sum_hessian":[6.756E3,4.678E3,2.078E3,2.373E3,2.305E3,1.159E3,9.19E2,5.04E2,1.869E3,5.31E2,1.774E3,2.83E2,8.76E2,2.5E2,6.69E2,1.15E2,3.89E2,3.78E2,1.491E3,3.48E2,1.83E2,7.98E2,9.76E2,1.38E2,1.45E2,1.49E2,7.27E2,7.4E1,1.76E2,1.32E2,5.37E2,4.3E1,7.2E1,1.67E2,2.22E2,1.49E2,2.29E2,5.59E2,9.32E2,4.3E1,3.05E2,5.8E1,1.25E2,3.25E2,4.73E2,6.6E2,3.16E2,1.19E2,1.9E1,1.31E2,1.4E1,1E2,4.9E1,3.8E2,3.47E2,3E0,7.1E1,5E0,1.71E2,1.2E1,1.2E2,1.73E2,3.64E2],"tree_param":{"num_deleted":"0","num_feature":"8","num_nodes":"63","size_leaf_vector":"1"}},{"base_weights":[1.9322531E-1,-5.6401215E1,9.399793E1,-9.083398E1,-1.8726261E1,4.450362E1,1.4580759E2,-5.5506268E1,-1.0817301E2,2.1651695E1,-3.2758244E1,9.735753E1,2.8855394E1,1.9390288E2,1.26033966E2,-3.2308075E1,-6.858562E1,-6.452611E1,-1.2235028E2,4.8185253E1,5.713979E0,3.529301E1,-4.4154232E1,5.1829044E1,1.16902145E2,6.514972E1,7.182617E0,2.3592496E2,1.8105397E2,1.8812953E2,1.0941921E2,3.0960709E1,-3.8763954E1,1.4594267E1,-7.4988235E1,-2.3848318E1,-8.027148E1,-1.0966562E2,-1.5371709E2,-8.131685E0,5.1922604E1,1.5643664E1,-8.812886E0,-2.6383026E1,5.718132E1,-2.6459877E1,-6.194578E1,1.268355E2,4.1003117E1,9.6423744E1,1.4633464E2,3.4706192E1,7.474851E1,-2.1102787E1,3.0245468E1,2.391477E2,1.1410022E2,1.8891655E2,1.4110779E2,1.6806055E2,2.2259442E2,4.5148144E1,1.1896447E2],"categories":[],"categories_nodes":[],"categories_segments":[],"categories_sizes":[],"default_left":[1,1,1,1,1,1,1,1,1,1,1,1,1,1,1,1,1,1,1,1,1,1,1,1,1,1,1,1,1,1,1,0,0,0,0,0,0,0,0,0,0,0,0,0,0,0,0,0,0,0,0,0,0,0,0,0,0,0,0,0,0,0,0],"id":2,"left_children":[1,3,5,7,9,11,13,15,17,19,21,23,25,27,29,31,33,35,37,39,41,43,45,47,49,51,53,55,57,59,61,-1,-1,-1,-1,-1,-1,-1,-1,-1,-1,-1,-1,-1,-1,-1,-1,-1,-1,-1,-1,-1,-1,-1,-1,-1,-1,-1,-1,-1,-1,-1,-1],"loss_changes":[3.5877028E7,5.46622E6,6.514486E6,1.342828E6,1.1418068E6,1.0740355E6,1.156726E6,2.183685E5,9.05444E5,2.1962452E5,1.1609479E6,2.5822275E5,7.9085044E5,1.51663E5,8.90407E5,1.0903244E5,2.4820675E5,2.3122288E5,4.25981E5,4.1465094E4,4.7162457E4,2.917552E5,4.0163225E5,6.869266E4,1.10655E5,1.07281E5,4.122661E5,4.515E3,6.1284E4,9.0551E4,4.234555E5,0E0,0E0,0E0,0E0,0E0,0E0,0E0,0E0,0E0,0E0,0E0,0E0,0E0,0E0,0E0,0E0,0E0,0E0,0E0,0E0,0E0,0E0,0E0,0E0,0E0,0E0,0E0,0E0,0E0,0E0,0E0,0E0],"parents":[2147483647,0,0,1,1,2,2,3,3,4,4,5,5,6,6,7,7,8,8,9,9,10,10,11,11,12,12,13,13,14,14,15,15,16,16,17,17,18,18,19,19,20,20,21,21,22,22,23,23,24,24,25,25,26,26,27,27,28,28,29,29,30,30],"right_children":[2,4,6,8,10,12,14,16,18,20,22,24,26,28,30,32,34,36,38,40,42,44,46,48,50,52,54,56,58,60,62,-1,-1,-1,-1,-1,-1,-1,-1,-1,-1,-1,-1,-1,-1,-1,-1,-1,-1,-1,-1,-1,-1,-1,-1,-1,-1,-1,-1,-1,-1,-1,-1],"split_conditions":[2.65687E-1,-5.46142E-1,9.2738855E-1,5.947459E-1,-4.375776E-1,-1.0743266E0,-1.5176938E0,1.3593544E-1,-1.0708027E0,-7.195549E-1,-1.3851784E0,6.8593657E-1,-8.246989E-1,-1.8187882E0,-1.1767075E0,-5.0209785E-1,-1.0205396E0,-1.5005424E0,1.5649388E0,-3.49389E-2,-2.4682938E-1,-1.1343174E-2,5.9467033E-2,-1.6470656E0,5.322912E-1,-9.317726E-2,1.7052878E-1,1.6803105E0,1.3792887E0,1.7412367E0,-1.2342272E0,9.288213E0,-1.1629187E1,4.37828E0,-2.2496471E1,-7.1544957E0,-2.4081444E1,-3.289969E1,-4.6115128E1,-2.4395056E0,1.5576781E1,4.6930995E0,-2.643866E0,-7.914908E0,1.7154396E1,-7.9379635E0,-1.8583735E1,3.805065E1,1.2300936E1,2.8927124E1,4.3900394E1,1.0411858E1,2.2424555E1,-6.3308363E0,9.073641E0,7.1744316E1,3.423007E1,5.667497E1,4.2332336E1,5.0418167E1,6.677833E1,1.3544444E1,3.5689342E1],"split_indices":[0,3,3,1,1,7,1,1,7,1,7,2,1,1,7,1,7,7,1,7,4,2,1,7,3,7,6,7,7,2,6,0,0,0,0,0,0,0,0,0,0,0,0,0,0,0,0,0,0,0,0,0,0,0,0,0,0,0,0,0,0,0,0],"split_type":[0,0,0,0,0,0,0,0,0,0,0,0,0,0,0,0,0,0,0,0,0,0,0,0,0,0,0,0,0,0,0,0,0,0,0,0,0,0,0,0,0,0,0,0,0,0,0,0,0,0,0,0,0,0,0,0,0,0,0,0,0,0,0],"sum_hessian":[6.756E3,4.214E3,2.542E3,2.201E3,2.013E3,1.301E3,1.241E3,7.26E2,1.475E3,5.19E2,1.494E3,2.96E2,1.005E3,3.59E2,8.82E2,2.63E2,4.63E2,3.63E2,1.112E3,1.94E2,3.25E2,2.14E2,1.28E3,9E1,2.06E2,3.75E2,6.3E2,8E1,2.79E2,1.84E2,6.98E2,2.4E1,2.39E2,3.3E1,4.3E2,1.02E2,2.61E2,7.95E2,3.17E2,1.2E1,1.82E2,1.93E2,1.32E2,5.6E1,1.58E2,6.43E2,6.37E2,1E1,8E1,1.24E2,8.2E1,9.1E1,2.84E2,2.83E2,3.47E2,7.7E1,3E0,2.3E2,4.9E1,1.2E2,6.4E1,9.1E1,6.07E2],"tree_param":{"num_deleted":"0","num_feature":"8","num_nodes":"63","size_leaf_vector":"1"}},{"base_weights":[1.9406955E-1,-4.5072704E1,5.965604E1,-6.2710396E1,-1.47708845E1,3.450974E1,1.0981009E2,-2.752583E1,-7.1469696E1,1.8051304E1,-2.5431173E1,2.115701E1,7.1016136E1,9.270693E1,1.4162395E2,1.0494703E1,-3.8970318E1,-2.172267E1,-7.53247E1,-3.0036922E1,2.9665405E1,-6.3389654E0,-4.0681374E1,-2.602243E1,2.8868427E1,1.24818E2,5.7136295E1,4.484571E1,1.028319E2,7.5338066E1,1.5023967E2,1.5679307E1,-4.4474648E1,-5.0358704E1,-2.8316517E1,-5.4301254E1,6.0608435E0,-6.768196E1,-1.0460079E2,-7.012255E1,-1.3062443E1,2.0492405E1,9.5432045E1,3.577041E1,-1.039946E1,-6.755137E1,-2.5552788E1,-1.2280319E1,-4.541145E1,6.2855625E1,2.100678E1,1.661029E2,1.1266405E2,4.264901E1,1.0434036E2,-6.5613008E0,5.339286E1,1.6778365E2,9.624409E1,9.140211E1,4.7282814E1,1.07887085E2,1.5871921E2],"categories":[],"categories_nodes":[],"categories_segments":[],"categories_sizes":[],"default_left":[1,1,1,1,1,1,1,1,1,1,1,1,1,1,1,1,1,1,1,1,1,1,1,1,1,1,1,1,1,1,1,0,0,0,0,0,0,0,0,0,0,0,0,0,0,0,0,0,0,0,0,0,0,0,0,0,0,0,0,0,0,0,0],"id":3,"left_children":[1,3,5,7,9,11,13,15,17,19,21,23,25,27,29,31,33,35,37,39,41,43,45,47,49,51,53,55,57,59,61,-1,-1,-1,-1,-1,-1,-1,-1,-1,-1,-1,-1,-1,-1,-1,-1,-1,-1,-1,-1,-1,-1,-1,-1,-1,-1,-1,-1,-1,-1,-1,-1],"loss_changes":[1.8190178E7,2.049774E6,3.680143E6,7.45399E5,4.9485934E5,9.4758175E5,5.17385E5,2.1144488E5,3.70599E5,1.9469106E5,3.104098E5,5.1992288E5,3.8193125E5,3.040745E5,1.822845E5,3.2901688E4,4.3829938E4,1.279549E5,3.95894E5,4.5353457E4,1.6696205E5,8.158982E4,2.3933138E5,5.2997984E4,3.2652838E5,3.4474375E4,2.8003512E5,5.000067E4,2.08494E5,1.4156156E4,9.02555E4,0E0,0E0,0E0,0E0,0E0,0E0,0E0,0E0,0E0,0E0,0E0,0E0,0E0,0E0,0E0,0E0,0E0,0E0,0E0,0E0,0E0,0E0,0E0,0E0,0E0,0E0,0E0,0E0,0E0,0E0,0E0,0E0],"parents":[2147483647,0,0,1,1,2,2,3,3,4,4,5,5,6,6,7,7,8,8,9,9,10,10,11,11,12,12,13,13,14,14,15,15,16,16,17,17,18,18,19,19,20,20,21,21,22,22,23,23,24,24,25,25,26,26,27,27,28,28,29,29,30,30],"right_children":[2,4,6,8,10,12,14,16,18,20,22,24,26,28,30,32,34,36,38,40,42,44,46,48,50,52,54,56,58,60,62,-1,-1,-1,-1,-1,-1,-1,-1,-1,-1,-1,-1,-1,-1,-1,-1,-1,-1,-1,-1,-1,-1,-1,-1,-1,-1,-1,-1,-1,-1,-1,-1],"split_conditions":[4.439509E-2,-4.2522383E-1,1.1889122E0,2.4585877E-1,-1.0735848E0,9.845474E-1,1.8624055E0,-2.0339312E-1,-1.4825516E0,8.558809E-2,-2.0339312E-1,-1.3456981E0,-1.2442194E0,-1.7550096E-1,-1.2139597E0,1.676972E0,5.1702714E-1,-2.9119313E-1,1.6605244E0,-7.584541E-1,-1.1425805E0,-8.4859526E-1,-1.0926074E-1,-2.774719E-1,-1.0206492E0,-1.6298168E0,-1.20812654E-1,-1.5713587E0,-1.4801404E0,-1.3169643E0,-5.091649E-1,4.703792E0,-1.3342395E1,-1.5107612E1,-8.494955E0,-1.6290377E1,1.8182532E0,-2.0304588E1,-3.138024E1,-2.1036766E1,-3.918733E0,6.147722E0,2.8629614E1,1.0731123E1,-3.119838E0,-2.0265411E1,-7.665837E0,-3.6840959E0,-1.3623435E1,1.8856688E1,6.3020344E0,4.9830875E1,3.3799217E1,1.27947035E1,3.130211E1,-1.9683903E0,1.6017859E1,5.0335094E1,2.8873228E1,2.7420633E1,1.4184845E1,3.2366127E1,4.7615765E1],"split_indices":[3,0,3,1,7,2,3,1,7,2,1,6,7,2,6,7,7,2,1,3,7,1,6,1,1,7,7,6,7,1,5,0,0,0,0,0,0,0,0,0,0,0,0,0,0,0,0,0,0,0,0,0,0,0,0,0,0,0,0,0,0,0,0],"split_type":[0,0,0,0,0,0,0,0,0,0,0,0,0,0,0,0,0,0,0,0,0,0,0,0,0,0,0,0,0,0,0,0,0,0,0,0,0,0,0,0,0,0,0,0,0,0,0,0,0,0,0,0,0,0,0,0,0,0,0,0,0,0,0],"sum_hessian":[6.756E3,3.836E3,2.92E3,2.424E3,1.412E3,1.946E3,9.74E2,4.84E2,1.94E3,3.46E2,1.066E3,1.426E3,5.2E2,6.36E2,3.38E2,1.12E2,3.72E2,1.4E2,1.8E3,6.7E1,2.79E2,4.74E2,5.92E2,2E2,1.226E3,1.05E2,4.15E2,1.12E2,5.24E2,4E1,2.98E2,1.03E2,9E0,1.78E2,1.94E2,6.4E1,7.6E1,1.43E3,3.7E2,1.9E1,4.8E1,2.46E2,3.3E1,4.1E1,4.33E2,2.12E2,3.8E2,1.18E2,8.2E1,2.29E2,9.97E2,2.1E1,8.4E1,3.19E2,9.6E1,1.6E1,9.6E1,4.6E1,4.78E2,2.4E1,1.6E1,5.2E1,2.46E2],"tree_param":{"num_deleted":"0","num_feature":"8","num_nodes":"63","size_leaf_vector":"1"}},{"base_weights":[1.7160554E-1,-2.1781008E1,6.2035706E1,-4.2485992E1,6.534449E-1,4.8460457E1,9.319877E1,-2.112576E1,-5.0919907E1,5.7178623E1,-4.215294E0,1.0466317E1,5.7378613E1,7.925312E1,1.2056939E2,4.633785E0,-2.8694262E1,-2.6771736E1,-5.7755627E1,3.9101658E1,8.7609116E1,-1.526189E1,9.418326E0,-1.0890216E1,2.5978632E1,9.2378555E1,5.190298E1,5.6702736E1,9.619207E1,1.0858488E2,1.4851906E2,8.000522E0,-2.785025E1,-3.8354298E1,-2.0325258E1,-4.4762768E1,-9.252918E0,-7.096033E1,-3.8432587E1,3.1389122E1,1.0654145E2,6.3714195E1,1.173452E2,-5.3244743E1,-1.1596637E1,-2.9956388E1,1.2361193E1,-3.7505478E1,2.1861644E0,-1.8606876E1,3.0407696E1,7.63431E1,1.281533E2,7.473218E1,4.0770393E1,1.3691441E2,4.7830353E1,7.258262E1,1.0536134E2,1.1252278E1,1.1002907E2,1.509781E2,1.2783325E1],"categories":[],"categories_nodes":[],"categories_segments":[],"categories_sizes":[],"default_left":[1,1,1,1,1,1,1,1,1,1,1,1,1,1,1,1,1,1,1,1,1,1,1,1,1,1,1,1,1,1,1,0,0,0,0,0,0,0,0,0,0,0,0,0,0,0,0,0,0,0,0,0,0,0,0,0,0,0,0,0,0,0,0],"id":4,"left_children":[1,3,5,7,9,11,13,15,17,19,21,23,25,27,29,31,33,35,37,39,41,43,45,47,49,51,53,55,57,59,61,-1,-1,-1,-1,-1,-1,-1,-1,-1,-1,-1,-1,-1,-1,-1,-1,-1,-1,-1,-1,-1,-1,-1,-1,-1,-1,-1,-1,-1,-1,-1,-1],"loss_changes":[9.177888E6,2.3169788E6,7.442755E5,4.66234E5,6.5936025E5,4.17864E5,1.95036E5,1.436244E5,3.053195E5,1.01091625E5,3.323786E5,7.846718E4,1.86852E5,1.312945E5,4.38315E4,1.8596172E4,4.5221156E4,1.29440625E5,3.66737E5,5.959172E4,4.2261312E4,1.6908781E5,1.1485432E5,3.4885125E4,2.7619453E4,6.708725E4,2.172995E5,1.0447166E5,3.6298375E4,1.6895125E4,1.5092875E4,0E0,0E0,0E0,0E0,0E0,0E0,0E0,0E0,0E0,0E0,0E0,0E0,0E0,0E0,0E0,0E0,0E0,0E0,0E0,0E0,0E0,0E0,0E0,0E0,0E0,0E0,0E0,0E0,0E0,0E0,0E0,0E0],"parents":[2147483647,0,0,1,1,2,2,3,3,4,4,5,5,6,6,7,7,8,8,9,9,10,10,11,11,12,12,13,13,14,14,15,15,16,16,17,17,18,18,19,19,20,20,21,21,22,22,23,23,24,24,25,25,26,26,27,27,28,28,29,29,30,30],"right_children":[2,4,6,8,10,12,14,16,18,20,22,24,26,28,30,32,34,36,38,40,42,44,46,48,50,52,54,56,58,60,62,-1,-1,-1,-1,-1,-1,-1,-1,-1,-1,-1,-1,-1,-1,-1,-1,-1,-1,-1,-1,-1,-1,-1,-1,-1,-1,-1,-1,-1,-1,-1,-1],"split_conditions":[6.208718E-1,-4.0837234E-1,1.6191607E0,3.4144428E-1,-1.489043E0,-3.7405372E-1,1.9761126E0,-2.0339312E-1,-1.0739557E0,5.7806146E-1,1.0650113E-2,-1.432329E0,-1.3779451E0,5.6544937E-2,2.4268897E0,1.6754882E0,5.1702714E-1,-9.349812E-1,5.485575E-1,1.213662E0,-1.0093443E-1,-1.1207789E0,-1.3993326E0,-7.4630594E-1,5.7804763E-1,1.4879646E0,-1.3217435E0,-1.3462293E0,-1.0773083E0,2.544361E-1,1.4702419E0,2.4001565E0,-8.355076E0,-1.15062895E1,-6.0975776E0,-1.3428831E1,-2.7758756E0,-2.12881E1,-1.1529777E1,9.416737E0,3.1962437E1,1.911426E1,3.520356E1,-1.5973424E1,-3.4789913E0,-8.986917E0,3.708358E0,-1.1251644E1,6.5584934E-1,-5.582063E0,9.122309E0,2.2902931E1,3.844599E1,2.2419655E1,1.2231118E1,4.1074326E1,1.4349107E1,2.1774786E1,3.1608404E1,3.3756835E0,3.300872E1,4.5293434E1,3.8349977E0],"split_indices":[3,0,3,1,7,2,0,1,7,2,3,6,7,5,0,7,7,0,7,1,4,6,6,5,7,2,1,7,4,2,4,0,0,0,0,0,0,0,0,0,0,0,0,0,0,0,0,0,0,0,0,0,0,0,0,0,0,0,0,0,0,0,0],"split_type":[0,0,0,0,0,0,0,0,0,0,0,0,0,0,0,0,0,0,0,0,0,0,0,0,0,0,0,0,0,0,0,0,0,0,0,0,0,0,0,0,0,0,0,0,0,0,0,0,0,0,0,0,0,0,0,0,0,0,0,0,0,0,0],"sum_hessian":[6.756E3,4.987E3,1.769E3,2.593E3,2.394E3,1.234E3,5.35E2,7.35E2,1.858E3,1.89E2,2.205E3,2.35E2,9.99E2,3.57E2,1.78E2,1.67E2,5.68E2,4.11E2,1.447E3,1.2E2,6.9E1,1.218E3,9.87E2,9.9E1,1.36E2,1.33E2,8.66E2,1.55E2,2.02E2,1.28E2,5E1,1.52E2,1.5E1,2.62E2,3.06E2,2.02E2,2.09E2,8.58E2,5.89E2,1.09E2,1.1E1,4E1,2.9E1,1.06E2,1.112E3,6.8E1,9.19E2,3.2E1,6.7E1,1.2E1,1.24E2,9.4E1,3.9E1,2.82E2,5.84E2,1.4E1,1.41E2,5.9E1,1.43E2,2E0,1.26E2,4.9E1,1E0],"tree_param":{"num_deleted":"0","num_feature":"8","num_nodes":"63","size_leaf_vector":"1"}},{"base_weights":[1.6180712E-1,-1.7970203E1,3.9289593E1,-3.247743E1,-4.584444E0,2.845316E1,6.226559E1,-2.1957045E1,-4.5626972E1,2.0681295E1,-8.916294E0,5.1644844E1,1.9979359E1,4.9917957E1,8.117525E1,-2.4664276E1,1.0050286E0,-2.75269E1,-5.5269405E1,1.8469042E0,4.153468E1,3.9714608E0,-2.404723E1,3.5470078E1,7.481923E1,4.0390575E1,7.300316E0,1.8557272E1,5.6409004E1,7.551127E1,1.1171376E2,-2.6948683E1,6.1246867E0,7.972794E1,-8.335278E-1,-4.095508E1,-1.18285265E1,-6.2903374E1,-3.7223175E1,4.448886E1,-3.2709763E0,7.293046E1,3.265754E1,-1.0461933E1,1.5002448E1,-2.7832045E1,6.460299E0,8.129473E1,2.7422054E1,6.434954E1,1.0435782E2,3.5209263E1,9.475061E1,-1.0337938E1,2.4339401E1,3.5496803E1,-1.9173943E0,4.7909874E1,7.764483E1,6.358018E1,1.0030031E2,4.855131E1,1.19349785E2],"categories":[],"categories_nodes":[],"categories_segments":[],"categories_sizes":[],"default_left":[1,1,1,1,1,1,1,1,1,1,1,1,1,1,1,1,1,1,1,1,1,1,1,1,1,1,1,1,1,1,1,0,0,0,0,0,0,0,0,0,0,0,0,0,0,0,0,0,0,0,0,0,0,0,0,0,0,0,0,0,0,0,0],"id":5,"left_children":[1,3,5,7,9,11,13,15,17,19,21,23,25,27,29,31,33,35,37,39,41,43,45,47,49,51,53,55,57,59,61,-1,-1,-1,-1,-1,-1,-1,-1,-1,-1,-1,-1,-1,-1,-1,-1,-1,-1,-1,-1,-1,-1,-1,-1,-1,-1,-1,-1,-1,-1,-1,-1],"loss_changes":[4.7945635E6,8.966216E5,5.31041E5,3.0555575E5,2.6318647E5,2.8510388E5,1.5588825E5,7.667256E4,1.7021475E5,1.3817511E5,4.0024325E5,1.43159E5,2.760978E5,8.383931E4,3.8093125E4,7.774406E4,1.9026941E4,7.203097E4,8.5965625E4,4.07375E4,4.416197E4,1.7672594E5,1.09179125E5,8.296303E4,4.2456938E4,1.1186131E5,1.9860784E5,2.5386744E4,5.8547625E4,6.164775E4,1.3497781E4,0E0,0E0,0E0,0E0,0E0,0E0,0E0,0E0,0E0,0E0,0E0,0E0,0E0,0E0,0E0,0E0,0E0,0E0,0E0,0E0,0E0,0E0,0E0,0E0,0E0,0E0,0E0,0E0,0E0,0E0,0E0,0E0],"parents":[2147483647,0,0,1,1,2,2,3,3,4,4,5,5,6,6,7,7,8,8,9,9,10,10,11,11,12,12,13,13,14,14,15,15,16,16,17,17,18,18,19,19,20,20,21,21,22,22,23,23,24,24,25,25,26,26,27,27,28,28,29,29,30,30],"right_children":[2,4,6,8,10,12,14,16,18,20,22,24,26,28,30,32,34,36,38,40,42,44,46,48,50,52,54,56,58,60,62,-1,-1,-1,-1,-1,-1,-1,-1,-1,-1,-1,-1,-1,-1,-1,-1,-1,-1,-1,-1,-1,-1,-1,-1,-1,-1,-1,-1,-1,-1,-1,-1],"split_conditions":[4.6369192E-1,-5.5176616E-1,1.3998182E0,1.0439978E0,-1.2488563E0,-9.843725E-1,1.7823205E0,4.7643995E-1,-9.7305864E-1,-8.819417E-2,-1.890553E-1,1.2237487E0,-1.0588834E0,-6.7773503E-1,2.468409E0,1.4851053E0,-1.5003569E0,-2.8024924E-1,8.373381E-1,-1.6988125E0,-1.6396468E0,5.7934594E-1,8.4177136E-1,-1.6324133E0,-1.1405404E0,1.742246E0,3.4033036E-1,-1.0445457E0,2.0437849E0,1.9601138E0,-1.1699646E0,-8.084605E0,1.837406E0,2.3918385E1,-2.5005835E-1,-1.2286524E1,-3.548558E0,-1.8871014E1,-1.1166953E1,1.3346659E1,-9.812929E-1,2.1879139E1,9.797262E0,-3.13858E0,4.500735E0,-8.349614E0,1.9380897E0,2.438842E1,8.226617E0,1.9304863E1,3.1307346E1,1.0562779E1,2.8425184E1,-3.1013815E0,7.3018208E0,1.0649041E1,-5.752183E-1,1.4372963E1,2.329345E1,1.9074055E1,3.0090094E1,1.4565394E1,3.5804935E1],"split_indices":[0,3,3,1,7,7,0,2,7,0,1,2,1,5,3,5,7,2,7,7,7,7,4,7,7,5,6,1,3,2,6,0,0,0,0,0,0,0,0,0,0,0,0,0,0,0,0,0,0,0,0,0,0,0,0,0,0,0,0,0,0,0,0],"split_type":[0,0,0,0,0,0,0,0,0,0,0,0,0,0,0,0,0,0,0,0,0,0,0,0,0,0,0,0,0,0,0,0,0,0,0,0,0,0,0,0,0,0,0,0,0,0,0,0,0,0,0,0,0,0,0,0,0,0,0,0,0,0,0],"sum_hessian":[6.756E3,4.617E3,2.139E3,2.215E3,2.402E3,1.455E3,6.84E2,1.232E3,9.83E2,3.51E2,2.051E3,3.88E2,1.067E3,4.16E2,2.68E2,1.102E3,1.3E2,3.43E2,6.4E2,1.85E2,1.66E2,1.108E3,9.43E2,2.3E2,1.58E2,4.08E2,6.59E2,7.2E1,3.44E2,2.29E2,3.9E1,1.026E3,7.6E1,2E0,1.28E2,1.84E2,1.59E2,4.48E2,1.92E2,1.9E1,1.66E2,3.5E1,1.31E2,4.8E2,6.28E2,8.39E2,1.04E2,3.3E1,1.97E2,1.19E2,3.9E1,3.74E2,3.4E1,3.24E2,3.35E2,3.9E1,3.3E1,2.48E2,9.6E1,1.57E2,7.2E1,5E0,3.4E1],"tree_param":{"num_deleted":"0","num_feature":"8","num_nodes":"63","size_leaf_vector":"1"}},{"base_weights":[1.5533087E-1,-1.8207731E1,2.0082123E1,-1.2187343E1,-2.9184546E1,6.3335414E0,3.3499893E1,-1.9649439E1,-3.1790285E0,1.9030998E1,-3.16419E1,2.5472515E1,-9.354954E-1,2.782085E1,5.7113636E1,-3.282728E1,-8.257096E0,-1.2200645E1,1.7272417E1,9.700618E1,7.1266932E0,-9.847846E1,-3.0234222E1,1.729616E1,5.547144E1,-2.0363007E1,4.687028E0,6.330991E1,2.442493E1,3.8652935E1,7.187231E1,-3.6388817E1,-1.5084374E1,-1.2815927E1,3.572557E1,-2.2105043E1,-4.5837283E0,2.65145E1,-5.173807E0,1.070711E2,1.3275879E1,-1.9453826E0,5.95343E1,-7.604027E1,-1.3384981E2,-3.233065E1,-2.5911417E0,5.8796013E1,1.2019417E1,7.992732E1,3.2351715E1,1.5442914E1,-3.6851994E1,8.7690836E-1,4.6688255E1,4.9507988E1,8.61202E1,4.228117E1,1.7596642E1,3.2334452E0,6.349242E1,1.2476213E2,5.727665E1],"categories":[],"categories_nodes":[],"categories_segments":[],"categories_sizes":[],"default_left":[1,1,1,1,1,1,1,1,1,1,1,1,1,1,1,1,1,1,1,1,1,1,1,1,1,1,1,1,1,1,1,0,0,0,0,0,0,0,0,0,0,0,0,0,0,0,0,0,0,0,0,0,0,0,0,0,0,0,0,0,0,0,0],"id":6,"left_children":[1,3,5,7,9,11,13,15,17,19,21,23,25,27,29,31,33,35,37,39,41,43,45,47,49,51,53,55,57,59,61,-1,-1,-1,-1,-1,-1,-1,-1,-1,-1,-1,-1,-1,-1,-1,-1,-1,-1,-1,-1,-1,-1,-1,-1,-1,-1,-1,-1,-1,-1,-1,-1],"loss_changes":[2.4728662E6,2.3206425E5,5.976725E5,1.5273066E5,1.48113E5,2.2289712E5,2.1834075E5,1.8633612E5,1.9043552E5,5.593133E4,1.0851225E5,1.0720984E5,1.2702261E5,1.5801944E5,8.359031E4,3.5849688E4,1.3439819E5,5.3914406E4,6.569132E4,5.3204453E3,2.578989E4,8.870078E3,6.7256125E4,7.549977E4,5.0563062E4,1.5466434E5,1.4430586E5,3.1941312E4,1.4678831E5,1.2560636E5,1.2794731E5,0E0,0E0,0E0,0E0,0E0,0E0,0E0,0E0,0E0,0E0,0E0,0E0,0E0,0E0,0E0,0E0,0E0,0E0,0E0,0E0,0E0,0E0,0E0,0E0,0E0,0E0,0E0,0E0,0E0,0E0,0E0,0E0],"parents":[2147483647,0,0,1,1,2,2,3,3,4,4,5,5,6,6,7,7,8,8,9,9,10,10,11,11,12,12,13,13,14,14,15,15,16,16,17,17,18,18,19,19,20,20,21,21,22,22,23,23,24,24,25,25,26,26,27,27,28,28,29,29,30,30],"right_children":[2,4,6,8,10,12,14,16,18,20,22,24,26,28,30,32,34,36,38,40,42,44,46,48,50,52,54,56,58,60,62,-1,-1,-1,-1,-1,-1,-1,-1,-1,-1,-1,-1,-1,-1,-1,-1,-1,-1,-1,-1,-1,-1,-1,-1,-1,-1,-1,-1,-1,-1,-1,-1],"split_conditions":[-3.763972E-2,9.197366E-1,6.630529E-1,5.530088E-1,-1.6314859E0,-9.840015E-1,9.9653757E-1,8.402468E-2,-9.4782424E-1,-1.7271898E0,-1.8942783E0,1.64221E-2,-3.4493148E-1,-1.4975748E0,5.8082974E-1,1.1071563E0,-1.0820053E-1,-1.4981437E0,1.6044523E0,2.6514345E-1,-3.3099952E-1,-1.3466527E0,1.4308199E0,-1.6333406E0,2.7940035E-1,-7.6256835E-1,5.813861E-1,1.3582017E0,-1.4268876E0,1.1799734E0,6.3591504E-1,-1.0916645E1,-4.5253124E0,-3.844778E0,1.0717671E1,-6.631513E0,-1.3751185E0,7.95435E0,-1.5521423E0,3.212133E1,3.9827638E0,-5.836148E-1,1.786029E1,-2.281208E1,-4.0154945E1,-9.699196E0,-7.7734256E-1,1.7638805E1,3.6058252E0,2.3978197E1,9.705515E0,4.6328745E0,-1.1055598E1,2.6307252E-1,1.4006477E1,1.4852397E1,2.5836061E1,1.2684352E1,5.2789927E0,9.700336E-1,1.9047728E1,3.7428642E1,1.7182995E1],"split_indices":[0,1,3,7,7,7,5,2,2,7,6,6,6,7,7,6,7,2,7,3,4,4,5,7,5,1,7,2,1,2,7,0,0,0,0,0,0,0,0,0,0,0,0,0,0,0,0,0,0,0,0,0,0,0,0,0,0,0,0,0,0,0,0],"split_type":[0,0,0,0,0,0,0,0,0,0,0,0,0,0,0,0,0,0,0,0,0,0,0,0,0,0,0,0,0,0,0,0,0,0,0,0,0,0,0,0,0,0,0,0,0,0,0,0,0,0,0,0,0,0,0,0,0,0,0,0,0,0,0],"sum_hessian":[6.756E3,3.516E3,3.24E3,2.272E3,1.244E3,1.601E3,1.639E3,1.242E3,1.03E3,6E1,1.184E3,4.4E2,1.161E3,1.323E3,3.16E2,5.75E2,6.67E2,7.15E2,3.15E2,7E0,5.3E1,2.3E1,1.161E3,3.47E2,9.3E1,2.6E2,9.01E2,1.14E2,1.209E3,1.42E2,1.74E2,4.78E2,9.7E1,6.05E2,6.2E1,3.1E2,4.05E2,2.23E2,9.2E1,6E0,1E0,4.6E1,7E0,1.6E1,7E0,1.079E3,8.2E1,3.8E1,3.09E2,4.4E1,4.9E1,8.2E1,1.78E2,8.27E2,7.4E1,7.3E1,4.1E1,3.33E2,8.76E2,5.9E1,8.3E1,3.6E1,1.38E2],"tree_param":{"num_deleted":"0","num_feature":"8","num_nodes":"63","size_leaf_vector":"1"}},{"base_weights":[1.3326617E-1,-8.836462E0,2.0776285E1,-1.9293682E1,-4.194646E0,1.6075956E1,3.7233433E1,-2.7883839E1,-6.1274133E0,2.4046238E1,-6.454024E0,1.2323567E1,3.5459167E1,8.605379E1,3.4666965E1,-8.80216E1,-2.6591215E1,-1.9841415E1,3.3290684E0,-7.1531945E-1,3.3530464E1,9.242708E0,-9.583339E0,2.7067074E1,5.6580343E0,1.4879712E1,4.5308563E1,4.0489197E0,9.8788826E1,3.1591276E1,7.802632E1,-3.0639242E1,-9.3279434E1,-4.2469334E1,-2.1224344E1,-4.6090126E1,-1.4677494E1,1.0466214E1,-1.8896383E1,-6.971403E0,4.1071384E1,6.3831417E1,2.6303457E1,-1.7405592E1,1.4026494E1,2.6877084E0,-1.257524E1,1.6121065E1,4.0256268E1,1.2962736E0,4.190483E1,3.7514053E1,-2.1923313E1,6.475849E1,2.845274E1,-8.584432E0,2.0974487E1,2.299864E1,4.350522E1,5.250736E1,1.3526031E2],"categories":[],"categories_nodes":[],"categories_segments":[],"categories_sizes":[],"default_left":[1,1,1,1,1,1,1,1,1,1,1,1,1,1,1,1,1,1,1,1,1,1,1,1,1,1,1,1,0,1,1,0,0,0,0,0,0,0,0,0,0,0,0,0,0,0,0,0,0,0,0,0,0,0,0,0,0,0,0,0,0],"id":7,"left_children":[1,3,5,7,9,11,13,15,17,19,21,23,25,27,29,31,33,35,37,39,41,43,45,47,49,51,53,55,-1,57,59,-1,-1,-1,-1,-1,-1,-1,-1,-1,-1,-1,-1,-1,-1,-1,-1,-1,-1,-1,-1,-1,-1,-1,-1,-1,-1,-1,-1,-1,-1],"loss_changes":[1.251325E6,2.2859334E5,1.5774506E5,1.6359838E5,2.0842069E5,1.1550003E5,5.3901125E4,6.575569E4,7.437625E4,5.6856297E4,1.4857838E5,1.3123828E5,5.1621188E4,2.2575375E4,5.5279844E4,2.5727188E3,7.229894E4,3.1041344E4,5.4130707E4,1.806296E4,3.664342E4,6.436645E4,9.25892E4,5.9408562E4,1.4571375E5,7.162847E4,5.5202406E4,1.0353607E3,0E0,4.056253E4,3.3793312E4,0E0,0E0,0E0,0E0,0E0,0E0,0E0,0E0,0E0,0E0,0E0,0E0,0E0,0E0,0E0,0E0,0E0,0E0,0E0,0E0,0E0,0E0,0E0,0E0,0E0,0E0,0E0,0E0,0E0,0E0],"parents":[2147483647,0,0,1,1,2,2,3,3,4,4,5,5,6,6,7,7,8,8,9,9,10,10,11,11,12,12,13,13,14,14,15,15,16,16,17,17,18,18,19,19,20,20,21,21,22,22,23,23,24,24,25,25,26,26,27,27,29,29,30,30],"right_children":[2,4,6,8,10,12,14,16,18,20,22,24,26,28,30,32,34,36,38,40,42,44,46,48,50,52,54,56,-1,58,60,-1,-1,-1,-1,-1,-1,-1,-1,-1,-1,-1,-1,-1,-1,-1,-1,-1,-1,-1,-1,-1,-1,-1,-1,-1,-1,-1,-1,-1,-1],"split_conditions":[5.1424634E-1,-9.054911E-1,1.6810265E0,8.373381E-1,-1.5016552E0,1.196506E0,-1.3580995E0,-1.6156011E0,-1.7607962E0,-7.8129935E-1,-6.239693E-1,-9.532131E-1,-1.2007077E-1,1.1299443E0,1.5336761E0,-1.4083775E0,-1.3815455E0,-2.1907334E0,1.6118711E0,-1.5658287E0,-1.698627E0,4.5370672E-2,-9.84187E-1,1.2565804E0,1.2879639E0,-4.3889797E-1,1.6945176E-1,9.6081066E-1,2.9636648E1,2.1337714E0,-8.640772E-1,-9.191773E0,-2.7983831E1,-1.2740801E1,-6.3673034E0,-1.3827039E1,-4.4032483E0,3.1398644E0,-5.6689153E0,-2.0914211E0,1.2321416E1,1.9149426E1,7.8910375E0,-5.221678E0,4.207948E0,8.0631256E-1,-3.7725723E0,4.83632E0,1.207688E1,3.888821E-1,1.257145E1,1.1254216E1,-6.5769944E0,1.9427547E1,8.535822E0,-2.5753295E0,6.2923465E0,6.8995924E0,1.3051566E1,1.5752208E1,4.0578094E1],"split_indices":[0,0,3,7,7,6,7,6,2,6,1,7,7,2,5,4,0,2,7,7,7,7,7,2,5,7,7,0,0,3,4,0,0,0,0,0,0,0,0,0,0,0,0,0,0,0,0,0,0,0,0,0,0,0,0,0,0,0,0,0,0],"split_type":[0,0,0,0,0,0,0,0,0,0,0,0,0,0,0,0,0,0,0,0,0,0,0,0,0,0,0,0,0,0,0,0,0,0,0,0,0,0,0,0,0,0,0,0,0,0,0,0,0,0,0,0,0,0,0,0,0,0,0,0,0],"sum_hessian":[6.756E3,4.71E3,2.046E3,1.447E3,3.263E3,1.593E3,4.53E2,8.75E2,5.72E2,2.41E2,3.022E3,1.336E3,2.57E2,2.1E1,4.32E2,1.7E1,8.58E2,2.33E2,3.39E2,6.7E1,1.74E2,5.02E2,2.52E3,4.15E2,9.21E2,8.4E1,1.73E2,3E0,1.8E1,4.05E2,2.7E1,2E0,1.5E1,2.15E2,6.43E2,3.7E1,1.96E2,2.57E2,8.2E1,5.9E1,8E0,3.2E1,1.42E2,7.6E1,4.26E2,4.94E2,2.026E3,2.28E2,1.87E2,8.23E2,9.8E1,5.2E1,3.2E1,7.9E1,9.4E1,2E0,1E0,2.37E2,1.68E2,2E1,7E0],"tree_param":{"num_deleted":"0","num_feature":"8","num_nodes":"61","size_leaf_vector":"1"}},{"base_weights":[1.1229044E-1,-8.62095E0,1.1045536E1,-1.2545127E1,-2.1538029E0,5.8750114E0,2.2202242E1,-4.2140553E1,-1.0278498E1,-9.309611E0,1.428797E1,3.7996168E0,3.4191833E1,1.5225817E1,3.6694576E1,-5.3001125E1,-2.9802923E1,4.390075E0,-1.4155125E1,-2.7800941E1,-5.5506763E0,2.3694864E1,-7.435414E0,-2.6458317E1,5.083015E0,7.3174157E0,4.4868423E1,2.3459734E1,-1.0849096E1,2.9720888E1,5.493726E1,-7.3854095E1,-4.7631004E1,-3.8707985E1,-8.663469E0,-7.9126555E-1,3.1077671E1,-2.036101E1,1.1013955E0,-4.9143192E1,-2.2768747E1,-2.8621912E1,-3.4376264E0,1.777494E1,4.3341927E1,-1.1994585E1,3.877592E1,-4.15499E1,-4.6197953E0,5.3353393E-1,1.4859973E1,-3.928526E0,4.7739487E1,2.5135298E1,6.6585884E1,5.8365192E1,2.0640228E1,-7.121231E1,-3.28773E-1,2.2062317E1,5.6084644E1,4.8980618E1,8.370195E1],"categories":[],"categories_nodes":[],"categories_segments":[],"categories_sizes":[],"default_left":[1,1,1,1,1,1,1,1,1,1,1,1,1,1,1,1,1,1,1,1,1,1,1,1,1,1,1,1,1,1,1,0,0,0,0,0,0,0,0,0,0,0,0,0,0,0,0,0,0,0,0,0,0,0,0,0,0,0,0,0,0,0,0],"id":8,"left_children":[1,3,5,7,9,11,13,15,17,19,21,23,25,27,29,31,33,35,37,39,41,43,45,47,49,51,53,55,57,59,61,-1,-1,-1,-1,-1,-1,-1,-1,-1,-1,-1,-1,-1,-1,-1,-1,-1,-1,-1,-1,-1,-1,-1,-1,-1,-1,-1,-1,-1,-1,-1,-1],"loss_changes":[6.4527156E5,9.5319E4,1.7298531E5,1.5640425E5,1.6720194E5,1.2046323E5,9.549072E4,2.0663375E4,1.2362889E5,6.865832E4,8.825086E4,7.442198E4,3.9841484E4,1.3830577E5,3.7550594E4,6.224797E3,1.47245E4,6.2940863E4,1.6277775E5,1.6816594E4,4.0072168E4,3.423864E4,2.8064889E4,2.5515125E4,8.1657516E4,1.88255E4,4.1181688E4,4.6920812E4,9.8407875E4,4.4192094E4,1.0292875E4,0E0,0E0,0E0,0E0,0E0,0E0,0E0,0E0,0E0,0E0,0E0,0E0,0E0,0E0,0E0,0E0,0E0,0E0,0E0,0E0,0E0,0E0,0E0,0E0,0E0,0E0,0E0,0E0,0E0,0E0,0E0,0E0],"parents":[2147483647,0,0,1,1,2,2,3,3,4,4,5,5,6,6,7,7,8,8,9,9,10,10,11,11,12,12,13,13,14,14,15,15,16,16,17,17,18,18,19,19,20,20,21,21,22,22,23,23,24,24,25,25,26,26,27,27,28,28,29,29,30,30],"right_children":[2,4,6,8,10,12,14,16,18,20,22,24,26,28,30,32,34,36,38,40,42,44,46,48,50,52,54,56,58,60,62,-1,-1,-1,-1,-1,-1,-1,-1,-1,-1,-1,-1,-1,-1,-1,-1,-1,-1,-1,-1,-1,-1,-1,-1,-1,-1,-1,-1,-1,-1,-1,-1],"split_conditions":[5.504344E-2,5.433643E-1,1.0752251E0,-8.634002E-1,-5.8838797E-1,1.5336761E0,-1.137647E-1,-7.8995013E-1,-1.2816849E0,9.009552E-1,1.6044523E0,-1.5602363E0,5.837972E-1,-6.5831184E-1,1.391642E0,-1.1948738E0,4.5396653E-1,1.1108078E-2,1.1741378E0,-1.0762193E0,-1.7547543E0,-5.569724E-1,6.653509E-1,-1.1805882E0,5.7804763E-1,-4.0412268E-1,-2.80051E-1,-1.6298168E0,3.2031012E-1,5.428078E-1,1.9991989E0,-2.2156229E1,-1.4289302E1,-1.1612396E1,-2.599041E0,-2.3737967E-1,9.323301E0,-6.108303E0,3.3041865E-1,-1.4742958E1,-6.8306246E0,-8.586574E0,-1.0312879E0,5.3324823E0,1.3002579E1,-3.5983756E0,1.1632776E1,-1.2464971E1,-1.3859386E0,1.6006018E-1,4.457992E0,-1.1785579E0,1.4321847E1,7.54059E0,1.9975765E1,1.7509558E1,6.1920686E0,-2.1363693E1,-9.86319E-2,6.6186953E0,1.6825394E1,1.4694186E1,2.5110586E1],"split_indices":[0,7,2,2,6,5,7,6,7,7,7,6,7,7,6,5,7,6,6,3,6,2,6,5,7,1,6,7,6,7,2,0,0,0,0,0,0,0,0,0,0,0,0,0,0,0,0,0,0,0,0,0,0,0,0,0,0,0,0,0,0,0,0],"split_type":[0,0,0,0,0,0,0,0,0,0,0,0,0,0,0,0,0,0,0,0,0,0,0,0,0,0,0,0,0,0,0,0,0,0,0,0,0,0,0,0,0,0,0,0,0,0,0,0,0,0,0,0,0,0,0,0,0,0,0,0,0,0,0],"sum_hessian":[6.756E3,3.756E3,3E3,2.337E3,1.419E3,2.051E3,9.49E2,1.65E2,2.172E3,9.89E2,4.3E2,1.912E3,1.39E2,6.42E2,3.07E2,8.6E1,7.9E1,4.54E2,1.718E3,1.66E2,8.23E2,3E2,1.3E2,7.7E1,1.835E3,4E1,9.9E1,4.88E2,1.54E2,2.24E2,8.3E1,1.5E1,7.1E1,5.5E1,2.4E1,3.81E2,7.3E1,1.221E3,4.97E2,3E1,1.36E2,6.8E1,7.55E2,2.32E2,6.8E1,1.19E2,1.1E1,4.5E1,3.2E1,1.253E3,5.82E2,3.2E1,8E0,5.3E1,4.6E1,3.5E1,4.53E2,2.2E1,1.32E2,1.75E2,4.9E1,7.1E1,1.2E1],"tree_param":{"num_deleted":"0","num_feature":"8","num_nodes":"63","size_leaf_vector":"1"}},{"base_weights":[8.5227706E-2,-4.815452E0,1.0341852E1,-1.004367E1,1.6410794E0,5.093616E0,2.294767E1,-1.892864E-2,-1.4322995E1,-6.6772003E0,1.0901949E1,2.0131273E1,-5.210356E0,9.58483E1,2.0931282E1,5.6812214E1,-9.3307716E-1,-1.8355478E1,9.434015E-1,-1.7243961E1,-2.753125E0,1.3114274E1,-3.0022865E1,1.4603641E1,4.4662334E1,-1.984706E1,6.9826894E0,1.3900761E2,6.628128E1,1.5433679E1,3.385339E1,6.2191727E1,-1.1812134E0,-6.480208E0,6.761453E0,-2.7489388E1,-1.1297348E1,2.623342E1,-7.2499614E0,-3.6565678E1,-1.4120987E1,-9.380532E0,1.7272755E0,4.07165E1,1.0793247E1,-3.549687E1,-1.1712487E1,2.1714153E1,-1.4330139E1,6.13574E1,1.7328737E1,-3.4281963E1,-8.6309595E0,-1.4405402E1,1.4360923E1,2.5104858E1,7.200608E1,4.4151998E0,3.0376343E1,1.53027E1,4.570204E1],"categories":[],"categories_nodes":[],"categories_segments":[],"categories_sizes":[],"default_left":[1,1,1,1,1,1,1,1,1,1,1,1,1,1,1,1,1,1,1,1,1,1,1,1,1,1,1,0,1,1,1,0,0,0,0,0,0,0,0,0,0,0,0,0,0,0,0,0,0,0,0,0,0,0,0,0,0,0,0,0,0],"id":9,"left_children":[1,3,5,7,9,11,13,15,17,19,21,23,25,27,29,31,33,35,37,39,41,43,45,47,49,51,53,-1,55,57,59,-1,-1,-1,-1,-1,-1,-1,-1,-1,-1,-1,-1,-1,-1,-1,-1,-1,-1,-1,-1,-1,-1,-1,-1,-1,-1,-1,-1,-1,-1],"loss_changes":[3.3968656E5,1.5438334E5,1.44439E5,1.0840581E5,1.5776242E5,2.39344E5,9.2365125E4,3.9380758E4,1.0904275E5,4.4693E4,8.8126E4,8.450375E4,1.637919E5,1.2479969E4,4.394897E4,3.8171758E3,3.188501E4,9.000953E4,7.706521E4,1.7103297E4,2.341463E4,5.850078E4,4.595797E3,1.06058445E5,5.1415406E4,6.72178E4,7.926784E4,0E0,1.0210156E3,7.247451E4,4.0183547E4,0E0,0E0,0E0,0E0,0E0,0E0,0E0,0E0,0E0,0E0,0E0,0E0,0E0,0E0,0E0,0E0,0E0,0E0,0E0,0E0,0E0,0E0,0E0,0E0,0E0,0E0,0E0,0E0,0E0,0E0],"parents":[2147483647,0,0,1,1,2,2,3,3,4,4,5,5,6,6,7,7,8,8,9,9,10,10,11,11,12,12,13,13,14,14,15,15,16,16,17,17,18,18,19,19,20,20,21,21,22,22,23,23,24,24,25,25,26,26,28,28,29,29,30,30],"right_children":[2,4,6,8,10,12,14,16,18,20,22,24,26,28,30,32,34,36,38,40,42,44,46,48,50,52,54,-1,56,58,60,-1,-1,-1,-1,-1,-1,-1,-1,-1,-1,-1,-1,-1,-1,-1,-1,-1,-1,-1,-1,-1,-1,-1,-1,-1,-1,-1,-1,-1,-1],"split_conditions":[4.6862292E-1,5.7804763E-1,-1.09127894E-1,-1.0223943E0,-9.8378265E-1,-9.94388E-1,-7.370265E-2,-1.7271898E0,1.1626446E0,-6.605923E-1,1.6754882E0,-1.1487012E0,1.0437799E0,6.152476E-1,5.7242686E-1,-6.6768014E-1,4.9629718E-2,-1.5549602E-1,5.116766E-3,8.104446E-1,-1.4813251E0,6.3517314E-1,1.6995996E0,-1.2486708E0,-1.0817455E0,8.011675E-1,3.8716793E-1,4.1702286E1,5.75333E-1,4.024052E-1,7.6159105E-2,1.8657518E1,-3.5436404E-1,-1.9440625E0,2.028436E0,-8.246817E0,-3.3892045E0,7.870026E0,-2.1749885E0,-1.0969704E1,-4.236296E0,-2.8141599E0,5.181827E-1,1.2214951E1,3.2379744E0,-1.0649061E1,-3.5137463E0,6.5142465E0,-4.2990417E0,1.840722E1,5.1986213E0,-1.028459E1,-2.589288E0,-4.321621E0,4.308277E0,7.531458E0,2.1601826E1,1.3245599E0,9.112904E0,4.5908103E0,1.3710613E1],"split_indices":[2,7,7,7,2,7,7,7,6,5,7,7,4,3,4,4,2,7,5,7,4,7,7,7,7,6,6,0,0,7,7,0,0,0,0,0,0,0,0,0,0,0,0,0,0,0,0,0,0,0,0,0,0,0,0,0,0,0,0,0,0],"split_type":[0,0,0,0,0,0,0,0,0,0,0,0,0,0,0,0,0,0,0,0,0,0,0,0,0,0,0,0,0,0,0,0,0,0,0,0,0,0,0,0,0,0,0,0,0,0,0,0,0,0,0,0,0,0,0,0,0,0,0,0,0],"sum_hessian":[6.756E3,4.572E3,2.184E3,2.526E3,2.046E3,1.543E3,6.41E2,7.56E2,1.77E3,1.078E3,9.68E2,6.27E2,9.16E2,1.6E1,6.25E2,1.1E1,7.45E2,1.4E3,3.7E2,2.91E2,7.87E2,9.19E2,4.9E1,5.13E2,1.14E2,4.16E2,5E2,5E0,1.1E1,4.4E2,1.85E2,1E1,1E0,4.33E2,3.12E2,6.09E2,7.91E2,9E1,2.8E2,3.9E1,2.52E2,3.17E2,4.7E2,7E1,8.49E2,3.7E1,1.2E1,4.12E2,1.01E2,7E1,4.4E1,1.81E2,2.35E2,1.28E2,3.72E2,2E0,9E0,2.54E2,1.86E2,7.3E1,1.12E2],"tree_param":{"num_deleted":"0","num_feature":"8","num_nodes":"61","size_leaf_vector":"1"}},{"base_weights":[7.575982E-2,-2.6023586E0,1.0550729E1,-1.1358168E1,-1.102484E0,8.23047E0,2.5351149E1,-2.032006E1,-2.3674467E0,-1.6155784E0,2.4316269E1,3.2921295E1,6.983238E0,3.8404583E1,1.7851723E1,-2.9749691E1,-1.540094E1,1.373542E0,-2.1678381E1,-6.196436E0,1.4057512E0,3.7252216E1,1.1413417E1,1.9684145E1,8.648719E1,3.328054E0,1.678684E1,3.3077477E1,6.2517334E1,-2.2230053E1,2.8103731E1,-3.9762398E1,-7.6352963E0,-5.3112426E0,-2.114317E1,4.0940084E0,-1.6464365E1,-3.24625E1,-3.5566528E0,8.052728E-1,-2.1004929E1,-1.027365E0,2.8879292E1,2.363394E1,5.4643864E1,-5.4522175E-1,2.1958828E1,3.5200615E1,-9.76849E0,-1.2843018E0,9.539278E1,-5.2563214E-1,1.9545925E1,4.791644E1,8.746387E0,2.6644197E1,4.78975E1,1.5350037E1,6.569906E1,1.0693377E1,-3.3189735E1,1.3916607E1,3.935146E1],"categories":[],"categories_nodes":[],"categories_segments":[],"categories_sizes":[],"default_left":[1,1,1,1,1,1,1,1,1,1,1,1,1,1,1,1,1,1,1,1,1,1,1,1,1,1,1,1,1,1,1,0,0,0,0,0,0,0,0,0,0,0,0,0,0,0,0,0,0,0,0,0,0,0,0,0,0,0,0,0,0,0,0],"id":10,"left_children":[1,3,5,7,9,11,13,15,17,19,21,23,25,27,29,31,33,35,37,39,41,43,45,47,49,51,53,55,57,59,61,-1,-1,-1,-1,-1,-1,-1,-1,-1,-1,-1,-1,-1,-1,-1,-1,-1,-1,-1,-1,-1,-1,-1,-1,-1,-1,-1,-1,-1,-1,-1,-1],"loss_changes":[1.8958298E5,7.066722E4,4.7044312E4,6.3363523E4,5.9981336E4,3.6447156E4,1.7522547E4,1.7817719E4,2.849312E4,6.237301E4,1.4763699E4,3.8713992E4,4.0615695E4,6.5383125E3,4.993499E4,2.9367344E4,1.5009352E4,1.6129984E4,1.2391863E4,1.8571633E5,1.8158427E5,9.366539E3,5.939085E3,2.1822904E4,8.720727E3,5.17591E4,7.66721E4,4.1582695E3,6.423203E2,9.375668E3,1.4771367E4,0E0,0E0,0E0,0E0,0E0,0E0,0E0,0E0,0E0,0E0,0E0,0E0,0E0,0E0,0E0,0E0,0E0,0E0,0E0,0E0,0E0,0E0,0E0,0E0,0E0,0E0,0E0,0E0,0E0,0E0,0E0,0E0],"parents":[2147483647,0,0,1,1,2,2,3,3,4,4,5,5,6,6,7,7,8,8,9,9,10,10,11,11,12,12,13,13,14,14,15,15,16,16,17,17,18,18,19,19,20,20,21,21,22,22,23,23,24,24,25,25,26,26,27,27,28,28,29,29,30,30],"right_children":[2,4,6,8,10,12,14,16,18,20,22,24,26,28,30,32,34,36,38,40,42,44,46,48,50,52,54,56,58,60,62,-1,-1,-1,-1,-1,-1,-1,-1,-1,-1,-1,-1,-1,-1,-1,-1,-1,-1,-1,-1,-1,-1,-1,-1,-1,-1,-1,-1,-1,-1,-1,-1],"split_conditions":[8.250798E-1,-1.2088178E0,1.8913238E0,4.992218E-1,2.2109394E0,-1.6298168E0,-9.8863834E-1,-1.4278871E0,1.906657E0,-1.5327033E-1,-5.4739934E-1,-1.6481785E0,7.5231746E-2,1.9144292E0,5.337361E-1,7.399944E-1,-1.274471E0,1.6829071E0,3.0511442E-1,-6.377244E-1,6.0609496E-1,-5.830101E-1,-1.720584E0,-3.921398E-1,2.2566472E-1,1.5824687E0,1.6945176E-1,2.2352734E0,-2.524407E-1,1.988255E0,-1.2248191E-1,-1.19287195E1,-2.290589E0,-1.5933728E0,-6.3429513E0,1.2282026E0,-4.9393096E0,-9.73875E0,-1.0669959E0,2.4158186E-1,-6.301479E0,-3.082095E-1,8.663788E0,7.0901823E0,1.639316E1,-1.6356653E-1,6.587649E0,1.05601845E1,-2.930547E0,-3.8529053E-1,2.8617834E1,-1.5768965E-1,5.8637776E0,1.4374932E1,2.6239161E0,7.9932594E0,1.436925E1,4.605011E0,1.9709719E1,3.208013E0,-9.956921E0,4.174982E0,1.1805438E1],"split_indices":[2,0,2,7,4,7,7,0,1,7,7,7,7,3,6,6,3,7,5,7,4,7,5,6,0,4,7,2,4,2,7,0,0,0,0,0,0,0,0,0,0,0,0,0,0,0,0,0,0,0,0,0,0,0,0,0,0,0,0,0,0,0,0],"split_type":[0,0,0,0,0,0,0,0,0,0,0,0,0,0,0,0,0,0,0,0,0,0,0,0,0,0,0,0,0,0,0,0,0,0,0,0,0,0,0,0,0,0,0,0,0,0,0,0,0,0,0,0,0,0,0,0,0,0,0,0,0,0,0],"sum_hessian":[6.756E3,5.381E3,1.375E3,7.86E2,4.595E3,1.19E3,1.85E2,3.93E2,3.93E2,4.505E3,9E1,5.6E1,1.134E3,6.6E1,1.19E2,1.33E2,2.6E2,3.3E2,6.3E1,1.79E3,2.715E3,4.4E1,4.6E1,4.6E1,1E1,8.27E2,3.07E2,5.6E1,1E1,2.4E1,9.5E1,9.1E1,4.2E1,9.5E1,1.65E2,2.87E2,4.3E1,3.9E1,2.4E1,1.216E3,5.74E2,2.495E3,2.2E2,2.6E1,1.8E1,2.2E1,2.4E1,3E1,1.6E1,1E0,9E0,6.69E2,1.58E2,6.2E1,2.45E2,4.1E1,1.5E1,1E0,9E0,6E0,1.8E1,4.3E1,5.2E1],"tree_param":{"num_deleted":"0","num_feature":"8","num_nodes":"63","size_leaf_vector":"1"}},{"base_weights":[6.93227E-2,-3.2573798E0,4.5841923E0,-7.509512E0,9.572684E-1,1.6693516E0,1.1545448E1,-9.760358E0,5.052011E0,-2.9642437E0,1.1784834E1,1.0880926E1,-4.9665947E0,7.305239E1,9.660754E0,-1.0362596E1,3.9629364E1,-2.0987199E-1,5.7288845E1,-3.589866E0,3.1101797E1,1.5185497E1,-2.2761957E1,5.5691204E0,2.4529165E1,-1.1745188E1,9.487181E0,3.765017E1,9.414385E1,7.3647985E0,3.2769E1,3.508454E0,-1.2688594E1,1.606023E1,6.1592476E1,-3.6167366E1,1.9060978E0,3.4687153E1,9.2243004E1,-1.3841114E1,-1.7958958E0,3.4165543E1,-2.274591E1,1.2400831E1,3.9641056E1,-1.5924217E1,-4.369236E1,1.6230043E1,-1.7096657E0,4.498633E1,1.3003753E1,-3.0654526E1,-6.7159863E0,-2.5460794E1,1.3035988E1,7.8536987E0,3.9844444E1,1.1461926E2,4.4327534E1,1.7378182E0,1.7941166E1,4.763775E1,2.4210707E1],"categories":[],"categories_nodes":[],"categories_segments":[],"categories_sizes":[],"default_left":[1,1,1,1,1,1,1,1,1,1,1,1,1,1,1,1,1,1,1,1,1,1,1,1,1,1,1,1,1,1,1,0,0,0,0,0,0,0,0,0,0,0,0,0,0,0,0,0,0,0,0,0,0,0,0,0,0,0,0,0,0,0,0],"id":11,"left_children":[1,3,5,7,9,11,13,15,17,19,21,23,25,27,29,31,33,35,37,39,41,43,45,47,49,51,53,55,57,59,61,-1,-1,-1,-1,-1,-1,-1,-1,-1,-1,-1,-1,-1,-1,-1,-1,-1,-1,-1,-1,-1,-1,-1,-1,-1,-1,-1,-1,-1,-1,-1,-1],"loss_changes":[1.0150256E5,6.973875E4,5.8154887E4,5.481615E4,8.304506E4,1.23653875E5,9.73641E4,4.928064E4,8.109694E4,3.0716355E4,6.1436297E4,6.1268188E4,1.15331516E5,1.5122594E4,4.337029E4,5.2441312E4,9.36384E3,2.0535797E4,1.8130984E4,2.5924043E4,5.066492E3,3.178807E4,6.030715E3,4.7440484E4,5.5294203E4,7.5968305E4,4.6964785E4,4.0627246E2,1.0219344E4,4.4544066E4,8.263242E3,0E0,0E0,0E0,0E0,0E0,0E0,0E0,0E0,0E0,0E0,0E0,0E0,0E0,0E0,0E0,0E0,0E0,0E0,0E0,0E0,0E0,0E0,0E0,0E0,0E0,0E0,0E0,0E0,0E0,0E0,0E0,0E0],"parents":[2147483647,0,0,1,1,2,2,3,3,4,4,5,5,6,6,7,7,8,8,9,9,10,10,11,11,12,12,13,13,14,14,15,15,16,16,17,17,18,18,19,19,20,20,21,21,22,22,23,23,24,24,25,25,26,26,27,27,28,28,29,29,30,30],"right_children":[2,4,6,8,10,12,14,16,18,20,22,24,26,28,30,32,34,36,38,40,42,44,46,48,50,52,54,56,58,60,62,-1,-1,-1,-1,-1,-1,-1,-1,-1,-1,-1,-1,-1,-1,-1,-1,-1,-1,-1,-1,-1,-1,-1,-1,-1,-1,-1,-1,-1,-1,-1,-1],"split_conditions":[2.2473136E-1,5.8917594E-1,-1.158049E-1,9.091075E-1,-4.6653613E-1,-9.852998E-1,-7.7226624E-2,1.8657024E0,-9.929785E-2,2.4655972E0,1.6754882E0,6.350683E-2,1.5375781E0,-9.058064E-2,1.6980016E0,-1.4358125E0,-1.1287732E0,-1.6751926E0,3.5689038E-1,-1.0205895E0,2.8381977E0,1.0342476E0,1.7093875E-1,-1.5016552E0,2.7940035E-1,3.3019665E-1,-2.9802637E-3,-3.574133E-1,7.895966E-1,5.092373E-1,5.6225526E-1,1.0525362E0,-3.8065784E0,4.8180695E0,1.8477743E1,-1.085021E1,5.718294E-1,1.0406146E1,2.7672903E1,-4.152334E0,-5.3876877E-1,1.0249663E1,-6.8237734E0,3.7202494E0,1.1892317E1,-4.7772655E0,-1.3107709E1,4.8690133E0,-5.128997E-1,1.3495899E1,3.901126E0,-9.196358E0,-2.014796E0,-7.6382384E0,3.9107964E0,2.3561096E0,1.1953334E1,3.438578E1,1.3298261E1,5.213455E-1,5.38235E0,1.4291326E1,7.263212E0],"split_indices":[2,7,7,4,6,7,7,6,7,3,7,6,4,7,6,7,0,3,6,5,3,3,3,7,5,6,6,6,3,7,5,0,0,0,0,0,0,0,0,0,0,0,0,0,0,0,0,0,0,0,0,0,0,0,0,0,0,0,0,0,0,0,0],"split_type":[0,0,0,0,0,0,0,0,0,0,0,0,0,0,0,0,0,0,0,0,0,0,0,0,0,0,0,0,0,0,0,0,0,0,0,0,0,0,0,0,0,0,0,0,0,0,0,0,0,0,0,0,0,0,0,0,0,0,0,0,0,0,0],"sum_hessian":[6.756E3,3.89E3,2.866E3,1.936E3,1.954E3,2.021E3,8.45E2,1.642E3,2.94E2,1.435E3,5.19E2,8.46E2,1.175E3,2.4E1,8.21E2,1.623E3,1.9E1,2.68E2,2.6E1,1.41E3,2.5E1,4.73E2,4.6E1,6.1E2,2.36E2,8E2,3.75E2,1E1,1.4E1,7.48E2,7.3E1,2.33E2,1.39E3,1E1,9E0,1.4E1,2.54E2,1.7E1,9E0,2.09E2,1.201E3,2.4E1,1E0,4.26E2,4.7E1,3.6E1,1E1,2.47E2,3.63E2,8.4E1,1.52E2,1.67E2,6.33E2,3.4E1,3.41E2,1E0,9E0,9E0,5E0,4.89E2,2.59E2,2.5E1,4.8E1],"tree_param":{"num_deleted":"0","num_feature":"8","num_nodes":"63","size_leaf_vector":"1"}},{"base_weights":[6.940831E-2,-8.899946E-1,1.1161261E1,-1.4517335E0,1.6849144E1,1.0318207E1,4.441398E1,-3.2408214E0,3.9248097E0,4.1583543E0,2.5763556E1,8.796124E0,2.963347E1,3.1822721E1,7.577726E1,-3.6606877E0,2.7545147E1,9.4796234E-1,2.0351357E1,-1.8500953E0,1.3715261E1,1.8339848E1,4.0315945E1,7.272834E0,3.270788E1,-4.136133E1,3.2670124E1,4.25967E1,1.0374609E1,7.0794E0,-4.641414E0,1.0782415E1,3.607602E1,8.611594E0,-8.292388E0,5.217169E1,1.0348703E1,-1.0736323E1,8.223999E0,4.0085754E0,2.2564743E1,1.4119974E1,5.244377E1,1.6165504E1,5.604736E1,3.3332076E0,1.4123889E1,2.0575138E1,4.6057777E1,4.4800903E1,9.540919E0,4.14447E0,1.7647583E1],"categories":[],"categories_nodes":[],"categories_segments":[],"categories_sizes":[],"default_left":[1,1,1,1,1,1,1,1,1,1,1,1,1,1,0,1,1,1,1,1,1,1,1,1,1,0,1,0,1,0,0,0,0,0,0,0,0,0,0,0,0,0,0,0,0,0,0,0,0,0,0,0,0],"id":12,"left_children":[1,3,5,7,9,11,13,15,17,19,21,23,25,27,-1,29,31,33,35,37,39,41,43,45,47,-1,49,-1,51,-1,-1,-1,-1,-1,-1,-1,-1,-1,-1,-1,-1,-1,-1,-1,-1,-1,-1,-1,-1,-1,-1,-1,-1],"loss_changes":[7.191493E4,6.20053E4,1.462393E4,5.8015938E4,2.1500871E4,1.5203441E4,2.7223008E3,5.8590945E4,7.362309E4,4.6191494E3,1.1360281E4,1.7573723E4,9.543566E3,2.0999727E3,0E0,4.706309E4,8.334055E3,9.043089E4,7.298457E4,4.5643306E3,2.5724214E3,1.0196975E4,1.3151031E4,1.239559E4,3.7495078E3,0E0,9.953844E3,0E0,1.5341833E2,0E0,0E0,0E0,0E0,0E0,0E0,0E0,0E0,0E0,0E0,0E0,0E0,0E0,0E0,0E0,0E0,0E0,0E0,0E0,0E0,0E0,0E0,0E0,0E0],"parents":[2147483647,0,0,1,1,2,2,3,3,4,4,5,5,6,6,7,7,8,8,9,9,10,10,11,11,12,12,13,13,15,15,16,16,17,17,18,18,19,19,20,20,21,21,22,22,23,23,24,24,26,26,28,28],"right_children":[2,4,6,8,10,12,14,16,18,20,22,24,26,28,-1,30,32,34,36,38,40,42,44,46,48,-1,50,-1,52,-1,-1,-1,-1,-1,-1,-1,-1,-1,-1,-1,-1,-1,-1,-1,-1,-1,-1,-1,-1,-1,-1,-1,-1],"split_conditions":[1.4223015E0,1.790817E0,1.6165328E0,6.622083E-1,-5.147604E-1,2.2237582E0,-2.4401695E-1,2.457161E0,-1.1840151E-1,3.8923705E-1,7.9282475E-1,1.8181453E0,-1.5205855E0,3.374898E-1,2.273318E1,-1.5001714E0,-9.2576665E-1,-5.0678086E-1,-6.962226E-2,-8.5245645E-1,-1.0691891E0,-1.1776845E-1,-6.645144E-1,1.8725629E0,1.708405E0,-1.2408399E1,2.1023839E0,1.277901E1,1.9451015E0,2.12382E0,-1.3924243E0,3.2347248E0,1.0822806E1,2.5834785E0,-2.4877164E0,1.5651508E1,3.1046112E0,-3.2208972E0,2.4671998E0,1.2025727E0,6.769423E0,4.2359924E0,1.5733132E1,4.8496513E0,1.6814209E1,9.9996233E-1,4.237167E0,6.1725416E0,1.3817334E1,1.3440271E1,2.8622758E0,1.2433411E0,5.2942753E0],"split_indices":[2,5,5,4,2,3,1,3,7,1,7,4,5,7,0,7,6,7,7,2,3,4,6,2,2,0,2,0,5,0,0,0,0,0,0,0,0,0,0,0,0,0,0,0,0,0,0,0,0,0,0,0,0],"split_type":[0,0,0,0,0,0,0,0,0,0,0,0,0,0,0,0,0,0,0,0,0,0,0,0,0,0,0,0,0,0,0,0,0,0,0,0,0,0,0,0,0,0,0,0,0,0,0,0,0,0,0,0,0],"sum_hessian":[6.756E3,6.219E3,5.37E2,6.029E3,1.9E2,5.25E2,1.2E1,4.524E3,1.505E3,7.9E1,1.11E2,4.88E2,3.7E1,1E1,2E0,4.464E3,6E1,1.275E3,2.3E2,4.9E1,3E1,7.5E1,3.6E1,4.6E2,2.8E1,1E0,3.6E1,6E0,4E0,3.73E2,4.091E3,2.1E1,3.9E1,6.97E2,5.78E2,5.4E1,1.76E2,2.6E1,2.3E1,1.5E1,1.5E1,6.8E1,7E0,1.5E1,2.1E1,2.93E2,1.67E2,1.6E1,1.2E1,2.3E1,1.3E1,3E0,1E0],"tree_param":{"num_deleted":"0","num_feature":"8","num_nodes":"53","size_leaf_vector":"1"}},{"base_weights":[7.132522E-2,-3.2264113E0,2.2722397E0,-6.715898E0,2.170064E0,3.7238812E-1,1.1916204E1,2.157363E1,-7.9697423E0,3.8873372E0,-1.337067E1,1.08978E1,-2.1122212E0,2.8318783E1,5.226491E0,-2.084472E1,2.8990765E1,-5.6304626E1,-7.405839E0,-5.171483E0,8.54656E0,-2.074843E1,-4.023619E0,5.3637238E0,3.8776657E1,-1.4817615E1,1.0839376E0,1.8430254E1,5.780642E1,-1.3999302E1,1.0720296E1,-4.291832E1,-7.2023315E0,1.1717584E1,3.5547195E1,-3.1670858E1,-6.3342934E1,-6.9151273E0,-3.395524E1,4.6994933E-1,-2.0674614E1,2.537146E1,6.510094E0,-2.4662086E1,2.6451488E1,-8.59407E0,1.4203504E1,2.1499882E1,-2.1519055E0,1.2514681E1,4.9324112E1,-1.7909468E1,1.0782546E1,3.2573044E0,-1.627181E1,2.4497225E1,3.809157E0,3.1134926E1,7.2771484E1,-1.8713142E1,1.0085754E1,4.599826E1,4.546218E0],"categories":[],"categories_nodes":[],"categories_segments":[],"categories_sizes":[],"default_left":[1,1,1,1,1,1,1,1,1,1,1,1,1,1,1,1,1,1,1,1,1,1,1,1,1,1,1,1,1,1,1,0,0,0,0,0,0,0,0,0,0,0,0,0,0,0,0,0,0,0,0,0,0,0,0,0,0,0,0,0,0,0,0],"id":13,"left_children":[1,3,5,7,9,11,13,15,17,19,21,23,25,27,29,31,33,35,37,39,41,43,45,47,49,51,53,55,57,59,61,-1,-1,-1,-1,-1,-1,-1,-1,-1,-1,-1,-1,-1,-1,-1,-1,-1,-1,-1,-1,-1,-1,-1,-1,-1,-1,-1,-1,-1,-1,-1,-1],"loss_changes":[4.904988E4,5.0952242E4,7.425505E4,5.8450234E4,2.8420988E4,8.859827E4,7.3040945E4,2.2627895E4,4.248429E4,4.0478562E4,7.2263066E3,9.961356E4,1.11323836E5,5.5211344E4,5.0320883E4,3.003391E3,6.378504E3,1.1147148E3,2.0049953E4,2.8521629E4,2.1523516E4,1.1551082E4,4.1207627E3,6.5655164E4,2.9021406E4,4.380583E4,8.2698414E4,1.285773E4,1.6893031E4,1.2223242E4,8.038017E4,0E0,0E0,0E0,0E0,0E0,0E0,0E0,0E0,0E0,0E0,0E0,0E0,0E0,0E0,0E0,0E0,0E0,0E0,0E0,0E0,0E0,0E0,0E0,0E0,0E0,0E0,0E0,0E0,0E0,0E0,0E0,0E0],"parents":[2147483647,0,0,1,1,2,2,3,3,4,4,5,5,6,6,7,7,8,8,9,9,10,10,11,11,12,12,13,13,14,14,15,15,16,16,17,17,18,18,19,19,20,20,21,21,22,22,23,23,24,24,25,25,26,26,27,27,28,28,29,29,30,30],"right_children":[2,4,6,8,10,12,14,16,18,20,22,24,26,28,30,32,34,36,38,40,42,44,46,48,50,52,54,56,58,60,62,-1,-1,-1,-1,-1,-1,-1,-1,-1,-1,-1,-1,-1,-1,-1,-1,-1,-1,-1,-1,-1,-1,-1,-1,-1,-1,-1,-1,-1,-1,-1,-1],"split_conditions":[-2.992062E-1,1.0871695E0,4.0834028E-1,-1.6923208E0,1.6248543E0,-1.0231361E0,6.3869715E-1,-8.423488E-1,-1.7619221E0,-1.5116687E0,1.7155503E0,-1.1396129E0,2.8076386E-1,1.8511146E-1,6.891456E-1,-1.1558671E0,-7.1419436E-1,-7.4062765E-1,1.6273596E0,1.4219474E0,-1.2069811E0,7.754444E-1,-6.768726E-1,-1.402242E0,2.812649E-2,2.0538216E0,2.9557306E-1,1.505105E0,5.58944E-1,1.3863106E0,8.582965E-1,-1.2875497E1,-2.1606996E0,3.5152752E0,1.0664159E1,-9.501258E0,-1.900288E1,-2.0745382E0,-1.0186572E1,1.409848E-1,-6.2023845E0,7.6114383E0,1.9530283E0,-7.3986263E0,7.9354467E0,-2.5782213E0,4.261051E0,6.449965E0,-6.455717E-1,3.7544043E0,1.4797235E1,-5.3728404E0,3.2347639E0,9.771914E-1,-4.881543E0,7.349168E0,1.1427472E0,9.340478E0,2.1831446E1,-5.613943E0,3.0257266E0,1.3799479E1,1.3638654E0],"split_indices":[6,7,7,7,7,7,7,6,6,6,7,7,6,6,7,4,6,4,4,7,3,0,6,7,4,4,7,5,7,0,7,0,0,0,0,0,0,0,0,0,0,0,0,0,0,0,0,0,0,0,0,0,0,0,0,0,0,0,0,0,0,0,0],"split_type":[0,0,0,0,0,0,0,0,0,0,0,0,0,0,0,0,0,0,0,0,0,0,0,0,0,0,0,0,0,0,0,0,0,0,0,0,0,0,0,0,0,0,0,0,0,0,0,0,0,0,0,0,0,0,0,0,0,0,0,0,0,0,0],"sum_hessian":[6.756E3,2.704E3,4.052E3,1.642E3,1.062E3,3.386E3,6.66E2,6.9E1,1.573E3,9.57E2,1.05E2,6.46E2,2.74E3,1.92E2,4.74E2,1E1,5.9E1,1.7E1,1.556E3,3.25E2,6.32E2,5.8E1,4.7E1,5.4E2,1.06E2,5.5E2,2.19E3,1.45E2,4.7E1,1.05E2,3.69E2,3E0,7E0,1.7E1,4.2E1,5E0,1.2E1,1.529E3,2.7E1,2.39E2,8.6E1,6.7E1,5.65E2,5.4E1,4E0,3.8E1,9E0,1.71E2,3.69E2,3.1E1,7.5E1,4.91E2,5.9E1,1.947E3,2.43E2,1.02E2,4.3E1,1.8E1,2.9E1,8.8E1,1.7E1,5.4E1,3.15E2],"tree_param":{"num_deleted":"0","num_feature":"8","num_nodes":"63","size_leaf_vector":"1"}},{"base_weights":[5.507072E-2,-8.6987996E-1,6.3314586E0,-2.6937616E0,2.0650322E0,2.7393246E-1,1.45999775E1,2.419982E0,-6.792041E0,1.6908672E1,8.25292E-1,1.420891E1,-7.9732656E0,2.81836E1,1.3741204E0,1.4956192E0,3.3265804E1,-1.79227E1,-3.6479464E0,8.170989E0,5.13763E1,-5.284244E0,3.0395098E0,1.6278519E1,-2.0384687E1,-2.8540798E1,-1.1127268E0,1.3434073E1,4.6636948E1,-1.2074658E0,3.9122875E1,3.1230896E0,-1.0072164E1,4.7164757E1,1.5327689E1,-1.916105E1,2.1481E1,-7.7002707E0,6.682745E0,3.3082204E0,3.4102737E1,1.5478058E0,5.599935E1,-1.4029851E1,-5.080687E-1,3.9522579E0,-1.4985171E1,4.323191E0,2.0567574E1,-2.8296522E1,1.0145711E1,2.5517802E0,-3.775749E1,-2.1843185E1,4.5168805E0,7.942445E1,6.193881E0,6.523111E1,3.478476E1,4.2232E0,-3.7516815E1,1.2329926E1,4.6683865E1],"categories":[],"categories_nodes":[],"categories_segments":[],"categories_sizes":[],"default_left":[1,1,1,1,1,1,1,1,1,1,1,1,1,1,1,1,1,1,1,1,1,1,1,1,1,1,1,1,1,1,1,0,0,0,0,0,0,0,0,0,0,0,0,0,0,0,0,0,0,0,0,0,0,0,0,0,0,0,0,0,0,0,0],"id":14,"left_children":[1,3,5,7,9,11,13,15,17,19,21,23,25,27,29,31,33,35,37,39,41,43,45,47,49,51,53,55,57,59,61,-1,-1,-1,-1,-1,-1,-1,-1,-1,-1,-1,-1,-1,-1,-1,-1,-1,-1,-1,-1,-1,-1,-1,-1,-1,-1,-1,-1,-1,-1,-1,-1],"loss_changes":[3.9232254E4,3.1534336E4,4.347132E4,7.615521E4,4.1538344E4,5.7805402E4,6.589467E4,4.605533E4,7.052124E4,5.1983297E4,2.8221615E4,1.3720137E4,4.455722E4,4.863772E4,1.8270701E4,2.9607453E4,1.099516E4,2.2076844E4,6.594432E4,1.7541195E4,7.975922E3,2.317553E4,2.5247229E4,8.987121E3,2.9441543E3,2.2735438E4,2.7874299E4,4.8241914E4,1.5361469E4,3.4862812E4,1.8553652E3,0E0,0E0,0E0,0E0,0E0,0E0,0E0,0E0,0E0,0E0,0E0,0E0,0E0,0E0,0E0,0E0,0E0,0E0,0E0,0E0,0E0,0E0,0E0,0E0,0E0,0E0,0E0,0E0,0E0,0E0,0E0,0E0],"parents":[2147483647,0,0,1,1,2,2,3,3,4,4,5,5,6,6,7,7,8,8,9,9,10,10,11,11,12,12,13,13,14,14,15,15,16,16,17,17,18,18,19,19,20,20,21,21,22,22,23,23,24,24,25,25,26,26,27,27,28,28,29,29,30,30],"right_children":[2,4,6,8,10,12,14,16,18,20,22,24,26,28,30,32,34,36,38,40,42,44,46,48,50,52,54,56,58,60,62,-1,-1,-1,-1,-1,-1,-1,-1,-1,-1,-1,-1,-1,-1,-1,-1,-1,-1,-1,-1,-1,-1,-1,-1,-1,-1,-1,-1,-1,-1,-1,-1],"split_conditions":[1.243838E0,5.415095E-1,-1.2192549E-1,-8.7772584E-1,6.3869715E-1,-4.3277735E-1,1.7279026E-1,-9.020227E-1,-9.282434E-2,1.334542E-1,-1.4981437E0,1.3351405E0,7.183218E-1,8.8956706E-2,2.0010245E0,-1.010895E0,-8.877413E-1,2.222162E0,1.1672294E0,6.119891E-1,-1.2509465E0,1.1570926E0,1.6803105E0,1.3792837E0,2.2814057E0,-4.1181898E-1,-3.9568287E-1,-7.796852E-2,1.09358676E-1,3.5956103E-1,5.458429E-1,9.369269E-1,-3.0216491E0,1.4149427E1,4.598307E0,-5.7483153E0,6.4443007E0,-2.3100812E0,2.0048237E0,9.9246615E-1,1.0230822E1,4.6434176E-1,1.6799807E1,-4.2089553E0,-1.5242061E-1,1.1856774E0,-4.4955516E0,1.2969574E0,6.1702724E0,-8.488957E0,3.0437133E0,7.655341E-1,-1.1327247E1,-6.552956E0,1.3550642E0,2.3827337E1,1.8581644E0,1.9569334E1,1.0435429E1,1.26696E0,-1.1255045E1,3.6989777E0,1.400516E1],"split_indices":[6,7,7,7,7,7,7,7,6,6,2,3,4,7,6,7,7,4,4,7,0,7,7,6,3,7,7,7,7,7,0,0,0,0,0,0,0,0,0,0,0,0,0,0,0,0,0,0,0,0,0,0,0,0,0,0,0,0,0,0,0,0,0],"split_type":[0,0,0,0,0,0,0,0,0,0,0,0,0,0,0,0,0,0,0,0,0,0,0,0,0,0,0,0,0,0,0,0,0,0,0,0,0,0,0,0,0,0,0,0,0,0,0,0,0,0,0,0,0,0,0,0,0,0,0,0,0,0,0],"sum_hessian":[6.756E3,5.889E3,8.67E2,3.632E3,2.257E3,5.01E2,3.66E2,1.616E3,2.016E3,1.73E2,2.084E3,1.86E2,3.15E2,1.8E2,1.86E2,1.57E3,4.6E1,4.43E2,1.573E3,1.39E2,3.4E1,5.54E2,1.53E3,1.76E2,1E1,7.8E1,2.37E2,1.01E2,7.9E1,1.75E2,1.1E1,1.377E3,1.93E2,2.5E1,2.1E1,4.3E2,1.3E1,1.13E3,4.43E2,1.18E2,2.1E1,3E0,3.1E1,1.95E2,3.59E2,1.457E3,7.3E1,4.7E1,1.29E2,8E0,2E0,1.8E1,6E1,5E1,1.87E2,9E0,9.2E1,2.9E1,5E1,1.53E2,2.2E1,3E0,8E0],"tree_param":{"num_deleted":"0","num_feature":"8","num_nodes":"63","size_leaf_vector":"1"}},{"base_weights":[5.1502734E-2,-2.2564318E0,1.998061E0,-3.21908E-1,-2.5037718E1,2.5215733E1,9.313059E-1,-3.2045817E0,4.1036024E0,-4.875967E1,-2.145084E1,1.125579E1,4.188997E1,-3.6046857E-1,9.154913E0,-1.860235E-1,-1.4828899E1,1.7407995E1,1.7498449E0,-5.0030308E1,-5.3202515E0,-1.4091436E1,-3.8632736E1,3.2631385E0,2.0965208E1,5.7684883E1,2.8858364E1,-1.0959234E1,5.796591E-1,-1.6857955E0,1.4701072E1,-1.453121E0,1.667095E1,-3.2835564E1,-1.1286373E1,1.2544553E1,7.035722E1,-1.0132336E1,6.034396E0,-1.6626404E1,-5.1822502E1,-2.6466963E1,-5.776898E0,-4.5153534E1,-1.0079397E1,1.5605161E1,-7.8284054E0,1.3678488E0,2.372575E1,6.3681286E1,1.2568054E1,3.501119E1,1.2439669E1,-3.251997E1,-7.1265016E0,-5.534006E0,2.4137733E0,1.2494037E0,-3.053404E1,5.094649E1,9.544853E0],"categories":[],"categories_nodes":[],"categories_segments":[],"categories_sizes":[],"default_left":[1,1,1,1,1,1,1,1,1,1,1,1,1,1,1,1,1,1,1,1,0,1,1,1,1,1,1,1,1,1,1,0,0,0,0,0,0,0,0,0,0,0,0,0,0,0,0,0,0,0,0,0,0,0,0,0,0,0,0,0,0],"id":15,"left_children":[1,3,5,7,9,11,13,15,17,19,21,23,25,27,29,31,33,35,37,39,-1,41,43,45,47,49,51,53,55,57,59,-1,-1,-1,-1,-1,-1,-1,-1,-1,-1,-1,-1,-1,-1,-1,-1,-1,-1,-1,-1,-1,-1,-1,-1,-1,-1,-1,-1,-1,-1],"loss_changes":[3.0360525E4,1.362593E5,9.0774414E4,3.6384223E4,1.9545297E4,3.7004695E4,3.72477E4,6.059539E4,3.5199266E4,1.4448906E3,2.6262695E4,6.838343E3,1.3361117E4,3.020782E4,2.8643945E4,2.9329361E4,2.233832E4,4.2637535E4,4.8781832E4,9.343672E2,0E0,1.5281621E4,1.1274883E4,6.9667676E3,2.1315215E3,7.8568906E3,3.807371E3,2.017947E4,3.1242008E4,1.3755557E4,5.8383836E4,0E0,0E0,0E0,0E0,0E0,0E0,0E0,0E0,0E0,0E0,0E0,0E0,0E0,0E0,0E0,0E0,0E0,0E0,0E0,0E0,0E0,0E0,0E0,0E0,0E0,0E0,0E0,0E0,0E0,0E0],"parents":[2147483647,0,0,1,1,2,2,3,3,4,4,5,5,6,6,7,7,8,8,9,9,10,10,11,11,12,12,13,13,14,14,15,15,16,16,17,17,18,18,19,19,21,21,22,22,23,23,24,24,25,25,26,26,27,27,28,28,29,29,30,30],"right_children":[2,4,6,8,10,12,14,16,18,20,22,24,26,28,30,32,34,36,38,40,-1,42,44,46,48,50,52,54,56,58,60,-1,-1,-1,-1,-1,-1,-1,-1,-1,-1,-1,-1,-1,-1,-1,-1,-1,-1,-1,-1,-1,-1,-1,-1,-1,-1,-1,-1,-1,-1],"split_conditions":[-1.5382676E-1,-2.8310108E-1,-6.906584E-2,7.5198984E-1,3.7602982E-1,-1.030073E-1,3.2552773E-1,-8.7772584E-1,-1.0103385E0,-1.7218854E-1,-1.8480065E-1,2.6736552E-1,-2.69152E-1,-9.4059014E-1,7.634458E-2,1.7443635E0,1.8115684E-1,1.4136344E-1,2.7063018E-1,-5.944942E-1,-1.5960755E0,-2.5008696E-1,-1.5920547E-1,-1.3286838E-1,-1.4473861E-1,-7.759757E-2,1.375947E0,5.3520346E-1,4.3690306E-1,5.4458827E-2,1.11398876E-1,-4.359363E-1,5.001285E0,-9.85067E0,-3.3859122E0,3.763366E0,2.1107168E1,-3.0397007E0,1.810319E0,-4.987921E0,-1.5546751E1,-7.940089E0,-1.7330694E0,-1.3546061E1,-3.0238192E0,4.6815486E0,-2.3485217E0,4.1035464E-1,7.1177254E0,1.9104387E1,3.7704165E0,1.0503357E1,3.7319007E0,-9.755991E0,-2.1379507E0,-1.6602019E0,7.24132E-1,3.7482113E-1,-9.1602125E0,1.5283948E1,2.863456E0],"split_indices":[7,7,7,4,4,7,4,7,7,7,7,1,3,5,7,2,6,6,6,2,0,7,7,7,7,7,6,7,7,7,7,0,0,0,0,0,0,0,0,0,0,0,0,0,0,0,0,0,0,0,0,0,0,0,0,0,0,0,0,0,0],"split_type":[0,0,0,0,0,0,0,0,0,0,0,0,0,0,0,0,0,0,0,0,0,0,0,0,0,0,0,0,0,0,0,0,0,0,0,0,0,0,0,0,0,0,0,0,0,0,0,0,0,0,0,0,0,0,0,0,0,0,0,0,0],"sum_hessian":[6.756E3,3.091E3,3.665E3,2.85E3,2.41E2,1.6E2,3.505E3,1.726E3,1.124E3,3E1,2.11E2,8.8E1,7.2E1,3.03E3,4.75E2,1.371E3,3.55E2,1.68E2,9.56E2,2.9E1,1E0,1.49E2,6.2E1,4.9E1,3.9E1,3.1E1,4.1E1,2.46E2,2.784E3,1.61E2,3.14E2,1.276E3,9.5E1,5.7E1,2.98E2,1.55E2,1.3E1,2.53E2,7.03E2,2E0,2.7E1,5.9E1,9E1,5E1,1.2E1,2.3E1,2.6E1,5E0,3.4E1,2.7E1,4E0,2.9E1,1.2E1,3.6E1,2.1E2,6.42E2,2.142E3,1.47E2,1.4E1,3.8E1,2.76E2],"tree_param":{"num_deleted":"0","num_feature":"8","num_nodes":"61","size_leaf_vector":"1"}},{"base_weights":[3.754521E-2,-3.7621918E-1,9.038536E0,-2.6348E0,1.3562651E0,1.6032001E1,1.793286E0,1.119626E-2,-1.2568516E1,9.519844E0,-3.8192266E-1,9.935043E0,3.4548706E1,-1.7332003E0,2.1908922E1,-1.5420082E0,1.0456051E1,-1.7160036E1,8.558425E0,3.5787554E0,2.2350185E1,-6.3498907E0,9.576342E-1,3.3249395E0,2.6976095E1,3.8915672E1,1.0273768E1,-3.1314147E0,4.169519E1,2.940651E1,-2.985728E0,1.3493676E0,-8.159499E0,1.7335024E1,3.504467E0,-1.3608356E1,-3.0040627E1,3.2153664E1,4.0064526E0,1.7616446E1,-3.8167732E0,5.439974E1,2.0051786E1,-4.6683626E0,-4.3219055E1,-1.652028E0,5.6486073E0,2.0088583E1,1.296022E0,5.2299778E1,1.9120638E1,4.615278E1,2.683113E1,-1.0374329E1,1.5444173E1,-2.0644348E1,8.876832E-1,5.483663E0,-8.591339E0],"categories":[],"categories_nodes":[],"categories_segments":[],"categories_sizes":[],"default_left":[1,1,1,1,1,1,1,1,1,1,1,1,1,1,1,1,1,1,1,1,1,1,1,1,1,1,1,1,0,0,1,0,0,0,0,0,0,0,0,0,0,0,0,0,0,0,0,0,0,0,0,0,0,0,0,0,0,0,0],"id":16,"left_children":[1,3,5,7,9,11,13,15,17,19,21,23,25,27,29,31,33,35,37,39,41,43,45,47,49,51,53,55,-1,-1,57,-1,-1,-1,-1,-1,-1,-1,-1,-1,-1,-1,-1,-1,-1,-1,-1,-1,-1,-1,-1,-1,-1,-1,-1,-1,-1,-1,-1],"loss_changes":[2.5168426E4,2.5285178E4,1.5020064E4,7.3728375E4,5.189586E4,1.6703988E4,1.0465787E4,3.5966277E4,5.7379664E4,4.885724E4,2.4117291E4,1.2864265E4,3.5224805E3,7.781562E3,4.1940957E3,3.6938957E4,1.366352E4,2.1778844E4,1.1256094E4,4.574634E4,1.3862711E4,3.408232E4,3.0173262E4,2.8309766E3,5.3657266E3,1.4728398E3,9.075361E2,8.675827E3,0E0,0E0,3.319687E2,0E0,0E0,0E0,0E0,0E0,0E0,0E0,0E0,0E0,0E0,0E0,0E0,0E0,0E0,0E0,0E0,0E0,0E0,0E0,0E0,0E0,0E0,0E0,0E0,0E0,0E0,0E0,0E0],"parents":[2147483647,0,0,1,1,2,2,3,3,4,4,5,5,6,6,7,7,8,8,9,9,10,10,11,11,12,12,13,13,14,14,15,15,16,16,17,17,18,18,19,19,20,20,21,21,22,22,23,23,24,24,25,25,26,26,27,27,30,30],"right_children":[2,4,6,8,10,12,14,16,18,20,22,24,26,28,30,32,34,36,38,40,42,44,46,48,50,52,54,56,-1,-1,58,-1,-1,-1,-1,-1,-1,-1,-1,-1,-1,-1,-1,-1,-1,-1,-1,-1,-1,-1,-1,-1,-1,-1,-1,-1,-1,-1,-1],"split_conditions":[1.8854814E0,-1.5327033E-1,-5.442463E-1,-5.0715184E-1,1.7371762E-1,-5.9209824E-1,1.75349E0,8.176038E-1,2.1197867E0,7.560268E-2,4.3690306E-1,9.406915E-1,7.825664E-1,-1.0727317E-1,-2.9460037E-1,-1.0201687E0,-9.480293E-2,1.0344879E-1,-4.1682673E-1,-6.906584E-2,8.209422E-2,4.2614567E-1,-5.6157064E-1,-5.0948125E-1,-7.527174E-1,2.435393E0,5.100335E-1,2.3281409E-1,1.2508557E1,8.821953E0,-4.2943674E-1,4.048103E-1,-2.4478498E0,5.200507E0,1.0513401E0,-4.082507E0,-9.012188E0,9.646099E0,1.2019358E0,5.284934E0,-1.145032E0,1.6319921E1,6.0155363E0,-1.4005089E0,-1.2965717E1,-4.9560842E-1,1.6945822E0,6.026575E0,3.8880664E-1,1.5689934E1,5.7361917E0,1.3845834E1,8.049339E0,-3.1122987E0,4.633252E0,-6.1933045E0,2.6630497E-1,1.645099E0,-2.5774019E0],"split_indices":[4,7,7,7,7,7,6,6,6,7,7,6,3,7,7,7,3,3,7,7,7,7,6,0,7,4,0,6,0,0,0,0,0,0,0,0,0,0,0,0,0,0,0,0,0,0,0,0,0,0,0,0,0,0,0,0,0,0,0],"split_type":[0,0,0,0,0,0,0,0,0,0,0,0,0,0,0,0,0,0,0,0,0,0,0,0,0,0,0,0,0,0,0,0,0,0,0,0,0,0,0,0,0,0,0,0,0,0,0,0,0,0,0,0,0,0,0,0,0,0,0],"sum_hessian":[6.756E3,6.46E3,2.96E2,2.804E3,3.656E3,1.5E2,1.46E2,2.215E3,5.89E2,6.41E2,3.015E3,1.14E2,3.6E1,1.25E2,2.1E1,1.929E3,2.86E2,4.84E2,1.05E2,4.39E2,2.02E2,5.52E2,2.463E3,8.3E1,3.1E1,3E1,6E0,1.22E2,3E0,1.6E1,5E0,1.343E3,5.86E2,1.43E2,1.43E2,3.81E2,1.03E2,1.6E1,8.9E1,1.51E2,2.88E2,1.2E1,1.9E2,5.29E2,2.3E1,1.583E3,8.8E2,8E0,7.5E1,6E0,2.5E1,1.7E1,1.3E1,1E0,5E0,2.2E1,1E2,2E0,3E0],"tree_param":{"num_deleted":"0","num_feature":"8","num_nodes":"59","size_leaf_vector":"1"}},{"base_weights":[3.827644E-2,-1.7803966E0,1.7707603E0,1.447065E1,-2.1168373E0,2.0266155E1,1.265316E0,-1.727599E1,2.0343323E1,-5.5162144E0,7.325852E-2,-3.849578E1,2.481345E1,-6.572023E-1,3.9414804E0,-3.394104E1,-6.783966E0,1.6817337E1,6.2858307E1,-3.2136922E0,-1.1415887E1,-4.7751278E-1,1.8199968E1,-4.672931E1,5.4526978E0,1.905511E1,3.547449E1,2.6060028E0,-6.014474E0,3.0559824E1,2.8376632E0,-6.2283936E0,-4.110246E1,-1.4098267E1,4.054901E0,4.6765038E1,1.136204E1,-5.8402314E0,9.651664E0,-8.825422E0,-4.255837E1,1.650517E1,-9.5255154E-1,9.975372E0,3.4557014E1,2.7439377E1,-2.7798426E0,1.7273731E1,5.1310287E1,7.4275804E0,-4.0983534E0,-2.2313917E1,-3.4741654E0,1.5616073E1,4.6032146E1,1.7888376E0,1.720537E1],"categories":[],"categories_nodes":[],"categories_segments":[],"categories_sizes":[],"default_left":[1,1,1,1,1,1,1,1,1,1,1,1,1,1,1,1,1,1,0,1,1,1,1,0,0,1,1,1,1,1,1,0,0,0,0,0,0,0,0,0,0,0,0,0,0,0,0,0,0,0,0,0,0,0,0,0,0],"id":17,"left_children":[1,3,5,7,9,11,13,15,17,19,21,23,25,27,29,31,33,35,-1,37,39,41,43,-1,-1,45,47,49,51,53,55,-1,-1,-1,-1,-1,-1,-1,-1,-1,-1,-1,-1,-1,-1,-1,-1,-1,-1,-1,-1,-1,-1,-1,-1,-1,-1],"loss_changes":[2.1293252E4,1.8057021E4,3.2329137E4,1.2842772E4,2.4055074E4,2.553834E4,1.7341156E4,1.693096E3,7.4876035E3,1.716082E4,1.963659E4,2.7877578E3,4.6035586E3,3.4315113E4,4.1312223E4,5.378452E2,6.913969E2,8.290828E3,0E0,3.0874088E4,2.8263488E4,1.5416451E4,7.4580254E3,0E0,0E0,1.0694338E4,7.472164E3,3.946764E4,3.0686854E4,1.2229176E4,2.0372943E4,0E0,0E0,0E0,0E0,0E0,0E0,0E0,0E0,0E0,0E0,0E0,0E0,0E0,0E0,0E0,0E0,0E0,0E0,0E0,0E0,0E0,0E0,0E0,0E0,0E0,0E0],"parents":[2147483647,0,0,1,1,2,2,3,3,4,4,5,5,6,6,7,7,8,8,9,9,10,10,11,11,12,12,13,13,14,14,15,15,16,16,17,17,19,19,20,20,21,21,22,22,25,25,26,26,27,27,28,28,29,29,30,30],"right_children":[2,4,6,8,10,12,14,16,18,20,22,24,26,28,30,32,34,36,-1,38,40,42,44,-1,-1,46,48,50,52,54,56,-1,-1,-1,-1,-1,-1,-1,-1,-1,-1,-1,-1,-1,-1,-1,-1,-1,-1,-1,-1,-1,-1,-1,-1,-1,-1],"split_conditions":[-1.03081636E-1,-1.6984415E0,-1.4040967E0,-8.423488E-1,4.9477047E-1,-1.6528152E0,-1.0393466E-1,-1.1558671E0,-1.7002962E0,-8.558401E-1,2.4655972E0,1.2388601E0,8.297701E-1,-5.119741E-1,-7.7226624E-2,-8.380852E-1,-5.720216E-1,-1.3328896E-1,1.8857492E1,-1.1119776E0,9.372308E-1,5.2463156E-1,6.822543E-1,-1.4018793E1,1.6358094E0,5.405397E-1,-4.686429E-1,-1.4631063E-1,5.499815E-1,-8.909687E-2,1.6980016E0,-1.8685181E0,-1.2330738E1,-4.2294803E0,1.2164704E0,1.4029511E1,3.408612E0,-1.7520695E0,2.8954992E0,-2.6476269E0,-1.2767511E1,4.9515514E0,-2.8576547E-1,2.992612E0,1.0367105E1,8.231813E0,-8.3395284E-1,5.1821194E0,1.5393086E1,2.228274E0,-1.229506E0,-6.6941752E0,-1.0422497E0,4.684822E0,1.3809645E1,5.366513E-1,5.161611E0],"split_indices":[6,7,7,6,7,7,7,4,7,7,3,0,2,7,7,0,5,2,0,7,3,7,5,0,0,2,1,5,4,7,6,0,0,0,0,0,0,0,0,0,0,0,0,0,0,0,0,0,0,0,0,0,0,0,0,0,0],"split_type":[0,0,0,0,0,0,0,0,0,0,0,0,0,0,0,0,0,0,0,0,0,0,0,0,0,0,0,0,0,0,0,0,0,0,0,0,0,0,0,0,0,0,0,0,0,0,0,0,0,0,0,0,0,0,0,0,0],"sum_hessian":[6.756E3,3.296E3,3.46E3,6.6E1,3.23E3,9.1E1,3.369E3,1E1,5.6E1,1.265E3,1.965E3,6E0,8.5E1,1.961E3,1.408E3,3E0,7E0,5.3E1,3E0,9.11E2,3.54E2,1.908E3,5.7E1,5E0,1E0,5.7E1,2.8E1,1.219E3,7.42E2,5.5E1,1.353E3,1E0,2E0,4E0,3E0,7E0,4.6E1,7.57E2,1.54E2,3.28E2,2.6E1,5.1E1,1.857E3,3.9E1,1.8E1,4.1E1,1.6E1,1.4E1,1.4E1,7.09E2,5.1E2,9.9E1,6.43E2,2.9E1,2.6E1,1.262E3,9.1E1],"tree_param":{"num_deleted":"0","num_feature":"8","num_nodes":"57","size_leaf_vector":"1"}},{"base_weights":[3.5068594E-2,-2.5607157E-1,9.680747E0,-8.2967204E-1,4.978428E0,4.4221945E0,2.3272581E1,-7.4336076E0,-3.6455703E-1,3.2412514E1,4.1879497E0,6.77306E-1,1.448722E1,2.7508461E1,5.8016357E0,-3.932063E0,-1.3171306E1,-5.067199E-1,2.0176344E1,-9.692139E0,3.545938E1,-2.3044004E0,7.295078E0,2.3293197E0,-1.9851028E1,1.9896606E1,-1.30837755E1,4.2067043E1,1.2386841E1,1.4757758E1,-1.5800049E1,1.9605732E1,-5.902223E0,-2.5753344E1,-8.227055E0,-2.855129E-1,-1.2302328E1,1.3300011E1,3.8100075E1,6.0191345E0,4.133807E1,-8.821933E0,3.8659542E0,4.130051E0,1.3823118E1,9.620503E0,-1.4620371E0,-8.116724E0,-2.9556152E1,2.7569664E1,-3.6281738E0,-2.5295166E1,2.3985596E0,4.655128E1,-1.8502197E0,6.3888693E0,5.0243694E1,8.712158E-1,1.8600882E1,-3.0451721E1,-7.655843E-1],"categories":[],"categories_nodes":[],"categories_segments":[],"categories_sizes":[],"default_left":[1,1,1,1,1,1,1,1,1,1,1,1,1,1,1,1,1,1,1,0,1,1,1,1,1,1,1,1,1,1,1,0,0,0,0,0,0,0,0,0,0,0,0,0,0,0,0,0,0,0,0,0,0,0,0,0,0,0,0,0,0],"id":18,"left_children":[1,3,5,7,9,11,13,15,17,19,21,23,25,27,29,31,33,35,37,-1,39,41,43,45,47,49,51,53,55,57,59,-1,-1,-1,-1,-1,-1,-1,-1,-1,-1,-1,-1,-1,-1,-1,-1,-1,-1,-1,-1,-1,-1,-1,-1,-1,-1,-1,-1,-1,-1],"loss_changes":[1.8977785E4,1.9700607E4,1.40488125E4,1.81596E4,1.391682E4,5.4178926E3,3.91067E3,7.763533E3,1.6144067E4,2.6528516E3,1.2745698E4,3.641027E3,6.0768667E3,9.165492E3,2.5547812E3,1.1384412E4,8.932811E3,1.4316164E4,4.176751E3,0E0,2.6933691E3,8.278279E3,8.765338E3,2.7507695E3,6.7116406E2,6.056758E3,1.3840979E3,4.418711E3,4.901478E3,4.64104E2,8.5780676E2,0E0,0E0,0E0,0E0,0E0,0E0,0E0,0E0,0E0,0E0,0E0,0E0,0E0,0E0,0E0,0E0,0E0,0E0,0E0,0E0,0E0,0E0,0E0,0E0,0E0,0E0,0E0,0E0,0E0,0E0],"parents":[2147483647,0,0,1,1,2,2,3,3,4,4,5,5,6,6,7,7,8,8,9,9,10,10,11,11,12,12,13,13,14,14,15,15,16,16,17,17,18,18,20,20,21,21,22,22,23,23,24,24,25,25,26,26,27,27,28,28,29,29,30,30],"right_children":[2,4,6,8,10,12,14,16,18,20,22,24,26,28,30,32,34,36,38,-1,40,42,44,46,48,50,52,54,56,58,60,-1,-1,-1,-1,-1,-1,-1,-1,-1,-1,-1,-1,-1,-1,-1,-1,-1,-1,-1,-1,-1,-1,-1,-1,-1,-1,-1,-1,-1,-1],"split_conditions":[1.790817E0,1.4029057E0,7.6207645E-2,-1.2605877E0,-1.054852E0,2.454589E-1,1.263769E-1,4.0835413E-1,2.635728E0,-1.2460742E0,2.6840568E-1,5.5643413E-2,-4.417473E-2,1.1693478E0,6.218369E-1,-1.4775438E0,6.9033134E-1,1.679754E0,-1.3958223E0,-2.9076416E0,-2.2491512E0,-6.050813E-1,-8.8690504E-2,6.2311745E-1,-5.73787E-1,1.337372E0,-1.3217435E0,1.9679586E0,2.0108154E0,-6.6768014E-1,-3.409664E-1,5.8817196E0,-1.770667E0,-7.726003E0,-2.4681165E0,-8.565387E-2,-3.6906986E0,3.9900033E0,1.1430023E1,1.8057405E0,1.2401422E1,-2.64658E0,1.1597863E0,1.2390153E0,4.1469355E0,2.886151E0,-4.3861115E-1,-2.4350173E0,-8.866846E0,8.2709E0,-1.0884522E0,-7.58855E0,7.195679E-1,1.39653845E1,-5.5506593E-1,1.9166609E0,1.5073109E1,2.6136476E-1,5.5802646E0,-9.135517E0,-2.296753E-1],"split_indices":[5,4,2,5,7,3,1,1,3,7,6,3,2,0,2,7,1,7,1,0,5,7,1,7,1,7,1,5,5,4,0,0,0,0,0,0,0,0,0,0,0,0,0,0,0,0,0,0,0,0,0,0,0,0,0,0,0,0,0,0,0],"split_type":[0,0,0,0,0,0,0,0,0,0,0,0,0,0,0,0,0,0,0,0,0,0,0,0,0,0,0,0,0,0,0,0,0,0,0,0,0,0,0,0,0,0,0,0,0,0,0,0,0,0,0,0,0,0,0,0,0,0,0,0,0],"sum_hessian":[6.756E3,6.559E3,1.97E2,5.912E3,6.47E2,1.43E2,5.4E1,3.88E2,5.524E3,1.7E1,6.3E2,1.05E2,3.8E1,4.3E1,1.1E1,2.42E2,1.46E2,5.487E3,3.7E1,1E0,1.6E1,2.04E2,4.26E2,9.8E1,7E0,3.2E1,6E0,2.1E1,2.2E1,8E0,3E0,1.8E1,2.24E2,4E1,1.06E2,5.387E3,1E2,2.8E1,9E0,3E0,1.3E1,9.9E1,1.05E2,2.88E2,1.38E2,3.3E1,6.5E1,4E0,3E0,2.4E1,8E0,3E0,3E0,1.9E1,2E0,2E1,2E0,2E0,6E0,1E0,2E0],"tree_param":{"num_deleted":"0","num_feature":"8","num_nodes":"61","size_leaf_vector":"1"}},{"base_weights":[3.0345114E-2,3.1427357E-1,-9.27982E0,1.510783E-1,1.4418857E1,-1.2600019E1,2.4991085E1,-2.6198846E-1,5.073842E0,3.530275E1,1.066283E1,-1.763556E1,-1.9832387E0,-8.203662E0,3.5061275E1,7.699165E-1,-2.1788213E0,3.8771539E0,2.5983091E1,1.0650671E1,4.786813E1,2.895861E0,2.020473E1,-1.9736656E1,2.8283256E-1,-2.4942818E1,1.5197777E0,7.484904E0,-2.1157675E1,7.203949E0,4.2003822E1,1.5910194E1,4.3564978E-1,-6.8652635E0,1.879416E0,5.354567E0,-1.0049852E1,-1.6622965E1,3.0056494E1,1.5399658E1,-4.172638E0,-3.948214E0,1.7483368E1,3.716339E0,2.3484962E1,-1.3353943E1,-2.2876234E1,-1.6787607E1,1.16317005E1,-3.3435314E1,-8.091492E0,1.0547846E1,-1.0714565E1,1.2907135E1,-1.679779E0,6.307373E-1,9.184773E0,4.5981293E1,1.114563E0],"categories":[],"categories_nodes":[],"categories_segments":[],"categories_sizes":[],"default_left":[1,1,1,1,1,1,1,1,1,1,1,1,1,1,1,1,1,1,1,1,0,1,1,1,1,1,1,1,0,1,1,0,0,0,0,0,0,0,0,0,0,0,0,0,0,0,0,0,0,0,0,0,0,0,0,0,0,0,0],"id":19,"left_children":[1,3,5,7,9,11,13,15,17,19,21,23,25,27,29,31,33,35,37,39,-1,41,43,45,47,49,51,53,-1,55,57,-1,-1,-1,-1,-1,-1,-1,-1,-1,-1,-1,-1,-1,-1,-1,-1,-1,-1,-1,-1,-1,-1,-1,-1,-1,-1,-1,-1],"loss_changes":[1.7864508E4,1.5093032E4,2.3072137E4,1.318609E4,5.5066064E3,9.748432E3,6.304623E3,1.1835987E4,1.2460229E4,2.8975635E3,4.7587456E3,4.6739688E3,4.8635747E3,1.1745126E3,2.4050195E3,1.9679932E4,3.9838047E4,9.847962E3,5.1855215E3,4.1623578E2,0E0,3.7630337E3,1.48121E3,1.9188477E3,2.907491E3,8.743374E2,5.9669966E3,1.7076021E2,0E0,4.628833E1,1.7377441E3,0E0,0E0,0E0,0E0,0E0,0E0,0E0,0E0,0E0,0E0,0E0,0E0,0E0,0E0,0E0,0E0,0E0,0E0,0E0,0E0,0E0,0E0,0E0,0E0,0E0,0E0,0E0,0E0],"parents":[2147483647,0,0,1,1,2,2,3,3,4,4,5,5,6,6,7,7,8,8,9,9,10,10,11,11,12,12,13,13,14,14,15,15,16,16,17,17,18,18,19,19,21,21,22,22,23,23,24,24,25,25,26,26,27,27,29,29,30,30],"right_children":[2,4,6,8,10,12,14,16,18,20,22,24,26,28,30,32,34,36,38,40,-1,42,44,46,48,50,52,54,-1,56,58,-1,-1,-1,-1,-1,-1,-1,-1,-1,-1,-1,-1,-1,-1,-1,-1,-1,-1,-1,-1,-1,-1,-1,-1,-1,-1,-1,-1],"split_conditions":[2.1097763E0,2.2684557E0,-9.0127826E-1,1.4504428E0,-4.1682673E-1,-1.3436297E0,-7.752438E-1,1.8499915E-1,-4.2323977E-1,-5.7056785E-1,1.015723E0,1.2062428E0,-1.1421586E0,2.2913885E0,-1.3785181E0,-8.008026E-1,3.9647007E-1,-6.4308643E-1,-1.0268061E0,-8.570431E-1,1.4360439E1,9.993947E-1,-8.104776E-1,-8.9168206E-2,-1.6664994E0,-1.09918E0,-1.2604105E0,-3.325407E-1,-6.347303E0,-4.1626573E-1,3.752216E-1,4.7730584E0,1.3069494E-1,-2.0595791E0,5.6382483E-1,1.6063702E0,-3.0149558E0,-4.98689E0,9.016949E0,4.619898E0,-1.2517915E0,-1.1844642E0,5.2450104E0,1.1149018E0,7.045489E0,-4.006183E0,-6.8628707E0,-5.0362825E0,3.4895103E0,-1.0030595E1,-2.4274476E0,3.1643538E0,-3.2143698E0,3.8721406E0,-5.039337E-1,1.892212E-1,2.7554321E0,1.3794389E1,3.343689E-1],"split_indices":[1,6,0,2,7,0,6,3,1,0,4,7,6,1,3,1,7,1,4,0,0,5,3,5,4,7,3,0,0,2,0,0,0,0,0,0,0,0,0,0,0,0,0,0,0,0,0,0,0,0,0,0,0,0,0,0,0,0,0],"split_type":[0,0,0,0,0,0,0,0,0,0,0,0,0,0,0,0,0,0,0,0,0,0,0,0,0,0,0,0,0,0,0,0,0,0,0,0,0,0,0,0,0,0,0,0,0,0,0,0,0,0,0,0,0,0,0,0,0,0,0],"sum_hessian":[6.756E3,6.557E3,1.99E2,6.483E3,7.4E1,1.82E2,1.7E1,5.982E3,5.01E2,1E1,6.4E1,1.23E2,5.9E1,4E0,1.3E1,3.889E3,2.093E3,4.75E2,2.6E1,4E0,6E0,3.6E1,2.8E1,1.1E2,1.3E1,7E0,5.2E1,2E0,2E0,3E0,1E1,8.3E1,3.806E3,9.71E2,1.122E3,4.3E2,4.5E1,2E0,2.4E1,3E0,1E0,2.5E1,1.1E1,5E0,2.3E1,3.8E1,7.2E1,5E0,8E0,4E0,3E0,3E1,2.2E1,1E0,1E0,1E0,2E0,9E0,1E0],"tree_param":{"num_deleted":"0","num_feature":"8","num_nodes":"59","size_leaf_vector":"1"}},{"base_weights":[2.4961138E-2,-1.5596519E1,1.4374308E-1,-2.0985685E1,-6.898391E0,-9.1428286E-1,1.5785497E0,-2.2425192E1,1.1099731E1,3.6534424E0,-8.201397E0,-3.0013204E-1,-8.619206E0,-1.8257993E-1,5.7795115E0,-1.8837645E1,-4.1034836E1,-1.2893091E1,-2.689563E0,-1.659337E0,5.249094E0,-1.0501713E1,9.034572E0,3.201858E0,-6.5202723E0,8.966657E0,2.1581607E0,-1.9882656E1,4.166321E0,-5.207016E0,-1.5443263E1,5.0313354E0,-8.6753845E0,-3.3907237E0,1.9178008E0,3.6207876E0,3.8248272E1,-1.1795423E1,1.2888328E1,-3.148871E0,3.510505E1,1.5706466E0,1.3975793E1,-1.2533261E1,-6.58296E-1,5.5440793E0,1.3783797E1,7.323677E0,-7.5147476E0],"categories":[],"categories_nodes":[],"categories_segments":[],"categories_sizes":[],"default_left":[1,1,1,1,1,1,1,1,0,0,1,1,1,1,1,1,0,1,1,1,1,1,1,1,1,1,1,0,0,0,0,0,0,0,0,0,0,0,0,0,0,0,0,0,0,0,0,0,0],"id":20,"left_children":[1,3,5,7,9,11,13,15,-1,-1,17,19,21,23,25,27,-1,29,31,33,35,37,39,41,43,45,47,-1,-1,-1,-1,-1,-1,-1,-1,-1,-1,-1,-1,-1,-1,-1,-1,-1,-1,-1,-1,-1,-1],"loss_changes":[1.2540192E4,2.2458916E3,1.018309E4,1.6807139E3,3.1869446E2,1.8267605E4,2.1064408E4,1.2298906E3,0E0,0E0,4.5666028E2,2.6988361E4,9.566383E3,4.307008E4,9.687275E3,7.3190137E2,0E0,1.1559473E2,5.0580795E2,1.780636E4,3.7689383E4,7.959084E3,9.004129E3,2.2983156E4,2.4630098E4,7.293285E3,1.9791434E4,0E0,0E0,0E0,0E0,0E0,0E0,0E0,0E0,0E0,0E0,0E0,0E0,0E0,0E0,0E0,0E0,0E0,0E0,0E0,0E0,0E0,0E0],"parents":[2147483647,0,0,1,1,2,2,3,3,4,4,5,5,6,6,7,7,10,10,11,11,12,12,13,13,14,14,15,15,17,17,18,18,19,19,20,20,21,21,22,22,23,23,24,24,25,25,26,26],"right_children":[2,4,6,8,10,12,14,16,-1,-1,18,20,22,24,26,28,-1,30,32,34,36,38,40,42,44,46,48,-1,-1,-1,-1,-1,-1,-1,-1,-1,-1,-1,-1,-1,-1,-1,-1,-1,-1,-1,-1,-1,-1],"split_conditions":[-1.8798192E0,1.4332612E0,1.684101E-1,5.885328E-1,-1.9120111E0,1.5545602E0,-1.5586695E-1,-5.8912134E-1,3.3299196E0,1.0960327E0,-1.9355547E0,1.15802E0,6.2496364E-1,-5.0956297E-1,4.2683816E-1,-6.227894E-1,-1.23104515E1,-1.4446019E0,-1.7455801E-1,9.9653757E-1,-4.9940896E-1,1.724453E0,1.621252E-1,-5.8894515E-1,1.3628473E0,9.036169E-1,-1.1592481E0,-5.964797E0,1.2498963E0,-1.5621048E0,-4.632979E0,1.5094007E0,-2.6026154E0,-1.0172172E0,5.753403E-1,1.0862364E0,1.1474482E1,-3.538627E0,3.8664985E0,-9.446613E-1,1.0531515E1,4.71194E-1,4.192738E0,-3.7599785E0,-1.974888E-1,1.6632239E0,4.1351395E0,2.1971033E0,-2.2544243E0],"split_indices":[6,7,4,3,5,7,7,4,0,0,6,7,2,7,3,4,0,3,0,5,6,7,6,7,6,6,1,0,0,0,0,0,0,0,0,0,0,0,0,0,0,0,0,0,0,0,0,0,0],"split_type":[0,0,0,0,0,0,0,0,0,0,0,0,0,0,0,0,0,0,0,0,0,0,0,0,0,0,0,0,0,0,0,0,0,0,0,0,0,0,0,0,0,0,0,0,0,0,0,0,0],"sum_hessian":[6.756E3,5E1,6.706E3,3E1,2E1,3.86E3,2.846E3,2.9E1,1E0,2E0,1.8E1,3.576E3,2.84E2,2.006E3,8.4E2,2.6E1,3E0,9E0,9E0,2.873E3,7.03E2,2.57E2,2.7E1,1.308E3,6.98E2,4.46E2,3.94E2,2.5E1,1E0,3E0,6E0,4E0,5E0,1.936E3,9.37E2,6.71E2,3.2E1,2.44E2,1.3E1,1.9E1,8E0,1.137E3,1.71E2,3.44E2,3.54E2,2.62E2,1.84E2,2.57E2,1.37E2],"tree_param":{"num_deleted":"0","num_feature":"8","num_nodes":"49","size_leaf_vector":"1"}},{"base_weights":[1.8747503E-2,4.971823E0,-3.1699088E-1,1.603128E0,3.9591736E1,-8.7367725E-1,3.4083905E0,1.0343691E1,-3.080701E0,2.5038656E1,5.437079E1,-5.7801013E0,-3.4128922E-1,1.7509321E1,2.4736483E0,-2.3963394E0,2.9381487E1,-1.3459532E1,3.5496414E0,8.132487E0,2.9813553E1,6.3340885E1,2.587378E1,-4.5765276E0,-1.799631E1,-2.502461E0,7.60408E-1,-1.5981282E1,2.1497025E1,-2.2593832E1,3.2725093E0,-1.2572783E1,6.476497E0,2.1869116E1,6.1000244E1,-1.7305595E1,1.9231855E1,2.2827303E1,-4.5071343E-1,-3.1007488E0,1.4524292E1,7.716268E-1,3.3907284E1,6.618365E1,1.4613892E1,2.8086548E1,7.4049683E0,-5.6827126E0,9.593002E0,-2.9357256E1,-1.9914144E0,-1.1035677E0,-9.825646E0,1.3896191E1,4.163238E-1,-3.2090454E0,-1.789392E1,1.5089163E1,5.0048218E1,-2.9832594E1,4.0945535E0,2.1735258E0,1.5874595E1],"categories":[],"categories_nodes":[],"categories_segments":[],"categories_sizes":[],"default_left":[1,1,1,1,1,1,1,1,1,1,1,1,1,1,1,1,1,1,1,1,1,1,1,1,1,1,1,1,1,1,1,0,0,0,0,0,0,0,0,0,0,0,0,0,0,0,0,0,0,0,0,0,0,0,0,0,0,0,0,0,0,0,0],"id":21,"left_children":[1,3,5,7,9,11,13,15,17,19,21,23,25,27,29,31,33,35,37,39,41,43,45,47,49,51,53,55,57,59,61,-1,-1,-1,-1,-1,-1,-1,-1,-1,-1,-1,-1,-1,-1,-1,-1,-1,-1,-1,-1,-1,-1,-1,-1,-1,-1,-1,-1,-1,-1,-1,-1],"loss_changes":[1.1238045E4,4.99682E4,1.3128495E4,1.6080072E4,6.8116953E3,1.438298E4,1.08044375E4,3.3298676E4,1.7664469E4,1.4527725E3,2.9623047E3,7.8426133E3,1.1832877E4,7.154628E3,1.55536E4,7.575824E3,1.173023E4,1.2906135E4,1.2117732E4,4.7584012E2,1.8760723E3,8.335508E2,3.72229E1,7.7661816E3,8.669413E3,1.7179184E4,1.4873446E4,8.914966E1,7.6606113E3,4.7587314E3,1.0352611E4,0E0,0E0,0E0,0E0,0E0,0E0,0E0,0E0,0E0,0E0,0E0,0E0,0E0,0E0,0E0,0E0,0E0,0E0,0E0,0E0,0E0,0E0,0E0,0E0,0E0,0E0,0E0,0E0,0E0,0E0,0E0,0E0],"parents":[2147483647,0,0,1,1,2,2,3,3,4,4,5,5,6,6,7,7,8,8,9,9,10,10,11,11,12,12,13,13,14,14,15,15,16,16,17,17,18,18,19,19,20,20,21,21,22,22,23,23,24,24,25,25,26,26,27,27,28,28,29,29,30,30],"right_children":[2,4,6,8,10,12,14,16,18,20,22,24,26,28,30,32,34,36,38,40,42,44,46,48,50,52,54,56,58,60,62,-1,-1,-1,-1,-1,-1,-1,-1,-1,-1,-1,-1,-1,-1,-1,-1,-1,-1,-1,-1,-1,-1,-1,-1,-1,-1,-1,-1,-1,-1,-1,-1],"split_conditions":[-1.5061066E0,-1.5246538E0,1.21212E0,-2.9202378E-1,2.2777115E-1,-1.0148752E0,-1.027773E0,-7.7202E-1,3.9082804E-1,2.3630023E-1,9.119222E-1,1.180476E0,-1.5735073E-1,-1.3443745E0,-5.2956295E-1,-3.1695735E-1,-3.5012195E-1,-1.7388189E-1,4.034993E-2,5.9838575E-1,-1.2551594E0,1.2471999E0,-1.506663E0,8.923063E-1,6.261961E-2,-4.1181898E-1,-7.759757E-2,1.3273305E0,1.059591E0,5.7180786E-1,-1.1895794E-1,-3.771835E0,1.9429492E0,6.560735E0,1.8300074E1,-5.191679E0,5.769557E0,6.8481913E0,-1.3521403E-1,-9.3022466E-1,4.357288E0,2.3148803E-1,1.0172186E1,1.9855095E1,4.3841677E0,8.425964E0,2.2214906E0,-1.7048138E0,2.8779008E0,-8.807178E0,-5.974243E-1,-3.3107033E-1,-2.947694E0,4.1688576E0,1.24897145E-1,-9.6271366E-1,-5.3681765E0,4.526749E0,1.5014466E1,-8.949779E0,1.2283661E0,6.5205777E-1,4.7623787E0],"split_indices":[7,7,4,5,0,5,7,5,5,1,3,3,7,7,6,3,6,4,1,2,0,2,7,2,7,7,7,0,2,2,7,0,0,0,0,0,0,0,0,0,0,0,0,0,0,0,0,0,0,0,0,0,0,0,0,0,0,0,0,0,0,0,0],"split_type":[0,0,0,0,0,0,0,0,0,0,0,0,0,0,0,0,0,0,0,0,0,0,0,0,0,0,0,0,0,0,0,0,0,0,0,0,0,0,0,0,0,0,0,0,0,0,0,0,0,0,0,0,0,0,0,0,0,0,0,0,0,0,0],"sum_hessian":[6.756E3,4.28E2,6.328E3,3.91E2,3.7E1,5.506E3,8.22E2,1.36E2,2.55E2,2E1,1.7E1,5.38E2,4.968E3,5E1,7.72E2,8.2E1,5.4E1,9.9E1,1.56E2,5E0,1.5E1,1.2E1,5E0,4.91E2,4.7E1,1.677E3,3.291E3,5E0,4.5E1,2.3E1,7.49E2,3.8E1,4.4E1,4.5E1,9E0,8.9E1,1E1,2.6E1,1.3E2,2E0,3E0,2E0,1.3E1,1.1E1,1E0,4E0,1E0,4.56E2,3.5E1,2.7E1,2E1,1.409E3,2.68E2,8.3E1,3.208E3,1E0,4E0,3.8E1,7E0,1.8E1,5E0,6.9E2,5.9E1],"tree_param":{"num_deleted":"0","num_feature":"8","num_nodes":"63","size_leaf_vector":"1"}},{"base_weights":[2.537217E-2,-9.0104565E-2,1.384501E1,-1.84604E-1,1.3587567E1,1.7491636E1,4.3758452E-1,1.0541729E1,-2.9690212E-1,6.103949E1,8.857445E0,8.405628E0,2.9004507E1,-2.7951863E0,1.9615417E1,-3.2375205E0,1.9476902E1,-1.5236904E1,-1.8033431E-1,4.173828E1,6.2354946E0,5.735377E0,2.696576E1,4.3450012E1,2.3580349E1,-7.176062E0,1.2739461E1,5.2687416E0,-1.5018265E1,3.2879227E1,1.3019998E1,-2.3237358E1,1.2701019E1,1.7215925E1,-3.495151E-1,1.3556722E0,2.3435343E1,7.1003723E-1,1.403205E1,2.424596E1,6.7980957E0,-1.473587E1,-1.8310198E0],"categories":[],"categories_nodes":[],"categories_segments":[],"categories_sizes":[],"default_left":[1,1,1,1,1,1,1,1,1,0,1,1,1,1,0,1,1,1,1,0,1,1,0,0,1,1,0,0,0,0,0,0,0,0,0,0,0,0,0,0,0,0,0],"id":22,"left_children":[1,3,5,7,9,11,13,15,17,-1,19,21,23,25,-1,27,29,31,33,-1,35,37,-1,-1,39,41,-1,-1,-1,-1,-1,-1,-1,-1,-1,-1,-1,-1,-1,-1,-1,-1,-1],"loss_changes":[1.0784383E4,8.66506E3,2.730291E3,8.0218E3,9.784202E3,4.3588643E3,8.6079675E2,8.558334E3,1.147215E4,0E0,3.4468538E3,1.1339067E3,4.6417383E2,9.080834E2,0E0,2.88501E3,3.2064883E3,1.1694458E4,1.9251037E4,0E0,3.40945E3,9.9068317E2,0E0,0E0,1.3900391E1,3.7709332E2,0E0,0E0,0E0,0E0,0E0,0E0,0E0,0E0,0E0,0E0,0E0,0E0,0E0,0E0,0E0,0E0,0E0],"parents":[2147483647,0,0,1,1,2,2,3,3,4,4,5,5,6,6,7,7,8,8,10,10,11,11,12,12,13,13,15,15,16,16,17,17,18,18,20,20,21,21,24,24,25,25],"right_children":[2,4,6,8,10,12,14,16,18,-1,20,22,24,26,-1,28,30,32,34,-1,36,38,-1,-1,40,42,-1,-1,-1,-1,-1,-1,-1,-1,-1,-1,-1,-1,-1,-1,-1,-1,-1],"split_conditions":[2.3553338E0,2.4795506E0,5.283133E-2,-1.6971432E0,-1.0624564E0,-5.194272E-1,1.7549368E0,-7.1419436E-1,-1.6670966E0,1.8311848E1,2.4879763E0,9.6225214E-1,-4.1793954E-1,1.2570108E0,5.8846254E0,5.765408E-1,-7.488261E-2,9.8398143E-1,-1.6359372E0,1.2521485E1,2.3619094E0,9.7644365E-1,8.089728E0,1.3035005E1,3.877092E-2,2.6005206E0,3.8218384E0,1.5806226E0,-4.50548E0,9.863769E0,3.9059994E0,-6.9712076E0,3.8103058E0,5.1647778E0,-1.0485454E-1,4.0670168E-1,7.030603E0,2.1301118E-1,4.209615E0,7.2737885E0,2.0394287E0,-4.420761E0,-5.49306E-1],"split_indices":[6,0,3,7,7,3,0,6,7,0,0,5,7,4,0,5,5,0,7,0,2,4,0,0,3,6,0,0,0,0,0,0,0,0,0,0,0,0,0,0,0,0,0],"split_type":[0,0,0,0,0,0,0,0,0,0,0,0,0,0,0,0,0,0,0,0,0,0,0,0,0,0,0,0,0,0,0,0,0,0,0,0,0,0,0,0,0,0,0],"sum_hessian":[6.756E3,6.701E3,5.5E1,6.656E3,4.5E1,4.3E1,1.2E1,6.8E1,6.588E3,3E0,4.2E1,2.5E1,1.8E1,1.1E1,1E0,2.7E1,4.1E1,5E1,6.538E3,2E0,4E1,2.3E1,2E0,3E0,1.5E1,9E0,2E0,1.6E1,1.1E1,1.2E1,2.9E1,3.9E1,1.1E1,6.2E1,6.476E3,3.2E1,8E0,1.5E1,8E0,1.4E1,1E0,3E0,6E0],"tree_param":{"num_deleted":"0","num_feature":"8","num_nodes":"43","size_leaf_vector":"1"}},{"base_weights":[3.1173872E-2,-4.932204E0,2.649569E-1,-6.2629423E0,1.159825E1,-2.3585567E-4,6.7916465E0,-1.6327042E1,-4.9094296E0,2.923152E1,-1.0295455E1,1.7918974E0,-7.901729E-1,-1.4211274E0,1.2204137E1,-1.9239063E1,-1.6428629E-2,-9.571302E0,-1.1781629E0,3.7024593E1,-9.086914E0,-1.2000732E0,-2.0969898E1,2.4972098E0,-5.210721E0,-2.7909273E-2,-6.094969E0,-8.465274E0,8.277146E0,9.203363E0,2.197234E1,-2.0765074E1,-4.891739E0,7.2341514E0,-5.4502563E0,-2.6444372E1,-6.451161E0,-9.9594145E0,2.4339318E0,4.7831158E1,1.44904785E1,-1.1483948E1,-2.1464233E0,-1.1141174E1,9.041046E0,4.0392456E0,-2.8231995E1,6.266135E0,5.2239054E-1,-9.198271E0,1.0330394E1,3.9823596E0,-7.8314674E-1,-3.668941E1,-5.2125936E0,-1.2231154E1,2.4199753E0,5.435185E0,4.4358234E1,2.002544E0,1.4287967E1,4.9825043E1,1.3229697E1],"categories":[],"categories_nodes":[],"categories_segments":[],"categories_sizes":[],"default_left":[1,1,1,1,1,1,1,1,1,1,1,1,1,1,1,1,1,1,1,1,1,1,1,1,1,1,1,1,1,1,1,0,0,0,0,0,0,0,0,0,0,0,0,0,0,0,0,0,0,0,0,0,0,0,0,0,0,0,0,0,0,0,0],"id":23,"left_children":[1,3,5,7,9,11,13,15,17,19,21,23,25,27,29,31,33,35,37,39,41,43,45,47,49,51,53,55,57,59,61,-1,-1,-1,-1,-1,-1,-1,-1,-1,-1,-1,-1,-1,-1,-1,-1,-1,-1,-1,-1,-1,-1,-1,-1,-1,-1,-1,-1,-1,-1,-1,-1],"loss_changes":[7.8418164E3,6.7599424E3,1.1170783E4,3.7612168E3,9.180277E3,8.782832E3,1.1219138E4,1.5670801E3,4.3373955E3,4.2184766E3,1.0428042E3,9.387297E3,1.7411799E4,6.9699907E3,4.2532266E3,5.1145898E2,2.758184E2,5.6731504E3,4.4648604E3,1.985585E3,2.526036E1,8.1338385E2,1.0221301E3,1.2835809E4,1.0877971E4,1.1409223E4,1.4413463E4,2.4481592E3,4.16817E3,4.291758E3,7.863549E3,0E0,0E0,0E0,0E0,0E0,0E0,0E0,0E0,0E0,0E0,0E0,0E0,0E0,0E0,0E0,0E0,0E0,0E0,0E0,0E0,0E0,0E0,0E0,0E0,0E0,0E0,0E0,0E0,0E0,0E0,0E0,0E0],"parents":[2147483647,0,0,1,1,2,2,3,3,4,4,5,5,6,6,7,7,8,8,9,9,10,10,11,11,12,12,13,13,14,14,15,15,16,16,17,17,18,18,19,19,20,20,21,21,22,22,23,23,24,24,25,25,26,26,27,27,28,28,29,29,30,30],"right_children":[2,4,6,8,10,12,14,16,18,20,22,24,26,28,30,32,34,36,38,40,42,44,46,48,50,52,54,56,58,60,62,-1,-1,-1,-1,-1,-1,-1,-1,-1,-1,-1,-1,-1,-1,-1,-1,-1,-1,-1,-1,-1,-1,-1,-1,-1,-1,-1,-1,-1,-1,-1,-1],"split_conditions":[-1.5823293E0,5.774394E-1,1.6993892E0,-1.6119208E0,-1.6328313E0,-5.684614E-1,-4.0063167E-1,1.6225839E-1,3.0082044E-1,1.076537E0,1.3378626E0,2.0882695E0,3.9401633E-1,1.8593879E0,7.9393756E-1,1.4291807E0,1.3627816E0,-8.970654E-1,-1.7731149E0,1.2177958E0,1.1693478E0,7.628057E-1,-1.6768393E-1,-1.1282427E0,-1.137199E0,-3.0992717E-1,-1.2772831E0,5.947459E-1,4.1313747E-1,-6.6206884E-1,8.568127E-1,-6.229522E0,-1.4675217E0,2.1702454E0,-1.635077E0,-7.933312E0,-1.9353484E0,-2.9878244E0,7.3017955E-1,1.4349348E1,4.3471437E0,-3.4451845E0,-6.4392704E-1,-3.3423524E0,2.712314E0,1.2117738E0,-8.469599E0,1.8798406E0,1.5671717E-1,-2.7594814E0,3.0991182E0,1.194708E0,-2.3494403E-1,-1.1006824E1,-1.5637782E0,-3.6693466E0,7.259926E-1,1.6305555E0,1.3307471E1,6.007632E-1,4.2863903E0,1.4947514E1,3.9689093E0],"split_indices":[4,0,5,3,4,0,2,5,1,5,0,1,1,5,7,7,7,0,4,0,0,0,2,3,0,3,3,1,0,4,7,0,0,0,0,0,0,0,0,0,0,0,0,0,0,0,0,0,0,0,0,0,0,0,0,0,0,0,0,0,0,0,0],"split_type":[0,0,0,0,0,0,0,0,0,0,0,0,0,0,0,0,0,0,0,0,0,0,0,0,0,0,0,0,0,0,0,0,0,0,0,0,0,0,0,0,0,0,0,0,0,0,0,0,0,0,0,0,0,0,0,0,0,0,0,0,0,0,0],"sum_hessian":[6.756E3,3.03E2,6.453E3,2.81E2,2.2E1,6.202E3,2.51E2,3.2E1,2.49E2,1.2E1,1E1,1.897E3,4.305E3,1E2,1.51E2,2.7E1,5E0,1.1E2,1.39E2,1E1,2E0,6E0,4E0,1.724E3,1.73E2,3.765E3,5.4E2,5.8E1,4.2E1,1.17E2,3.4E1,2.4E1,3E0,2E0,3E0,1.6E1,9.4E1,4E1,9.9E1,6E0,4E0,1E0,1E0,3E0,3E0,1E0,3E0,5.92E2,1.132E3,1.38E2,3.5E1,5.96E2,3.169E3,1.4E1,5.26E2,4.3E1,1.5E1,4E1,2E0,4.9E1,6.8E1,7E0,2.7E1],"tree_param":{"num_deleted":"0","num_feature":"8","num_nodes":"63","size_leaf_vector":"1"}},{"base_weights":[2.3906758E-2,2.3360984E0,-5.575711E-1,3.03751E-1,1.6927994E1,-2.6622765E0,4.293938E-1,2.6999664E0,-7.9371524E0,3.1643993E1,2.8707383E0,-1.6191257E0,-1.6468489E1,4.06986E0,-5.5378085E-1,1.486248E-1,1.2067021E1,-3.454766E1,-1.2477798E0,3.364363E1,-1.5259979E1,-1.0181087E1,1.3917595E1,-1.2543818E1,-2.2073276E-1,-8.404506E0,-4.871023E1,3.3298604E0,3.5293728E1,-1.0023292E1,6.679502E-1,3.231702E0,-2.3211967E1,3.1105398E1,6.584727E0,-7.493275E1,-2.3666214E1,-5.530964E0,2.1060429E1,1.4236672E1,3.7306E1,-2.3682169E1,5.003296E0,-2.6819849E1,-2.9450095E0,3.715763E1,2.9321973E0,-6.8715577E0,-1.8936028E1,-1.3141956E0,9.5760975E0,-6.2462E-1,-2.7831913E1,-3.6447876E1,-6.5097725E1,-1.1968489E0,8.561262E0,5.1512238E1,1.3351637E1,-2.055068E1,-1.2918004E0,-1.0214278E0,4.026262E0],"categories":[],"categories_nodes":[],"categories_segments":[],"categories_sizes":[],"default_left":[1,1,1,1,1,1,1,1,1,1,1,1,1,1,1,1,1,1,1,1,1,1,1,1,1,1,1,1,1,1,1,0,0,0,0,0,0,0,0,0,0,0,0,0,0,0,0,0,0,0,0,0,0,0,0,0,0,0,0,0,0,0,0],"id":24,"left_children":[1,3,5,7,9,11,13,15,17,19,21,23,25,27,29,31,33,35,37,39,41,43,45,47,49,51,53,55,57,59,61,-1,-1,-1,-1,-1,-1,-1,-1,-1,-1,-1,-1,-1,-1,-1,-1,-1,-1,-1,-1,-1,-1,-1,-1,-1,-1,-1,-1,-1,-1,-1,-1],"loss_changes":[9.08601E3,4.0267434E4,1.1218403E4,2.3579576E4,3.4249E4,2.480232E4,1.3163023E4,2.2104371E4,4.7840938E4,8.1104844E3,1.2541316E4,2.4501559E4,3.1050234E4,1.795109E4,3.3511086E4,5.2507402E4,2.0461229E4,2.195682E4,2.0755318E4,5.0127656E3,8.0113354E2,4.7369907E3,1.1890194E4,6.4688867E3,1.5256429E4,1.4794633E4,2.4501055E3,1.8126238E4,5.7178516E3,3.0398906E4,1.4562204E4,0E0,0E0,0E0,0E0,0E0,0E0,0E0,0E0,0E0,0E0,0E0,0E0,0E0,0E0,0E0,0E0,0E0,0E0,0E0,0E0,0E0,0E0,0E0,0E0,0E0,0E0,0E0,0E0,0E0,0E0,0E0,0E0],"parents":[2147483647,0,0,1,1,2,2,3,3,4,4,5,5,6,6,7,7,8,8,9,9,10,10,11,11,12,12,13,13,14,14,15,15,16,16,17,17,18,18,19,19,20,20,21,21,22,22,23,23,24,24,25,25,26,26,27,27,28,28,29,29,30,30],"right_children":[2,4,6,8,10,12,14,16,18,20,22,24,26,28,30,32,34,36,38,40,42,44,46,48,50,52,54,56,58,60,62,-1,-1,-1,-1,-1,-1,-1,-1,-1,-1,-1,-1,-1,-1,-1,-1,-1,-1,-1,-1,-1,-1,-1,-1,-1,-1,-1,-1,-1,-1,-1,-1],"split_conditions":[-1.0223943E0,-1.1121631E0,-1.5864904E-1,-1.2486708E0,-1.0709882E0,1.0736169E0,2.3065767E-1,-1.3443745E0,-1.2175114E0,1.5601069E0,-1.0465057E0,2.9185966E-1,-8.677124E-1,2.230533E-1,3.8905114E-1,-1.3864768E0,-1.324158E0,-1.6030008E-1,3.940834E-2,-1.9113505E-1,1.9950705E0,-1.0659804E0,-1.0394578E0,-8.7605655E-1,9.0604335E-1,-5.383112E-1,-6.8132067E-1,9.418037E-1,2.2694822E-1,1.2101002E0,-4.6752477E-1,9.695107E-1,-6.9635906E0,9.33162E0,1.9754181E0,-2.2479824E1,-7.0998645E0,-1.6592892E0,6.318129E0,4.271002E0,1.11918E1,-7.104651E0,1.5009888E0,-8.045955E0,-8.835029E-1,1.1147289E1,8.7965924E-1,-2.0614674E0,-5.6808085E0,-3.942587E-1,2.8728294E0,-1.87386E-1,-8.349574E0,-1.0934363E1,-1.9529318E1,-3.5905468E-1,2.5683787E0,1.5453671E1,4.0054913E0,-6.1652045E0,-3.8754013E-1,-3.0642834E-1,1.2078786E0],"split_indices":[7,7,7,7,7,3,7,7,7,3,7,4,1,7,7,7,7,6,6,2,0,7,7,7,0,7,1,6,7,6,6,0,0,0,0,0,0,0,0,0,0,0,0,0,0,0,0,0,0,0,0,0,0,0,0,0,0,0,0,0,0,0,0],"split_type":[0,0,0,0,0,0,0,0,0,0,0,0,0,0,0,0,0,0,0,0,0,0,0,0,0,0,0,0,0,0,0,0,0,0,0,0,0,0,0,0,0,0,0,0,0,0,0,0,0,0,0,0,0,0,0,0,0,0,0,0,0,0,0],"sum_hessian":[6.756E3,1.357E3,5.399E3,1.192E3,1.65E2,1.723E3,3.676E3,9.24E2,2.68E2,8E1,8.5E1,1.603E3,1.2E2,7.81E2,2.895E3,7.27E2,1.97E2,5.3E1,2.15E2,7.7E1,3E0,3.9E1,4.6E1,1.81E2,1.422E3,9.7E1,2.3E1,7.64E2,1.7E1,3.3E2,2.565E3,6.43E2,8.4E1,4.3E1,1.54E2,1E1,4.3E1,1.81E2,3.4E1,1.3E1,6.4E1,2E0,1E0,1.1E1,2.8E1,1.4E1,3.2E1,9.7E1,8.4E1,1.28E3,1.42E2,7E1,2.7E1,1.5E1,8E0,4.1E2,3.54E2,9E0,8E0,1.49E2,1.81E2,1.707E3,8.58E2],"tree_param":{"num_deleted":"0","num_feature":"8","num_nodes":"63","size_leaf_vector":"1"}},{"base_weights":[1.157791E-2,1.6120903E-1,-7.9285407E0,1.4887434E-2,8.10269E0,-1.4694574E1,1.5403086E0,-4.367418E-1,2.4764757E0,6.999544E0,3.8344025E1,-1.8321672E1,5.51652E-1,-1.5451253E1,4.904392E0,3.8973313E-2,-7.4864597E0,1.0584199E1,-1.782897E0,8.071165E0,-5.8654236E1,-2.0118006E1,5.1023192E0,1.7646744E1,-1.6612396E1,-1.8430824E1,4.1926575E0,-1.58623905E1,7.317307E0,-3.00661E-1,1.2395966E1,-2.3586786E1,-2.0293138E0,7.5232215E0,3.4643654E1,-4.696624E0,9.037402E0,-8.2933134E-1,1.1619908E1,-1.2915486E1,-2.3864716E1,-7.815511E0,1.6319376E1,8.527699E0,3.0002584E1,-2.0563028E1,-3.1736653E0,-2.2021402E1,-5.1060586E0,-6.3277793E0,-2.0109537E1,2.3461163E0,1.493816E1],"categories":[],"categories_nodes":[],"categories_segments":[],"categories_sizes":[],"default_left":[1,1,1,1,1,1,1,1,1,1,0,1,1,1,1,1,1,1,1,1,0,1,1,1,1,1,0,1,1,0,0,0,0,0,0,0,0,0,0,0,0,0,0,0,0,0,0,0,0,0,0,0,0],"id":25,"left_children":[1,3,5,7,9,11,13,15,17,19,-1,21,23,25,27,29,31,33,35,37,-1,39,41,43,45,47,-1,49,51,-1,-1,-1,-1,-1,-1,-1,-1,-1,-1,-1,-1,-1,-1,-1,-1,-1,-1,-1,-1,-1,-1,-1,-1],"loss_changes":[8.029195E3,7.7074927E3,8.030953E3,7.2428594E3,3.7348809E3,4.0469766E3,3.1053135E3,1.8462174E4,3.489802E4,8.705055E3,0E0,2.585205E3,4.694469E3,6.040481E2,2.3709517E3,2.1651123E4,3.0528055E4,2.5367984E4,2.094511E4,3.6735635E3,0E0,1.1759941E3,8.5204443E2,6.4553467E2,3.5947192E2,2.703064E2,0E0,7.522571E1,1.5182266E3,0E0,0E0,0E0,0E0,0E0,0E0,0E0,0E0,0E0,0E0,0E0,0E0,0E0,0E0,0E0,0E0,0E0,0E0,0E0,0E0,0E0,0E0,0E0,0E0],"parents":[2147483647,0,0,1,1,2,2,3,3,4,4,5,5,6,6,7,7,8,8,9,9,11,11,12,12,13,13,14,14,15,15,16,16,17,17,18,18,19,19,21,21,22,22,23,23,24,24,25,25,27,27,28,28],"right_children":[2,4,6,8,10,12,14,16,18,20,-1,22,24,26,28,30,32,34,36,38,-1,40,42,44,46,48,-1,50,52,-1,-1,-1,-1,-1,-1,-1,-1,-1,-1,-1,-1,-1,-1,-1,-1,-1,-1,-1,-1,-1,-1,-1,-1],"split_conditions":[1.679754E0,2.0539184E0,3.1276864E-1,1.15802E0,2.6198716E0,1.7281624E0,-1.3118366E0,9.8645794E-1,1.359814E0,2.6089277E0,1.1503208E1,6.484148E-1,1.7316864E0,-1.2997798E0,-9.25802E-1,9.009552E-1,1.0259637E0,1.3434925E0,-2.131613E-1,1.3474202E-1,-1.7596272E1,-7.20491E-1,1.6819798E0,1.6903799E-2,-9.178948E-1,-2.24384E-1,1.2577972E0,-1.0324175E0,1.7179614E0,-9.01983E-2,3.7187898E0,-7.076036E0,-6.0879415E-1,2.2569666E0,1.0393097E1,-1.4089872E0,2.7112207E0,-2.4879941E-1,3.4859726E0,-3.874646E0,-7.159415E0,-2.3446534E0,4.895813E0,2.55831E0,9.000775E0,-6.1689086E0,-9.520996E-1,-6.606421E0,-1.5318177E0,-1.8983339E0,-6.032861E0,7.038349E-1,4.481448E0],"split_indices":[7,2,1,7,2,7,6,7,7,2,0,2,7,3,4,7,7,7,4,4,0,3,7,4,1,4,0,4,7,0,0,0,0,0,0,0,0,0,0,0,0,0,0,0,0,0,0,0,0,0,0,0,0],"split_type":[0,0,0,0,0,0,0,0,0,0,0,0,0,0,0,0,0,0,0,0,0,0,0,0,0,0,0,0,0,0,0,0,0,0,0,0,0,0,0,0,0,0,0,0,0,0,0,0,0,0,0,0,0],"sum_hessian":[6.756E3,6.632E3,1.24E2,6.513E3,1.19E2,7.2E1,5.2E1,5.504E3,1.009E3,1.16E2,3E0,5.8E1,1.4E1,8E0,4.4E1,5.157E3,3.47E2,3.47E2,6.62E2,1.15E2,1E0,5.4E1,4E0,7E0,7E0,7E0,1E0,4E0,4E1,5.02E3,1.37E2,8.7E1,2.6E2,3.09E2,3.8E1,5.22E2,1.4E2,3.3E1,8.2E1,2E1,3.4E1,2E0,2E0,5E0,2E0,5E0,2E0,5E0,2E0,2E0,2E0,2.5E1,1.5E1],"tree_param":{"num_deleted":"0","num_feature":"8","num_nodes":"53","size_leaf_vector":"1"}},{"base_weights":[7.130608E-3,-1.4270115E-1,6.652976E0,-2.8085697E-1,6.744933E0,2.032993E1,4.3749213E0,1.6789774E0,-8.022505E-1,1.1121523E1,1.2896894E0,3.3076172E0,2.4140614E1,-9.609368E0,9.684065E0,2.4304159E-1,1.1745992E1,-3.2463868E0,2.0501415E-1,6.085541E0,1.7585707E1,-3.1602755E0,1.2469619E1,-3.0379639E0,8.550659E0,2.744295E1,-4.1792807E-1,-5.523173E-1,-2.5590895E1,1.302189E1,4.1900682E0,1.9283329E0,-5.8119783E0,2.2319437E1,2.0993795E0,-1.459578E1,-2.421756E0,8.57787E0,-9.1428645E-2,1.126491E1,-9.5349455E0,1.0904672E1,3.0525415E1,-7.4183226E0,1.3749939E1,3.9588646E1,1.0800217E0,6.143799E-1,-5.1713257E0,1.0735515E1,2.9187513E1,3.4597473E0,-4.0866394E0,5.841853E0,-7.433309E0,-3.4579712E1,-4.2928467E0,1.0448336E1,3.0279446E1,2.551529E1,1.5579816E0],"categories":[],"categories_nodes":[],"categories_segments":[],"categories_sizes":[],"default_left":[1,1,1,1,1,1,1,1,1,1,1,1,1,1,1,1,1,1,1,1,1,1,1,1,0,1,1,1,1,1,1,0,0,0,0,0,0,0,0,0,0,0,0,0,0,0,0,0,0,0,0,0,0,0,0,0,0,0,0,0,0],"id":26,"left_children":[1,3,5,7,9,11,13,15,17,19,21,23,25,27,29,31,33,35,37,39,41,43,45,47,-1,49,51,53,55,57,59,-1,-1,-1,-1,-1,-1,-1,-1,-1,-1,-1,-1,-1,-1,-1,-1,-1,-1,-1,-1,-1,-1,-1,-1,-1,-1,-1,-1,-1,-1],"loss_changes":[6.7292905E3,6.2907993E3,4.5534272E3,6.6229023E3,3.0894546E3,1.2823525E3,9.670611E3,1.9685652E4,1.2603091E4,2.236834E3,2.9746746E3,1.9232732E2,1.3901787E3,5.196704E3,1.66921E3,1.2185144E4,1.7292791E4,1.3947087E4,9.000781E3,3.5053892E3,2.3471006E3,3.1981948E3,5.2081147E3,2.655247E1,0E0,1.23865234E2,5.681696E1,1.099382E3,2.34033E3,2.2595967E3,2.0370513E3,0E0,0E0,0E0,0E0,0E0,0E0,0E0,0E0,0E0,0E0,0E0,0E0,0E0,0E0,0E0,0E0,0E0,0E0,0E0,0E0,0E0,0E0,0E0,0E0,0E0,0E0,0E0,0E0,0E0,0E0],"parents":[2147483647,0,0,1,1,2,2,3,3,4,4,5,5,6,6,7,7,8,8,9,9,10,10,11,11,12,12,13,13,14,14,15,15,16,16,17,17,18,18,19,19,20,20,21,21,22,22,23,23,25,25,26,26,27,27,28,28,29,29,30,30],"right_children":[2,4,6,8,10,12,14,16,18,20,22,24,26,28,30,32,34,36,38,40,42,44,46,48,-1,50,52,54,56,58,60,-1,-1,-1,-1,-1,-1,-1,-1,-1,-1,-1,-1,-1,-1,-1,-1,-1,-1,-1,-1,-1,-1,-1,-1,-1,-1,-1,-1,-1,-1],"split_conditions":[2.0646691E0,2.188494E0,-4.1682673E-1,-1.0201687E0,-5.4739934E-1,-7.57789E-1,-3.7472445E-1,-1.1121631E0,-1.4510955E-1,-6.67771E-1,-3.159297E-1,2.1884983E0,2.514631E0,-1.7245159E-1,6.27969E-1,-1.2438484E0,-1.0709882E0,1.684101E-1,-7.759757E-2,-6.863182E-1,6.0151255E-1,-1.4434433E0,-3.0220473E-1,4.4052112E-1,2.565198E0,4.6019998E-1,-8.570431E-1,-3.9252985E-1,2.3016992E0,-2.6214266E-1,2.1029797E0,5.784999E-1,-1.7435936E0,6.6958313E0,6.298139E-1,-4.378734E0,-7.2652686E-1,2.5733612E0,-2.7428595E-2,3.379473E0,-2.8604836E0,3.2714016E0,9.157625E0,-2.2254968E0,4.124982E0,1.1876595E1,3.2400653E-1,1.8431397E-1,-1.5513978E0,3.2206545E0,8.756254E0,1.0379243E0,-1.2259918E0,1.752556E0,-2.2299929E0,-1.0373914E1,-1.2878541E0,3.1345007E0,9.083834E0,7.6545873E0,4.673945E-1],"split_indices":[6,4,7,7,7,1,7,7,7,7,7,6,6,0,5,7,7,4,7,7,2,5,7,0,0,4,0,7,6,7,6,0,0,0,0,0,0,0,0,0,0,0,0,0,0,0,0,0,0,0,0,0,0,0,0,0,0,0,0,0,0],"split_type":[0,0,0,0,0,0,0,0,0,0,0,0,0,0,0,0,0,0,0,0,0,0,0,0,0,0,0,0,0,0,0,0,0,0,0,0,0,0,0,0,0,0,0,0,0,0,0,0,0,0,0,0,0,0,0,0,0,0,0,0,0],"sum_hessian":[6.756E3,6.608E3,1.48E2,6.479E3,1.29E2,2E1,1.28E2,1.361E3,5.118E3,7.1E1,5.8E1,4E0,1.6E1,3.5E1,9.3E1,1.192E3,1.69E2,1.493E3,3.625E3,4.1E1,3E1,4.2E1,1.6E1,2E0,2E0,1.4E1,2E0,2.3E1,1.2E1,5.7E1,3.6E1,9.33E2,2.59E2,8E1,8.9E1,1E2,1.393E3,1.23E2,3.502E3,3.1E1,1E1,2.1E1,9E0,3.4E1,8E0,4E0,1.2E1,1E0,1E0,2E0,1.2E1,1E0,1E0,1.2E1,1.1E1,8E0,4E0,5.1E1,6E0,3E0,3.3E1],"tree_param":{"num_deleted":"0","num_feature":"8","num_nodes":"61","size_leaf_vector":"1"}},{"base_weights":[1.2672802E-2,-1.4416401E0,5.99954E-1,-9.105295E-1,-1.3490635E1,2.2618883E0,-5.8507484E-1,-1.0427784E0,3.4303276E1,-2.2654572E1,1.12997614E-1,-3.4183302E0,3.7974975E0,-7.2335267E0,4.729991E-1,-5.9729896E0,2.267484E-2,-8.2281494E-1,4.0294758E1,-5.8483356E1,-1.725395E1,2.5114054E1,-1.2935945E1,-1.7490216E-1,-6.017809E0,3.090646E0,1.6492104E1,-1.7138088E1,-3.4227347E0,-7.63812E-1,4.8044024E0,-1.0983981E1,-1.0162493E0,-8.3062917E-1,6.799073E0,-6.3894554E1,-1.5713684E1,5.5518274E0,-2.1000963E1,-4.836609E0,2.8276533E1,-2.812844E1,9.1431606E-1,8.840096E0,-2.1835012E0,-1.347695E0,-8.9716215E0,3.732793E0,-7.480983E0,-4.8159585E0,1.8829176E1,1.0119135E0,-2.2683968E1,-1.0642425E0,-1.3051763E1,2.6283863E0,-2.5137475E0,2.4536576E0,2.5035759E1],"categories":[],"categories_nodes":[],"categories_segments":[],"categories_sizes":[],"default_left":[1,1,1,1,1,1,1,1,1,1,1,1,1,1,1,1,1,0,0,1,1,1,1,1,1,1,1,1,1,1,1,0,0,0,0,0,0,0,0,0,0,0,0,0,0,0,0,0,0,0,0,0,0,0,0,0,0,0,0],"id":27,"left_children":[1,3,5,7,9,11,13,15,17,19,21,23,25,27,29,31,33,-1,-1,35,37,39,41,43,45,47,49,51,53,55,57,-1,-1,-1,-1,-1,-1,-1,-1,-1,-1,-1,-1,-1,-1,-1,-1,-1,-1,-1,-1,-1,-1,-1,-1,-1,-1,-1,-1],"loss_changes":[5.7719556E3,1.2428052E4,9.482208E3,8.711734E3,1.0224911E4,1.7493062E4,1.977755E4,9.754786E3,1.5063574E3,8.472316E3,1.1416943E4,3.599079E3,1.4108742E4,1.4510613E4,1.3000061E4,8.1854385E3,8.841045E3,0E0,0E0,3.8459375E2,3.8765498E3,1.2733833E3,4.865379E3,3.4778384E3,3.2572383E3,1.0183579E4,4.223955E3,1.079333E4,6.344907E3,1.1214018E4,2.5572736E4,0E0,0E0,0E0,0E0,0E0,0E0,0E0,0E0,0E0,0E0,0E0,0E0,0E0,0E0,0E0,0E0,0E0,0E0,0E0,0E0,0E0,0E0,0E0,0E0,0E0,0E0,0E0,0E0],"parents":[2147483647,0,0,1,1,2,2,3,3,4,4,5,5,6,6,7,7,8,8,9,9,10,10,11,11,12,12,13,13,14,14,15,15,16,16,19,19,20,20,21,21,22,22,23,23,24,24,25,25,26,26,27,27,28,28,29,29,30,30],"right_children":[2,4,6,8,10,12,14,16,18,20,22,24,26,28,30,32,34,-1,-1,36,38,40,42,44,46,48,50,52,54,56,58,-1,-1,-1,-1,-1,-1,-1,-1,-1,-1,-1,-1,-1,-1,-1,-1,-1,-1,-1,-1,-1,-1,-1,-1,-1,-1,-1,-1],"split_conditions":[-6.2089E-1,6.4372456E-1,-3.155513E-1,6.171466E-1,1.3871639E0,-1.2298822E0,-2.1879315E-1,-1.0977318E0,-1.7566576E0,-4.9731857E-1,-1.2861362E0,1.4621844E0,1.6366279E0,2.9082882E-1,3.9851025E-1,7.156682E-1,-4.7128314E-1,-2.4684449E-1,1.2088428E1,1.8855358E0,-1.6977271E0,-9.370247E-1,2.1647043E0,-1.3124342E0,-1.416481E0,3.1202856E-1,-1.6244379E0,-6.295481E-1,1.5441737E0,-8.853302E-1,-4.5669472E-1,-3.2951944E0,-3.048748E-1,-2.4918877E-1,2.039722E0,-1.9168367E1,-4.7141056E0,1.6655483E0,-6.300289E0,-1.4509827E0,8.482961E0,-8.438533E0,2.7429482E-1,2.652029E0,-6.550504E-1,-4.0430853E-1,-2.6914866E0,1.119838E0,-2.244295E0,-1.4447876E0,5.648753E0,3.035741E-1,-6.8051906E0,-3.1927276E-1,-3.915529E0,7.885159E-1,-7.541243E-1,7.3609734E-1,7.510728E0],"split_indices":[6,2,3,2,3,0,0,5,1,1,7,1,1,5,7,7,4,0,0,0,5,4,3,3,3,0,7,0,7,7,1,0,0,0,0,0,0,0,0,0,0,0,0,0,0,0,0,0,0,0,0,0,0,0,0,0,0,0,0],"split_type":[0,0,0,0,0,0,0,0,0,0,0,0,0,0,0,0,0,0,0,0,0,0,0,0,0,0,0,0,0,0,0,0,0,0,0,0,0,0,0,0,0,0,0,0,0,0,0,0,0,0,0,0,0,0,0,0,0,0,0],"sum_hessian":[6.756E3,1.943E3,4.813E3,1.862E3,8.1E1,2.003E3,2.81E3,1.856E3,6E0,4.8E1,3.3E1,4.26E2,1.577E3,3.85E2,2.425E3,3.29E2,1.527E3,1E0,5E0,5E0,4.3E1,1.1E1,2.2E1,1.9E2,2.36E2,1.495E3,8.2E1,1.06E2,2.79E2,1.887E3,5.38E2,1.63E2,1.66E2,