{"learner":{"attributes":{"scikit_learn":"{\"_estimator_type\": \"classifier\"}"},"feature_names":[],"feature_types":[],"gradient_booster":{"gbtree":{"model":{"gbtree_model_param":{"num_parallel_tree":"1","num_trees":"100"},"iteration_indptr":[0,1,2,3,4,5,6,7,8,9,10,11,12,13,14,15,16,17,18,19,20,21,22,23,24,25,26,27,28,29,30,31,32,33,34,35,36,37,38,39,40,41,42,43,44,45,46,47,48,49,50,51,52,53,54,55,56,57,58,59,60,61,62,63,64,65,66,67,68,69,70,71,72,73,74,75,76,77,78,79,80,81,82,83,84,85,86,87,88,89,90,91,92,93,94,95,96,97,98,99,100],"tree_info":[0,0,0,0,0,0,0,0,0,0,0,0,0,0,0,0,0,0,0,0,0,0,0,0,0,0,0,0,0,0,0,0,0,0,0,0,0,0,0,0,0,0,0,0,0,0,0,0,0,0,0,0,0,0,0,0,0,0,0,0,0,0,0,0,0,0,0,0,0,0,0,0,0,0,0,0,0,0,0,0,0,0,0,0,0,0,0,0,0,0,0,0,0,0,0,0,0,0,0,0],"trees":[{"base_weights":[-6.6063157E-3,7.100378E-1,-7.8669E-2,1.3175468E-1,1.4856155E0,-1.3378824E-1,5.6129944E-1,-2.8763622E-1,1.2262496E0,-8.415433E-2,1.689935E0,2.3141302E-1,-1.9122785E-1,1.4858041E0,-8.104468E-2,1.1469619E-1,-9.603845E-1,1.5814601E0,-8.593277E-2,-1.3332254E-1,5.501003E-1,-1.3639805E-1,9.5329684E-1,-1.1058522E-1,-5.311865E-1,1.6430861E0,-1.3332254E-1,-8.7254804E-1,1.1537892E0,-1.3079418E-1,1.6402549E-1,-3.8560846E-1,4.342686E-3,-1.3332254E-1,6.0205036E-1,-2.4446724E-1,2.1768993E-2,3.9094383E-1,-8.111579E-2,-7.977347E-3,-1.6285379E-1,-2.2585392E-1,1.0015217E-1,-1.6560288E-2,5.565176E-1,-4.2939973E-1,-1.2485946E-1,4.8277164E-1,-9.949552E-3],"categories":[],"categories_nodes":[],"categories_segments":[],"categories_sizes":[],"default_left":[0,0,0,0,0,0,0,0,0,0,0,0,0,0,0,0,0,0,0,0,0,0,0,0,0,0,0,0,0,0,0,0,0,0,0,0,0,0,0,0,0,0,0,0,0,0,0,0,0],"id":0,"left_children":[1,3,5,7,9,11,13,15,17,-1,19,21,23,25,27,29,31,33,-1,-1,-1,35,37,39,41,43,-1,45,47,-1,-1,-1,-1,-1,-1,-1,-1,-1,-1,-1,-1,-1,-1,-1,-1,-1,-1,-1,-1],"loss_changes":[3.2444756E1,2.5549578E1,2.0208513E1,1.5950822E1,9.286652E0,1.1084666E1,2.7112675E1,6.979024E0,5.613353E0,0E0,7.573616E0,1.9242292E1,1.2424166E1,6.402916E0,2.8145887E1,4.229205E0,3.06116E0,7.7262745E0,0E0,0E0,0E0,6.943895E0,1.0807287E1,1.3393521E1,1.6940145E1,6.398857E0,0E0,3.8644085E0,6.149564E0,0E0,0E0,0E0,0E0,0E0,0E0,0E0,0E0,0E0,0E0,0E0,0E0,0E0,0E0,0E0,0E0,0E0,0E0,0E0,0E0],"parents":[2147483647,0,0,1,1,2,2,3,3,4,4,5,5,6,6,7,7,8,8,10,10,11,11,12,12,13,13,14,14,15,15,16,16,17,17,21,21,22,22,23,23,24,24,25,25,27,27,28,28],"right_children":[2,4,6,8,10,12,14,16,18,-1,20,22,24,26,28,30,32,34,-1,-1,-1,36,38,40,42,44,-1,46,48,-1,-1,-1,-1,-1,-1,-1,-1,-1,-1,-1,-1,-1,-1,-1,-1,-1,-1,-1,-1],"split_conditions":[-1.3089311E0,5.6862754E-1,1.4839897E0,1.6969246E-1,-8.213191E-1,-9.7334075E-1,-1.0890031E-2,6.4880043E-1,1.2565235E0,-8.415433E-2,-1.633915E0,1.0052738E-2,7.5970256E-1,1.2712415E0,6.1027217E-1,-3.006346E-1,5.084742E-1,-1.2743949E0,-8.593277E-2,-1.3332254E-1,5.501003E-1,-4.6541765E-1,2.716753E-1,8.921803E-1,6.410324E-1,-1.2310563E0,-1.3332254E-1,-7.296063E-1,-2.7770486E-1,-1.3079418E-1,1.6402549E-1,-3.8560846E-1,4.342686E-3,-1.3332254E-1,6.0205036E-1,-2.4446724E-1,2.1768993E-2,3.9094383E-1,-8.111579E-2,-7.977347E-3,-1.6285379E-1,-2.2585392E-1,1.0015217E-1,-1.6560288E-2,5.565176E-1,-4.2939973E-1,-1.2485946E-1,4.8277164E-1,-9.949552E-3],"split_indices":[4,2,4,0,0,1,0,1,1,0,5,0,0,7,3,2,8,1,0,0,0,4,4,3,3,6,0,1,2,0,0,0,0,0,0,0,0,0,0,0,0,0,0,0,0,0,0,0,0],"split_type":[0,0,0,0,0,0,0,0,0,0,0,0,0,0,0,0,0,0,0,0,0,0,0,0,0,0,0,0,0,0,0,0,0,0,0,0,0,0,0,0,0,0,0,0,0,0,0,0,0],"sum_hessian":[6.261656E2,5.6402702E1,5.697629E2,3.298124E1,2.3421461E1,5.253099E2,4.4452976E1,2.4377438E1,8.603802E0,2.389945E0,2.1031515E1,7.098136E1,4.5432852E2,1.7685593E1,2.6767384E1,1.5773637E1,8.603802E0,6.9308405E0,1.6729615E0,1.1949725E0,1.9836542E1,4.7559906E1,2.3421461E1,3.6829053E2,8.603802E1,1.649062E1,1.1949725E0,1.649062E1,1.0276763E1,6.9308405E0,8.842796E0,6.2138567E0,2.389945E0,1.1949725E0,5.735868E0,1.0515758E1,3.7044147E1,1.8163582E1,5.257879E0,3.0925888E2,5.903164E1,6.859142E1,1.7446598E1,1.911956E0,1.4578664E1,6.4528513E0,1.0037768E1,7.1698346E0,3.1069283E0],"tree_param":{"num_deleted":"0","num_feature":"9","num_nodes":"49","size_leaf_vector":"1"}},{"base_weights":[-7.315412E-3,9.514648E-1,-3.649768E-2,-8.333719E-2,3.9033422E-1,-5.711693E-2,8.550641E-1,-5.772487E-1,-3.0009612E-2,3.853958E-1,-6.0901146E-2,3.0947515E-1,-7.911285E-1,3.1193906E-1,-7.589956E-2,-2.896746E-1,1.9047584E-1,-4.393601E-1,-9.9386446E-2,-9.811587E-2,2.0719053E-1,-5.26018E-2,1.6019851E-2],"categories":[],"categories_nodes":[],"categories_segments":[],"categories_sizes":[],"default_left":[0,0,0,0,0,0,0,0,0,0,0,0,0,0,0,0,0,0,0,0,0,0,0],"id":1,"left_children":[1,3,5,-1,-1,7,9,11,13,-1,15,-1,17,19,21,-1,-1,-1,-1,-1,-1,-1,-1],"loss_changes":[1.740864E1,8.260702E0,1.1144573E1,0E0,0E0,8.31357E0,5.471402E0,1.0868459E1,8.852876E0,0E0,3.9686573E0,0E0,7.6748505E0,1.6383228E1,6.3980513E0,0E0,0E0,0E0,0E0,0E0,0E0,0E0,0E0],"parents":[2147483647,0,0,1,1,2,2,5,5,6,6,7,7,8,8,10,10,12,12,13,13,14,14],"right_children":[2,4,6,-1,-1,8,10,12,14,-1,16,-1,18,20,22,-1,-1,-1,-1,-1,-1,-1,-1],"split_conditions":[-2.0646598E0,-4.1906562E-1,2.3282464E0,-8.333719E-2,3.9033422E-1,-1.6618981E0,-2.3985535E-1,-1.1761158E0,-9.67765E-1,3.853958E-1,-1.743575E0,3.0947515E-1,-2.1000363E-1,-9.041037E-2,1.633808E-1,-2.896746E-1,1.9047584E-1,-4.393601E-1,-9.9386446E-2,-9.811587E-2,2.0719053E-1,-5.26018E-2,1.6019851E-2],"split_indices":[4,2,4,0,0,0,2,3,4,0,1,0,4,0,3,0,0,0,0,0,0,0,0],"split_type":[0,0,0,0,0,0,0,0,0,0,0,0,0,0,0,0,0,0,0,0,0,0,0],"sum_hessian":[6.199542E2,1.7378582E1,6.025757E2,3.8940074E0,1.3484575E1,5.898696E2,1.2706046E1,2.8213703E1,5.616559E2,8.375443E0,4.3306026E0,2.8620195E0,2.5351685E1,6.5770424E1,4.958855E2,1.7141883E0,2.616414E0,9.400465E0,1.595122E1,2.4524843E1,4.1245575E1,2.801076E2,2.1577788E2],"tree_param":{"num_deleted":"0","num_feature":"9","num_nodes":"23","size_leaf_vector":"1"}},{"base_weights":[-5.192393E-3,7.053592E-1,-2.6366098E-2,-1.4037347E-1,9.183067E-1,-8.26727E-2,2.4083978E-1,-1.4791694E-1,3.366535E-1,-4.1744003E-1,-2.3117226E-2,5.267682E-1,-6.097856E-1,-6.059593E-1,1.0186272E0,4.371698E-1,-9.093206E-2,9.785168E-1,1.0843211E-1,-7.613582E-1,2.0670627E-1,5.479513E-2,-2.733577E-1,-1.2182341E-1,4.5992216E-1,5.9141707E-2,3.4633073E-1,-4.9651206E-2,6.840144E-2,2.0947933E-1,4.66858E-1,3.4829605E-1,-6.206171E-2,-2.7853256E-1,2.3365176E-1],"categories":[],"categories_nodes":[],"categories_segments":[],"categories_sizes":[],"default_left":[0,0,0,0,0,0,0,0,0,0,0,0,0,0,0,0,0,0,0,0,0,0,0,0,0,0,0,0,0,0,0,0,0,0,0],"id":2,"left_children":[1,3,5,-1,7,9,11,-1,-1,13,15,17,19,21,23,25,27,29,31,33,-1,-1,-1,-1,-1,-1,-1,-1,-1,-1,-1,-1,-1,-1,-1],"loss_changes":[9.286264E0,4.892148E0,9.034172E0,0E0,5.000187E0,9.871269E0,2.5745674E1,0E0,0E0,2.0865738E1,1.3206197E1,1.4780466E1,5.7929573E0,1.6231663E1,7.257147E0,9.127501E0,8.801348E0,5.024742E0,1.418662E1,7.0125036E0,0E0,0E0,0E0,0E0,0E0,0E0,0E0,0E0,0E0,0E0,0E0,0E0,0E0,0E0,0E0],"parents":[2147483647,0,0,1,1,2,2,4,4,5,5,6,6,9,9,10,10,11,11,12,12,13,13,14,14,15,15,16,16,17,17,18,18,19,19],"right_children":[2,4,6,-1,8,10,12,-1,-1,14,16,18,20,22,24,26,28,30,32,34,-1,-1,-1,-1,-1,-1,-1,-1,-1,-1,-1,-1,-1,-1,-1],"split_conditions":[-2.0646598E0,-9.334934E-1,8.1367487E-1,-1.4037347E-1,-7.792106E-1,-9.105482E-1,4.6350384E-1,-1.4791694E-1,3.366535E-1,1.0373442E0,-9.7334075E-1,-3.1268567E-1,1.6142772E0,-4.0977082E-1,-5.0963396E-1,8.2785314E-1,8.108151E-1,3.9081213E-1,-9.360399E-1,1.4205903E0,2.0670627E-1,5.479513E-2,-2.733577E-1,-1.2182341E-1,4.5992216E-1,5.9141707E-2,3.4633073E-1,-4.9651206E-2,6.840144E-2,2.0947933E-1,4.66858E-1,3.4829605E-1,-6.206171E-2,-2.7853256E-1,2.3365176E-1],"split_indices":[4,2,4,0,5,0,0,0,0,1,1,2,5,3,4,3,2,1,3,3,0,0,0,0,0,0,0,0,0,0,0,0,0,0,0],"split_type":[0,0,0,0,0,0,0,0,0,0,0,0,0,0,0,0,0,0,0,0,0,0,0,0,0,0,0,0,0,0,0,0,0,0,0],"sum_hessian":[6.1499603E2,1.6860916E1,5.9813513E2,2.4062052E0,1.4454711E1,4.946015E2,1.0353363E2,1.6454072E0,1.2809303E1,7.3793205E1,4.208083E2,7.777212E1,2.5761518E1,6.5741104E1,8.052101E0,5.3337605E1,3.674707E2,3.6748955E1,4.102316E1,2.3439856E1,2.3216636E0,1.845689E1,4.728421E1,2.192064E0,5.860037E0,4.091903E1,1.2418576E1,2.98223E2,6.9247696E1,2.6231716E1,1.0517239E1,8.837974E0,3.218519E1,2.1504227E1,1.9356284E0],"tree_param":{"num_deleted":"0","num_feature":"9","num_nodes":"35","size_leaf_vector":"1"}},{"base_weights":[-2.60462E-3,1.5210086E-2,-6.0438025E-1,7.6978384E-3,3.9084616E-1,-1.0203829E0,3.9651033E-1,-4.605047E-1,2.9623061E-2,-3.8090357E-1,9.725356E-2,4.0625772E-1,-1.5440005E-1,-3.2668406E-1,-7.270966E-2,3.0523723E-1,-1.5766883E-2,3.4399843E-1,-1.5621507E-1,-5.6888875E-2,1.6768968E-1,4.7132682E-2,-3.1259213E-2],"categories":[],"categories_nodes":[],"categories_segments":[],"categories_sizes":[],"default_left":[0,0,0,0,0,0,0,0,0,0,0,0,0,0,0,0,0,0,0,0,0,0,0],"id":3,"left_children":[1,3,5,7,-1,9,11,13,15,-1,-1,-1,-1,-1,17,19,21,-1,-1,-1,-1,-1,-1],"loss_changes":[6.5189295E0,5.7041283E0,7.6843534E0,6.053023E0,0E0,4.645199E0,5.8047543E0,6.3493733E0,7.047294E0,0E0,0E0,0E0,0E0,0E0,1.009367E1,1.010689E1,7.4200096E0,0E0,0E0,0E0,0E0,0E0,0E0],"parents":[2147483647,0,0,1,1,2,2,3,3,5,5,6,6,7,7,8,8,14,14,15,15,16,16],"right_children":[2,4,6,8,-1,10,12,14,16,-1,-1,-1,-1,-1,18,20,22,-1,-1,-1,-1,-1,-1],"split_conditions":[2.0919776E0,2.768104E0,4.295502E-1,-1.6618981E0,3.9084616E-1,7.839074E-1,-6.91496E-1,-2.1000363E-1,-9.67765E-1,-3.8090357E-1,9.725356E-2,4.0625772E-1,-1.5440005E-1,-3.2668406E-1,-4.0977082E-1,-1.4233024E-1,-5.435551E-1,3.4399843E-1,-1.5621507E-1,-5.6888875E-2,1.6768968E-1,4.7132682E-2,-3.1259213E-2],"split_indices":[0,1,2,0,0,7,1,4,4,0,0,0,0,0,3,0,2,0,0,0,0,0,0],"split_type":[0,0,0,0,0,0,0,0,0,0,0,0,0,0,0,0,0,0,0,0,0,0,0],"sum_hessian":[6.062257E2,5.8974194E2,1.6483742E1,5.8732135E2,2.4206045E0,1.1630325E1,4.853416E0,2.5378223E1,5.619431E2,9.858206E0,1.7721195E0,2.1292706E0,2.7241457E0,8.994355E0,1.638387E1,7.8649216E1,4.832939E2,3.983162E0,1.2400707E1,2.6742939E1,5.1906277E1,1.6329202E2,3.200019E2],"tree_param":{"num_deleted":"0","num_feature":"9","num_nodes":"23","size_leaf_vector":"1"}},{"base_weights":[-2.1397455E-3,-1.1003747E-2,2.6557866E-1,-4.559744E-2,2.1978189E-1,-2.0674261E-1,2.0676807E-2,8.186712E-1,-1.5569484E-1,8.1612223E-1,-3.330984E-1,-1.6543922E-1,2.8661123E-1,3.1218326E-1,2.789573E-1,-3.172276E-1,7.8224885E-1,3.1005955E-1,-1.1176563E-1,3.2005373E-2,-1.5951444E-1,-1.24484934E-1,2.7460363E-2,1.3386406E-1,-2.7397655E-2,-1.1914814E-1,3.608876E-1,-3.3498806E-1,-3.4595355E-2,3.2456687E-1,-1.3158657E-1],"categories":[],"categories_nodes":[],"categories_segments":[],"categories_sizes":[],"default_left":[0,0,0,0,0,0,0,0,0,0,0,0,0,0,0,0,0,0,0,0,0,0,0,0,0,0,0,0,0,0,0],"id":4,"left_children":[1,3,-1,5,7,9,11,13,15,17,19,21,23,-1,25,27,29,-1,-1,-1,-1,-1,-1,-1,-1,-1,-1,-1,-1,-1,-1],"loss_changes":[4.7472577E0,4.7788143E0,0E0,5.5607367E0,1.7675135E1,1.9879583E1,1.8339111E1,3.3308983E0,7.642393E0,4.770643E0,1.1913331E1,1.40185795E1,9.240884E0,0E0,6.834629E0,6.7060494E0,3.2031083E0,0E0,0E0,0E0,0E0,0E0,0E0,0E0,0E0,0E0,0E0,0E0,0E0,0E0,0E0],"parents":[2147483647,0,0,1,1,3,3,4,4,5,5,6,6,7,7,8,8,9,9,10,10,11,11,12,12,14,14,15,15,16,16],"right_children":[2,4,-1,6,8,10,12,14,16,18,20,22,24,-1,26,28,30,-1,-1,-1,-1,-1,-1,-1,-1,-1,-1,-1,-1,-1,-1],"split_conditions":[2.9161882E0,1.0384612E0,2.6557866E-1,-3.7421688E-1,-1.8393017E-1,-1.1127957E0,1.8242991E-1,6.2438834E-2,1.4205903E0,1.1087657E0,-5.435551E-1,-1.130639E-1,6.402729E-1,3.1218326E-1,2.3716648E-1,-8.167766E-1,5.108777E-1,3.1005955E-1,-1.1176563E-1,3.2005373E-2,-1.5951444E-1,-1.24484934E-1,2.7460363E-2,1.3386406E-1,-2.7397655E-2,-1.1914814E-1,3.608876E-1,-3.3498806E-1,-3.4595355E-2,3.2456687E-1,-1.3158657E-1],"split_indices":[2,4,0,0,0,3,3,2,3,5,2,2,6,0,5,6,2,0,0,0,0,0,0,0,0,0,0,0,0,0,0],"split_type":[0,0,0,0,0,0,0,0,0,0,0,0,0,0,0,0,0,0,0,0,0,0,0,0,0,0,0,0,0,0,0],"sum_hessian":[6.012829E2,5.963141E2,4.9688087E0,5.19279E2,7.703508E1,1.507099E2,3.685691E2,2.9230991E1,4.780409E1,1.5970218E1,1.3473967E2,2.1704593E2,1.5152318E2,2.0055676E1,9.175315E0,4.1345367E1,6.4587197E0,1.361123E1,2.3589878E0,4.20637E1,9.267597E1,1.09810165E2,1.07235756E2,1.0640697E2,4.5116215E1,5.627608E0,3.5477066E0,7.423599E0,3.392177E1,5.277332E0,1.181388E0],"tree_param":{"num_deleted":"0","num_feature":"9","num_nodes":"31","size_leaf_vector":"1"}},{"base_weights":[-1.7390169E-3,7.4486285E-1,-1.14898505E-2,3.4953097E-1,-1.5899399E-1,6.122839E-3,-6.107705E-1,5.791464E-1,-7.638612E-3,-8.37804E-1,8.601129E-2,-1.16918765E-1,2.5620747E-1,-1.627023E-2,2.8723648E-1,-3.2254037E-1,8.203337E-2,-1.1277206E-2,1.0849977E-1],"categories":[],"categories_nodes":[],"categories_segments":[],"categories_sizes":[],"default_left":[0,0,0,0,0,0,0,0,0,0,0,0,0,0,0,0,0,0,0],"id":5,"left_children":[1,3,5,-1,-1,7,9,11,13,15,-1,-1,-1,17,-1,-1,-1,-1,-1],"loss_changes":[4.337372E0,4.7324777E0,6.209382E0,0E0,0E0,4.51612E0,3.6624794E0,3.9098334E0,4.678141E0,3.8965406E0,0E0,0E0,0E0,4.491555E0,0E0,0E0,0E0,0E0,0E0],"parents":[2147483647,0,0,1,1,2,2,5,5,6,6,7,7,8,8,9,9,13,13],"right_children":[2,4,6,-1,-1,8,10,12,14,16,-1,-1,-1,18,-1,-1,-1,-1,-1],"split_conditions":[-2.4344287E0,1.2386723E0,2.0040593E0,3.4953097E-1,-1.5899399E-1,-2.1348066E0,7.8141165E-1,-7.254758E-1,2.5019193E0,7.839074E-1,8.601129E-2,-1.16918765E-1,2.5620747E-1,1.6036007E0,2.8723648E-1,-3.2254037E-1,8.203337E-2,-1.1277206E-2,1.0849977E-1],"split_indices":[1,2,0,0,0,4,2,0,1,7,0,0,0,7,0,0,0,0,0],"split_type":[0,0,0,0,0,0,0,0,0,0,0,0,0,0,0,0,0,0,0],"sum_hessian":[5.93618E2,6.6809545E0,5.86937E2,5.0893707E0,1.5915836E0,5.711411E2,1.5795893E1,1.2431037E1,5.587101E2,1.2659833E1,3.1360602E0,2.655006E0,9.776031E0,5.547318E2,3.978278E0,1.0458664E1,2.201169E0,5.2596136E2,2.8770445E1],"tree_param":{"num_deleted":"0","num_feature":"9","num_nodes":"19","size_leaf_vector":"1"}},{"base_weights":[-5.7323877E-4,5.2317055E-3,-2.786298E-1,-1.4798125E-4,2.7930188E-1],"categories":[],"categories_nodes":[],"categories_segments":[],"categories_sizes":[],"default_left":[0,0,0,0,0],"id":6,"left_children":[1,3,-1,-1,-1],"loss_changes":[3.1925566E0,3.121836E0,0E0,0E0,0E0],"parents":[2147483647,0,0,1,1],"right_children":[2,4,-1,-1,-1],"split_conditions":[2.5633664E0,3.03768E0,-2.786298E-1,-1.4798125E-4,2.7930188E-1],"split_indices":[6,3,0,0,0],"split_type":[0,0,0,0,0],"sum_hessian":[5.906174E2,5.879348E2,2.6825979E0,5.853147E2,2.6201103E0],"tree_param":{"num_deleted":"0","num_feature":"9","num_nodes":"5","size_leaf_vector":"1"}},{"base_weights":[-4.5266445E-4,-3.8595334E-2,1.3248745E-1,4.699571E-3,-3.3018357E-1,5.7995576E-1,-1.2926945E-1,-3.0621013E-1,5.7883836E-2,-5.9513843E-1,1.3345595E-1,8.886477E-1,5.333107E-2,-3.6932495E-1,3.4597346E-1,-4.8591244E-1,4.0659928E-1,1.6176176E-1,-2.6505306E-1,-6.670282E-1,2.676672E-1,-1.5185991E-1,4.4959885E-1,2.324875E-2,1.0642664E0,2.0089005E-1,-1.2132536E-1,-5.3057325E-1,6.420716E-1,7.7503544E-1,-2.210181E-1,-2.2801246E-1,4.096072E-2,-1.1756735E-1,2.4298593E-1,-2.8075783E-2,9.152984E-2,-1.1422756E-1,6.979309E-2,-2.2818087E-1,1.03346236E-1,2.070969E-1,-2.2575998E-1,3.6778748E-1,-2.9324194E-2,-1.9521324E-1,1.4063767E-1,2.8821898E-1,-1.6603762E-1,4.1886726E-1,7.4883774E-2],"categories":[],"categories_nodes":[],"categories_segments":[],"categories_sizes":[],"default_left":[0,0,0,0,0,0,0,0,0,0,0,0,0,0,0,0,0,0,0,0,0,0,0,0,0,0,0,0,0,0,0,0,0,0,0,0,0,0,0,0,0,0,0,0,0,0,0,0,0,0,0],"id":7,"left_children":[1,3,5,7,9,11,13,15,17,19,21,23,25,27,29,31,33,35,37,39,-1,-1,41,-1,43,-1,-1,45,47,49,-1,-1,-1,-1,-1,-1,-1,-1,-1,-1,-1,-1,-1,-1,-1,-1,-1,-1,-1,-1,-1],"loss_changes":[3.0037763E0,5.8125167E0,1.5544184E1,6.6613135E0,7.3914857E0,7.906307E0,9.727404E0,7.7355876E0,1.1580339E1,4.6648254E0,4.7700377E0,4.3024826E0,5.6717305E0,9.53697E0,1.3929214E1,8.201013E0,4.308912E0,9.575733E0,4.9306803E0,3.752617E0,0E0,0E0,5.0229807E0,0E0,4.8592873E0,0E0,0E0,6.210005E0,3.6581004E0,6.532219E0,0E0,0E0,0E0,0E0,0E0,0E0,0E0,0E0,0E0,0E0,0E0,0E0,0E0,0E0,0E0,0E0,0E0,0E0,0E0,0E0,0E0],"parents":[2147483647,0,0,1,1,2,2,3,3,4,4,5,5,6,6,7,7,8,8,9,9,10,10,11,11,12,12,13,13,14,14,15,15,16,16,17,17,18,18,19,19,22,22,24,24,27,27,28,28,29,29],"right_children":[2,4,6,8,10,12,14,16,18,20,22,24,26,28,30,32,34,36,38,40,-1,-1,42,-1,44,-1,-1,46,48,50,-1,-1,-1,-1,-1,-1,-1,-1,-1,-1,-1,-1,-1,-1,-1,-1,-1,-1,-1,-1,-1],"split_conditions":[5.323117E-1,1.4454667E-1,-1.287618E-1,-9.105482E-1,3.3148965E-1,2.9424554E-1,4.1474202E-1,7.72108E-1,6.8138975E-1,1.6036007E0,-1.9679733E-1,-1.0747012E0,-3.1268567E-1,1.1779484E0,8.2803464E-1,5.2269995E-1,-5.0963396E-1,-3.4500918E-1,7.955315E-1,1.2635014E0,2.676672E-1,-1.5185991E-1,1.1128002E0,2.324875E-2,1.3026767E0,2.0089005E-1,-1.2132536E-1,1.5458096E0,3.7715774E-2,9.4638985E-1,-2.210181E-1,-2.2801246E-1,4.096072E-2,-1.1756735E-1,2.4298593E-1,-2.8075783E-2,9.152984E-2,-1.1422756E-1,6.979309E-2,-2.2818087E-1,1.03346236E-1,2.070969E-1,-2.2575998E-1,3.6778748E-1,-2.9324194E-2,-1.9521324E-1,1.4063767E-1,2.8821898E-1,-1.6603762E-1,4.1886726E-1,7.4883774E-2],"split_indices":[4,4,0,0,1,3,1,1,1,7,7,1,2,3,0,5,4,2,2,0,0,0,3,0,5,0,0,0,1,4,0,0,0,0,0,0,0,0,0,0,0,0,0,0,0,0,0,0,0,0,0],"split_type":[0,0,0,0,0,0,0,0,0,0,0,0,0,0,0,0,0,0,0,0,0,0,0,0,0,0,0,0,0,0,0,0,0,0,0,0,0,0,0,0,0,0,0,0,0,0,0,0,0,0,0],"sum_hessian":[5.9037164E2,4.5930057E2,1.3107109E2,4.0077722E2,5.852336E1,4.792633E1,8.314476E1,5.784775E1,3.4292947E2,3.7060734E1,2.1462627E1,2.9781721E1,1.814461E1,5.5389297E1,2.7755463E1,4.6454647E1,1.1393104E1,2.5984512E2,8.308434E1,3.5878147E1,1.1825881E0,6.9002E0,1.45624275E1,5.5568557E0,2.4224867E1,7.5357575E0,1.0608851E1,4.8182846E1,7.2064514E0,2.008154E1,7.673923E0,3.2097645E1,1.4357001E1,3.8332038E0,7.5598993E0,9.354582E1,1.662993E2,6.760286E1,1.5481481E1,3.3067177E1,2.8109682E0,1.2487572E1,2.0748558E0,2.121747E1,3.0073965E0,4.3323624E1,4.8592205E0,5.8449335E0,1.3615179E0,8.442701E0,1.1638838E1],"tree_param":{"num_deleted":"0","num_feature":"9","num_nodes":"51","size_leaf_vector":"1"}},{"base_weights":[-1.4625133E-3],"categories":[],"categories_nodes":[],"categories_segments":[],"categories_sizes":[],"default_left":[0],"id":8,"left_children":[-1],"loss_changes":[0E0],"parents":[2147483647],"right_children":[-1],"split_conditions":[-4.38754E-4],"split_indices":[0],"split_type":[0],"sum_hessian":[5.817333E2],"tree_param":{"num_deleted":"0","num_feature":"9","num_nodes":"1","size_leaf_vector":"1"}},{"base_weights":[-1.024613E-3],"categories":[],"categories_nodes":[],"categories_segments":[],"categories_sizes":[],"default_left":[0],"id":9,"left_children":[-1],"loss_changes":[0E0],"parents":[2147483647],"right_children":[-1],"split_conditions":[-3.0738392E-4],"split_indices":[0],"split_type":[0],"sum_hessian":[5.816817E2],"tree_param":{"num_deleted":"0","num_feature":"9","num_nodes":"1","size_leaf_vector":"1"}},{"base_weights":[-7.178043E-4],"categories":[],"categories_nodes":[],"categories_segments":[],"categories_sizes":[],"default_left":[0],"id":10,"left_children":[-1],"loss_changes":[0E0],"parents":[2147483647],"right_children":[-1],"split_conditions":[-2.153413E-4],"split_indices":[0],"split_type":[0],"sum_hessian":[5.816455E2],"tree_param":{"num_deleted":"0","num_feature":"9","num_nodes":"1","size_leaf_vector":"1"}},{"base_weights":[-5.028627E-4],"categories":[],"categories_nodes":[],"categories_segments":[],"categories_sizes":[],"default_left":[0],"id":11,"left_children":[-1],"loss_changes":[0E0],"parents":[2147483647],"right_children":[-1],"split_conditions":[-1.508588E-4],"split_indices":[0],"split_type":[0],"sum_hessian":[5.816202E2],"tree_param":{"num_deleted":"0","num_feature":"9","num_nodes":"1","size_leaf_vector":"1"}},{"base_weights":[-3.522775E-4],"categories":[],"categories_nodes":[],"categories_segments":[],"categories_sizes":[],"default_left":[0],"id":12,"left_children":[-1],"loss_changes":[0E0],"parents":[2147483647],"right_children":[-1],"split_conditions":[-1.05683255E-4],"split_indices":[0],"split_type":[0],"sum_hessian":[5.816024E2],"tree_param":{"num_deleted":"0","num_feature":"9","num_nodes":"1","size_leaf_vector":"1"}},{"base_weights":[-2.4678392E-4],"categories":[],"categories_nodes":[],"categories_segments":[],"categories_sizes":[],"default_left":[0],"id":13,"left_children":[-1],"loss_changes":[0E0],"parents":[2147483647],"right_children":[-1],"split_conditions":[-7.403518E-5],"split_indices":[0],"split_type":[0],"sum_hessian":[5.8158997E2],"tree_param":{"num_deleted":"0","num_feature":"9","num_nodes":"1","size_leaf_vector":"1"}},{"base_weights":[-1.7288429E-4],"categories":[],"categories_nodes":[],"categories_segments":[],"categories_sizes":[],"default_left":[0],"id":14,"left_children":[-1],"loss_changes":[0E0],"parents":[2147483647],"right_children":[-1],"split_conditions":[-5.186529E-5],"split_indices":[0],"split_type":[0],"sum_hessian":[5.8158124E2],"tree_param":{"num_deleted":"0","num_feature":"9","num_nodes":"1","size_leaf_vector":"1"}},{"base_weights":[-1.2111671E-4],"categories":[],"categories_nodes":[],"categories_segments":[],"categories_sizes":[],"default_left":[0],"id":15,"left_children":[-1],"loss_changes":[0E0],"parents":[2147483647],"right_children":[-1],"split_conditions":[-3.6335015E-5],"split_indices":[0],"split_type":[0],"sum_hessian":[5.8157513E2],"tree_param":{"num_deleted":"0","num_feature":"9","num_nodes":"1","size_leaf_vector":"1"}},{"base_weights":[-8.4827276E-5],"categories":[],"categories_nodes":[],"categories_segments":[],"categories_sizes":[],"default_left":[0],"id":16,"left_children":[-1],"loss_changes":[0E0],"parents":[2147483647],"right_children":[-1],"split_conditions":[-2.5448184E-5],"split_indices":[0],"split_type":[0],"sum_hessian":[5.8157086E2],"tree_param":{"num_deleted":"0","num_feature":"9","num_nodes":"1","size_leaf_vector":"1"}},{"base_weights":[-5.943666E-5],"categories":[],"categories_nodes":[],"categories_segments":[],"categories_sizes":[],"default_left":[0],"id":17,"left_children":[-1],"loss_changes":[0E0],"parents":[2147483647],"right_children":[-1],"split_conditions":[-1.7830998E-5],"split_indices":[0],"split_type":[0],"sum_hessian":[5.815679E2],"tree_param":{"num_deleted":"0","num_feature":"9","num_nodes":"1","size_leaf_vector":"1"}},{"base_weights":[-4.1630476E-5],"categories":[],"categories_nodes":[],"categories_segments":[],"categories_sizes":[],"default_left":[0],"id":18,"left_children":[-1],"loss_changes":[0E0],"parents":[2147483647],"right_children":[-1],"split_conditions":[-1.2489143E-5],"split_indices":[0],"split_type":[0],"sum_hessian":[5.8156573E2],"tree_param":{"num_deleted":"0","num_feature":"9","num_nodes":"1","size_leaf_vector":"1"}},{"base_weights":[-2.9149389E-5],"categories":[],"categories_nodes":[],"categories_segments":[],"categories_sizes":[],"default_left":[0],"id":19,"left_children":[-1],"loss_changes":[0E0],"parents":[2147483647],"right_children":[-1],"split_conditions":[-8.744817E-6],"split_indices":[0],"split_type":[0],"sum_hessian":[5.815643E2],"tree_param":{"num_deleted":"0","num_feature":"9","num_nodes":"1","size_leaf_vector":"1"}},{"base_weights":[-2.0419191E-5],"categories":[],"categories_nodes":[],"categories_segments":[],"categories_sizes":[],"default_left":[0],"id":20,"left_children":[-1],"loss_changes":[0E0],"parents":[2147483647],"right_children":[-1],"split_conditions":[-6.1257574E-6],"split_indices":[0],"split_type":[0],"sum_hessian":[5.8156323E2],"tree_param":{"num_deleted":"0","num_feature":"9","num_nodes":"1","size_leaf_vector":"1"}},{"base_weights":[-1.4304692E-5],"categories":[],"categories_nodes":[],"categories_segments":[],"categories_sizes":[],"default_left":[0],"id":21,"left_children":[-1],"loss_changes":[0E0],"parents":[2147483647],"right_children":[-1],"split_conditions":[-4.2914075E-6],"split_indices":[0],"split_type":[0],"sum_hessian":[5.8156256E2],"tree_param":{"num_deleted":"0","num_feature":"9","num_nodes":"1","size_leaf_vector":"1"}},{"base_weights":[-1.003065E-5],"categories":[],"categories_nodes":[],"categories_segments":[],"categories_sizes":[],"default_left":[0],"id":22,"left_children":[-1],"loss_changes":[0E0],"parents":[2147483647],"right_children":[-1],"split_conditions":[-3.009195E-6],"split_indices":[0],"split_type":[0],"sum_hessian":[5.81562E2],"tree_param":{"num_deleted":"0","num_feature":"9","num_nodes":"1","size_leaf_vector":"1"}},{"base_weights":[-7.035161E-6],"categories":[],"categories_nodes":[],"categories_segments":[],"categories_sizes":[],"default_left":[0],"id":23,"left_children":[-1],"loss_changes":[0E0],"parents":[2147483647],"right_children":[-1],"split_conditions":[-2.1105484E-6],"split_indices":[0],"split_type":[0],"sum_hessian":[5.815617E2],"tree_param":{"num_deleted":"0","num_feature":"9","num_nodes":"1","size_leaf_vector":"1"}},{"base_weights":[-4.9279656E-6],"categories":[],"categories_nodes":[],"categories_segments":[],"categories_sizes":[],"default_left":[0],"id":24,"left_children":[-1],"loss_changes":[0E0],"parents":[2147483647],"right_children":[-1],"split_conditions":[-1.4783898E-6],"split_indices":[0],"split_type":[0],"sum_hessian":[5.815614E2],"tree_param":{"num_deleted":"0","num_feature":"9","num_nodes":"1","size_leaf_vector":"1"}},{"base_weights":[-3.447894E-6],"categories":[],"categories_nodes":[],"categories_segments":[],"categories_sizes":[],"default_left":[0],"id":25,"left_children":[-1],"loss_changes":[0E0],"parents":[2147483647],"right_children":[-1],"split_conditions":[-1.0343682E-6],"split_indices":[0],"split_type":[0],"sum_hessian":[5.815613E2],"tree_param":{"num_deleted":"0","num_feature":"9","num_nodes":"1","size_leaf_vector":"1"}},{"base_weights":[-2.4154613E-6],"categories":[],"categories_nodes":[],"categories_segments":[],"categories_sizes":[],"default_left":[0],"id":26,"left_children":[-1],"loss_changes":[0E0],"parents":[2147483647],"right_children":[-1],"split_conditions":[-7.246384E-7],"split_indices":[0],"split_type":[0],"sum_hessian":[5.8156116E2],"tree_param":{"num_deleted":"0","num_feature":"9","num_nodes":"1","size_leaf_vector":"1"}},{"base_weights":[-1.7014959E-6],"categories":[],"categories_nodes":[],"categories_segments":[],"categories_sizes":[],"default_left":[0],"id":27,"left_children":[-1],"loss_changes":[0E0],"parents":[2147483647],"right_children":[-1],"split_conditions":[-5.104488E-7],"split_indices":[0],"split_type":[0],"sum_hessian":[5.8156104E2],"tree_param":{"num_deleted":"0","num_feature":"9","num_nodes":"1","size_leaf_vector":"1"}},{"base_weights":[-1.1813402E-6],"categories":[],"categories_nodes":[],"categories_segments":[],"categories_sizes":[],"default_left":[0],"id":28,"left_children":[-1],"loss_changes":[0E0],"parents":[2147483647],"right_children":[-1],"split_conditions":[-3.5440206E-7],"split_indices":[0],"split_type":[0],"sum_hessian":[5.81561E2],"tree_param":{"num_deleted":"0","num_feature":"9","num_nodes":"1","size_leaf_vector":"1"}},{"base_weights":[-8.310269E-7],"categories":[],"categories_nodes":[],"categories_segments":[],"categories_sizes":[],"default_left":[0],"id":29,"left_children":[-1],"loss_changes":[0E0],"parents":[2147483647],"right_children":[-1],"split_conditions":[-2.4930807E-7],"split_indices":[0],"split_type":[0],"sum_hessian":[5.81561E2],"tree_param":{"num_deleted":"0","num_feature":"9","num_nodes":"1","size_leaf_vector":"1"}},{"base_weights":[-5.9149505E-7],"categories":[],"categories_nodes":[],"categories_segments":[],"categories_sizes":[],"default_left":[0],"id":30,"left_children":[-1],"loss_changes":[0E0],"parents":[2147483647],"right_children":[-1],"split_conditions":[-1.7744853E-7],"split_indices":[0],"split_type":[0],"sum_hessian":[5.815609E2],"tree_param":{"num_deleted":"0","num_feature":"9","num_nodes":"1","size_leaf_vector":"1"}},{"base_weights":[-4.152705E-7],"categories":[],"categories_nodes":[],"categories_segments":[],"categories_sizes":[],"default_left":[0],"id":31,"left_children":[-1],"loss_changes":[0E0],"parents":[2147483647],"right_children":[-1],"split_conditions":[-1.2458116E-7],"split_indices":[0],"split_type":[0],"sum_hessian":[5.815609E2],"tree_param":{"num_deleted":"0","num_feature":"9","num_nodes":"1","size_leaf_vector":"1"}},{"base_weights":[-2.9456453E-7],"categories":[],"categories_nodes":[],"categories_segments":[],"categories_sizes":[],"default_left":[0],"id":32,"left_children":[-1],"loss_changes":[0E0],"parents":[2147483647],"right_children":[-1],"split_conditions":[-8.836936E-8],"split_indices":[0],"split_type":[0],"sum_hessian":[5.8156085E2],"tree_param":{"num_deleted":"0","num_feature":"9","num_nodes":"1","size_leaf_vector":"1"}},{"base_weights":[-2.1417061E-7],"categories":[],"categories_nodes":[],"categories_segments":[],"categories_sizes":[],"default_left":[0],"id":33,"left_children":[-1],"loss_changes":[0E0],"parents":[2147483647],"right_children":[-1],"split_conditions":[-6.425119E-8],"split_indices":[0],"split_type":[0],"sum_hessian":[5.8156085E2],"tree_param":{"num_deleted":"0","num_feature":"9","num_nodes":"1","size_leaf_vector":"1"}},{"base_weights":[-1.5736029E-7],"categories":[],"categories_nodes":[],"categories_segments":[],"categories_sizes":[],"default_left":[0],"id":34,"left_children":[-1],"loss_changes":[0E0],"parents":[2147483647],"right_children":[-1],"split_conditions":[-4.720809E-8],"split_indices":[0],"split_type":[0],"sum_hessian":[5.8156085E2],"tree_param":{"num_deleted":"0","num_feature":"9","num_nodes":"1","size_leaf_vector":"1"}},{"base_weights":[-1.0129173E-7],"categories":[],"categories_nodes":[],"categories_segments":[],"categories_sizes":[],"default_left":[0],"id":35,"left_children":[-1],"loss_changes":[0E0],"parents":[2147483647],"right_children":[-1],"split_conditions":[-3.0387522E-8],"split_indices":[0],"split_type":[0],"sum_hessian":[5.8156085E2],"tree_param":{"num_deleted":"0","num_feature":"9","num_nodes":"1","size_leaf_vector":"1"}},{"base_weights":[-5.719402E-8],"categories":[],"categories_nodes":[],"categories_segments":[],"categories_sizes":[],"default_left":[0],"id":36,"left_children":[-1],"loss_changes":[0E0],"parents":[2147483647],"right_children":[-1],"split_conditions":[-1.7158206E-8],"split_indices":[0],"split_type":[0],"sum_hessian":[5.8156085E2],"tree_param":{"num_deleted":"0","num_feature":"9","num_nodes":"1","size_leaf_vector":"1"}},{"base_weights":[-4.696253E-8],"categories":[],"categories_nodes":[],"categories_segments":[],"categories_sizes":[],"default_left":[0],"id":37,"left_children":[-1],"loss_changes":[0E0],"parents":[2147483647],"right_children":[-1],"split_conditions":[-1.40887595E-8],"split_indices":[0],"split_type":[0],"sum_hessian":[5.8156085E2],"tree_param":{"num_deleted":"0","num_feature":"9","num_nodes":"1","size_leaf_vector":"1"}},{"base_weights":[-4.3279194E-8],"categories":[],"categories_nodes":[],"categories_segments":[],"categories_sizes":[],"default_left":[0],"id":38,"left_children":[-1],"loss_changes":[0E0],"parents":[2147483647],"right_children":[-1],"split_conditions":[-1.2983759E-8],"split_indices":[0],"split_type":[0],"sum_hessian":[5.8156085E2],"tree_param":{"num_deleted":"0","num_feature":"9","num_nodes":"1","size_leaf_vector":"1"}},{"base_weights":[-4.0260907E-8],"categories":[],"categories_nodes":[],"categories_segments":[],"categories_sizes":[],"default_left":[0],"id":39,"left_children":[-1],"loss_changes":[0E0],"parents":[2147483647],"right_children":[-1],"split_conditions":[-1.2078273E-8],"split_indices":[0],"split_type":[0],"sum_hessian":[5.8156085E2],"tree_param":{"num_deleted":"0","num_feature":"9","num_nodes":"1","size_leaf_vector":"1"}},{"base_weights":[-3.8675026E-8],"categories":[],"categories_nodes":[],"categories_segments":[],"categories_sizes":[],"default_left":[0],"id":40,"left_children":[-1],"loss_changes":[0E0],"parents":[2147483647],"right_children":[-1],"split_conditions":[-1.1602508E-8],"split_indices":[0],"split_type":[0],"sum_hessian":[5.8156085E2],"tree_param":{"num_deleted":"0","num_feature":"9","num_nodes":"1","size_leaf_vector":"1"}},{"base_weights":[-3.7344932E-8],"categories":[],"categories_nodes":[],"categories_segments":[],"categories_sizes":[],"default_left":[0],"id":41,"left_children":[-1],"loss_changes":[0E0],"parents":[2147483647],"right_children":[-1],"split_conditions":[-1.120348E-8],"split_indices":[0],"split_type":[0],"sum_hessian":[5.8156085E2],"tree_param":{"num_deleted":"0","num_feature":"9","num_nodes":"1","size_leaf_vector":"1"}},{"base_weights":[-3.575905E-8],"categories":[],"categories_nodes":[],"categories_segments":[],"categories_sizes":[],"default_left":[0],"id":42,"left_children":[-1],"loss_changes":[0E0],"parents":[2147483647],"right_children":[-1],"split_conditions":[-1.0727716E-8],"split_indices":[0],"split_type":[0],"sum_hessian":[5.8156085E2],"tree_param":{"num_deleted":"0","num_feature":"9","num_nodes":"1","size_leaf_vector":"1"}},{"base_weights":[-3.3917384E-8],"categories":[],"categories_nodes":[],"categories_segments":[],"categories_sizes":[],"default_left":[0],"id":43,"left_children":[-1],"loss_changes":[0E0],"parents":[2147483647],"right_children":[-1],"split_conditions":[-1.0175215E-8],"split_indices":[0],"split_type":[0],"sum_hessian":[5.8156085E2],"tree_param":{"num_deleted":"0","num_feature":"9","num_nodes":"1","size_leaf_vector":"1"}},{"base_weights":[-3.0080574E-8],"categories":[],"categories_nodes":[],"categories_segments":[],"categories_sizes":[],"default_left":[0],"id":44,"left_children":[-1],"loss_changes":[0E0],"parents":[2147483647],"right_children":[-1],"split_conditions":[-9.0241725E-9],"split_indices":[0],"split_type":[0],"sum_hessian":[5.8156085E2],"tree_param":{"num_deleted":"0","num_feature":"9","num_nodes":"1","size_leaf_vector":"1"}},{"base_weights":[-2.7522702E-8],"categories":[],"categories_nodes":[],"categories_segments":[],"categories_sizes":[],"default_left":[0],"id":45,"left_children":[-1],"loss_changes":[0E0],"parents":[2147483647],"right_children":[-1],"split_conditions":[-8.256811E-9],"split_indices":[0],"split_type":[0],"sum_hessian":[5.8156085E2],"tree_param":{"num_deleted":"0","num_feature":"9","num_nodes":"1","size_leaf_vector":"1"}},{"base_weights":[-2.496483E-8],"categories":[],"categories_nodes":[],"categories_segments":[],"categories_sizes":[],"default_left":[0],"id":46,"left_children":[-1],"loss_changes":[0E0],"parents":[2147483647],"right_children":[-1],"split_conditions":[-7.489449E-9],"split_indices":[0],"split_type":[0],"sum_hessian":[5.8156085E2],"tree_param":{"num_deleted":"0","num_feature":"9","num_nodes":"1","size_leaf_vector":"1"}},{"base_weights":[-2.3327793E-8],"categories":[],"categories_nodes":[],"categories_segments":[],"categories_sizes":[],"default_left":[0],"id":47,"left_children":[-1],"loss_changes":[0E0],"parents":[2147483647],"right_children":[-1],"split_conditions":[-6.9983384E-9],"split_indices":[0],"split_type":[0],"sum_hessian":[5.8156085E2],"tree_param":{"num_deleted":"0","num_feature":"9","num_nodes":"1","size_leaf_vector":"1"}},{"base_weights":[-2.2611589E-8],"categories":[],"categories_nodes":[],"categories_segments":[],"categories_sizes":[],"default_left":[0],"id":48,"left_children":[-1],"loss_changes":[0E0],"parents":[2147483647],"right_children":[-1],"split_conditions":[-6.783477E-9],"split_indices":[0],"split_type":[0],"sum_hessian":[5.8156085E2],"tree_param":{"num_deleted":"0","num_feature":"9","num_nodes":"1","size_leaf_vector":"1"}},{"base_weights":[-2.240696E-8],"categories":[],"categories_nodes":[],"categories_segments":[],"categories_sizes":[],"default_left":[0],"id":49,"left_children":[-1],"loss_changes":[0E0],"parents":[2147483647],"right_children":[-1],"split_conditions":[-6.722088E-9],"split_indices":[0],"split_type":[0],"sum_hessian":[5.8156085E2],"tree_param":{"num_deleted":"0","num_feature":"9","num_nodes":"1","size_leaf_vector":"1"}},{"base_weights":[-2.1486125E-8],"categories":[],"categories_nodes":[],"categories_segments":[],"categories_sizes":[],"default_left":[0],"id":50,"left_children":[-1],"loss_changes":[0E0],"parents":[2147483647],"right_children":[-1],"split_conditions":[-6.4458376E-9],"split_indices":[0],"split_type":[0],"sum_hessian":[5.8156085E2],"tree_param":{"num_deleted":"0","num_feature":"9","num_nodes":"1","size_leaf_vector":"1"}},{"base_weights":[-2.1128024E-8],"categories":[],"categories_nodes":[],"categories_segments":[],"categories_sizes":[],"default_left":[0],"id":51,"left_children":[-1],"loss_changes":[0E0],"parents":[2147483647],"right_children":[-1],"split_conditions":[-6.3384076E-9],"split_indices":[0],"split_type":[0],"sum_hessian":[5.8156085E2],"tree_param":{"num_deleted":"0","num_feature":"9","num_nodes":"1","size_leaf_vector":"1"}},{"base_weights":[-1.9184041E-8],"categories":[],"categories_nodes":[],"categories_segments":[],"categories_sizes":[],"default_left":[0],"id":52,"left_children":[-1],"loss_changes":[0E0],"parents":[2147483647],"right_children":[-1],"split_conditions":[-5.7552128E-9],"split_indices":[0],"split_type":[0],"sum_hessian":[5.8156085E2],"tree_param":{"num_deleted":"0","num_feature":"9","num_nodes":"1","size_leaf_vector":"1"}},{"base_weights":[-1.8570152E-8],"categories":[],"categories_nodes":[],"categories_segments":[],"categories_sizes":[],"default_left":[0],"id":53,"left_children":[-1],"loss_changes":[0E0],"parents":[2147483647],"right_children":[-1],"split_conditions":[-5.571046E-9],"split_indices":[0],"split_type":[0],"sum_hessian":[5.8156085E2],"tree_param":{"num_deleted":"0","num_feature":"9","num_nodes":"1","size_leaf_vector":"1"}},{"base_weights":[-1.836552E-8],"categories":[],"categories_nodes":[],"categories_segments":[],"categories_sizes":[],"default_left":[0],"id":54,"left_children":[-1],"loss_changes":[0E0],"parents":[2147483647],"right_children":[-1],"split_conditions":[-5.5096563E-9],"split_indices":[0],"split_type":[0],"sum_hessian":[5.8156085E2],"tree_param":{"num_deleted":"0","num_feature":"9","num_nodes":"1","size_leaf_vector":"1"}},{"base_weights":[-1.7853948E-8],"categories":[],"categories_nodes":[],"categories_segments":[],"categories_sizes":[],"default_left":[0],"id":55,"left_children":[-1],"loss_changes":[0E0],"parents":[2147483647],"right_children":[-1],"split_conditions":[-5.3561844E-9],"split_indices":[0],"split_type":[0],"sum_hessian":[5.8156085E2],"tree_param":{"num_deleted":"0","num_feature":"9","num_nodes":"1","size_leaf_vector":"1"}},{"base_weights":[-1.7649317E-8],"categories":[],"categories_nodes":[],"categories_segments":[],"categories_sizes":[],"default_left":[0],"id":56,"left_children":[-1],"loss_changes":[0E0],"parents":[2147483647],"right_children":[-1],"split_conditions":[-5.2947953E-9],"split_indices":[0],"split_type":[0],"sum_hessian":[5.8156085E2],"tree_param":{"num_deleted":"0","num_feature":"9","num_nodes":"1","size_leaf_vector":"1"}},{"base_weights":[-1.7444687E-8],"categories":[],"categories_nodes":[],"categories_segments":[],"categories_sizes":[],"default_left":[0],"id":57,"left_children":[-1],"loss_changes":[0E0],"parents":[2147483647],"right_children":[-1],"split_conditions":[-5.2334066E-9],"split_indices":[0],"split_type":[0],"sum_hessian":[5.8156085E2],"tree_param":{"num_deleted":"0","num_feature":"9","num_nodes":"1","size_leaf_vector":"1"}},{"base_weights":[-1.7342373E-8],"categories":[],"categories_nodes":[],"categories_segments":[],"categories_sizes":[],"default_left":[0],"id":58,"left_children":[-1],"loss_changes":[0E0],"parents":[2147483647],"right_children":[-1],"split_conditions":[-5.202712E-9],"split_indices":[0],"split_type":[0],"sum_hessian":[5.8156085E2],"tree_param":{"num_deleted":"0","num_feature":"9","num_nodes":"1","size_leaf_vector":"1"}},{"base_weights":[-1.7240058E-8],"categories":[],"categories_nodes":[],"categories_segments":[],"categories_sizes":[],"default_left":[0],"id":59,"left_children":[-1],"loss_changes":[0E0],"parents":[2147483647],"right_children":[-1],"split_conditions":[-5.1720175E-9],"split_indices":[0],"split_type":[0],"sum_hessian":[5.8156085E2],"tree_param":{"num_deleted":"0","num_feature":"9","num_nodes":"1","size_leaf_vector":"1"}},{"base_weights":[-1.6523853E-8],"categories":[],"categories_nodes":[],"categories_segments":[],"categories_sizes":[],"default_left":[0],"id":60,"left_children":[-1],"loss_changes":[0E0],"parents":[2147483647],"right_children":[-1],"split_conditions":[-4.957156E-9],"split_indices":[0],"split_type":[0],"sum_hessian":[5.8156085E2],"tree_param":{"num_deleted":"0","num_feature":"9","num_nodes":"1","size_leaf_vector":"1"}},{"base_weights":[-1.6216909E-8],"categories":[],"categories_nodes":[],"categories_segments":[],"categories_sizes":[],"default_left":[0],"id":61,"left_children":[-1],"loss_changes":[0E0],"parents":[2147483647],"right_children":[-1],"split_conditions":[-4.865073E-9],"split_indices":[0],"split_type":[0],"sum_hessian":[5.8156085E2],"tree_param":{"num_deleted":"0","num_feature":"9","num_nodes":"1","size_leaf_vector":"1"}},{"base_weights":[-1.601228E-8],"categories":[],"categories_nodes":[],"categories_segments":[],"categories_sizes":[],"default_left":[0],"id":62,"left_children":[-1],"loss_changes":[0E0],"parents":[2147483647],"right_children":[-1],"split_conditions":[-4.803684E-9],"split_indices":[0],"split_type":[0],"sum_hessian":[5.8156085E2],"tree_param":{"num_deleted":"0","num_feature":"9","num_nodes":"1","size_leaf_vector":"1"}},{"base_weights":[-1.5296076E-8],"categories":[],"categories_nodes":[],"categories_segments":[],"categories_sizes":[],"default_left":[0],"id":63,"left_children":[-1],"loss_changes":[0E0],"parents":[2147483647],"right_children":[-1],"split_conditions":[-4.5888227E-9],"split_indices":[0],"split_type":[0],"sum_hessian":[5.8156085E2],"tree_param":{"num_deleted":"0","num_feature":"9","num_nodes":"1","size_leaf_vector":"1"}},{"base_weights":[-1.5091445E-8],"categories":[],"categories_nodes":[],"categories_segments":[],"categories_sizes":[],"default_left":[0],"id":64,"left_children":[-1],"loss_changes":[0E0],"parents":[2147483647],"right_children":[-1],"split_conditions":[-4.5274335E-9],"split_indices":[0],"split_type":[0],"sum_hessian":[5.8156085E2],"tree_param":{"num_deleted":"0","num_feature":"9","num_nodes":"1","size_leaf_vector":"1"}},{"base_weights":[-1.4784501E-8],"categories":[],"categories_nodes":[],"categories_segments":[],"categories_sizes":[],"default_left":[0],"id":65,"left_children":[-1],"loss_changes":[0E0],"parents":[2147483647],"right_children":[-1],"split_conditions":[-4.4353503E-9],"split_indices":[0],"split_type":[0],"sum_hessian":[5.8156085E2],"tree_param":{"num_deleted":"0","num_feature":"9","num_nodes":"1","size_leaf_vector":"1"}},{"base_weights":[-1.4579871E-8],"categories":[],"categories_nodes":[],"categories_segments":[],"categories_sizes":[],"default_left":[0],"id":66,"left_children":[-1],"loss_changes":[0E0],"parents":[2147483647],"right_children":[-1],"split_conditions":[-4.373961E-9],"split_indices":[0],"split_type":[0],"sum_hessian":[5.8156085E2],"tree_param":{"num_deleted":"0","num_feature":"9","num_nodes":"1","size_leaf_vector":"1"}},{"base_weights":[-1.4170611E-8],"categories":[],"categories_nodes":[],"categories_segments":[],"categories_sizes":[],"default_left":[0],"id":67,"left_children":[-1],"loss_changes":[0E0],"parents":[2147483647],"right_children":[-1],"split_conditions":[-4.2511834E-9],"split_indices":[0],"split_type":[0],"sum_hessian":[5.8156085E2],"tree_param":{"num_deleted":"0","num_feature":"9","num_nodes":"1","size_leaf_vector":"1"}},{"base_weights":[-1.4017139E-8],"categories":[],"categories_nodes":[],"categories_segments":[],"categories_sizes":[],"default_left":[0],"id":68,"left_children":[-1],"loss_changes":[0E0],"parents":[2147483647],"right_children":[-1],"split_conditions":[-4.2051416E-9],"split_indices":[0],"split_type":[0],"sum_hessian":[5.8156085E2],"tree_param":{"num_deleted":"0","num_feature":"9","num_nodes":"1","size_leaf_vector":"1"}},{"base_weights":[-1.2840518E-8],"categories":[],"categories_nodes":[],"categories_segments":[],"categories_sizes":[],"default_left":[0],"id":69,"left_children":[-1],"loss_changes":[0E0],"parents":[2147483647],"right_children":[-1],"split_conditions":[-3.8521555E-9],"split_indices":[0],"split_type":[0],"sum_hessian":[5.8156085E2],"tree_param":{"num_deleted":"0","num_feature":"9","num_nodes":"1","size_leaf_vector":"1"}},{"base_weights":[-1.2328943E-8],"categories":[],"categories_nodes":[],"categories_segments":[],"categories_sizes":[],"default_left":[0],"id":70,"left_children":[-1],"loss_changes":[0E0],"parents":[2147483647],"right_children":[-1],"split_conditions":[-3.6986831E-9],"split_indices":[0],"split_type":[0],"sum_hessian":[5.8156085E2],"tree_param":{"num_deleted":"0","num_feature":"9","num_nodes":"1","size_leaf_vector":"1"}},{"base_weights":[-1.2226629E-8],"categories":[],"categories_nodes":[],"categories_segments":[],"categories_sizes":[],"default_left":[0],"id":71,"left_children":[-1],"loss_changes":[0E0],"parents":[2147483647],"right_children":[-1],"split_conditions":[-3.6679888E-9],"split_indices":[0],"split_type":[0],"sum_hessian":[5.8156085E2],"tree_param":{"num_deleted":"0","num_feature":"9","num_nodes":"1","size_leaf_vector":"1"}},{"base_weights":[-1.1919684E-8],"categories":[],"categories_nodes":[],"categories_segments":[],"categories_sizes":[],"default_left":[0],"id":72,"left_children":[-1],"loss_changes":[0E0],"parents":[2147483647],"right_children":[-1],"split_conditions":[-3.5759053E-9],"split_indices":[0],"split_type":[0],"sum_hessian":[5.8156085E2],"tree_param":{"num_deleted":"0","num_feature":"9","num_nodes":"1","size_leaf_vector":"1"}},{"base_weights":[-1.1919684E-8],"categories":[],"categories_nodes":[],"categories_segments":[],"categories_sizes":[],"default_left":[0],"id":73,"left_children":[-1],"loss_changes":[0E0],"parents":[2147483647],"right_children":[-1],"split_conditions":[-3.5759053E-9],"split_indices":[0],"split_type":[0],"sum_hessian":[5.8156085E2],"tree_param":{"num_deleted":"0","num_feature":"9","num_nodes":"1","size_leaf_vector":"1"}},{"base_weights":[-1.16638965E-8],"categories":[],"categories_nodes":[],"categories_segments":[],"categories_sizes":[],"default_left":[0],"id":74,"left_children":[-1],"loss_changes":[0E0],"parents":[2147483647],"right_children":[-1],"split_conditions":[-3.4991692E-9],"split_indices":[0],"split_type":[0],"sum_hessian":[5.8156085E2],"tree_param":{"num_deleted":"0","num_feature":"9","num_nodes":"1","size_leaf_vector":"1"}},{"base_weights":[-1.16638965E-8],"categories":[],"categories_nodes":[],"categories_segments":[],"categories_sizes":[],"default_left":[0],"id":75,"left_children":[-1],"loss_changes":[0E0],"parents":[2147483647],"right_children":[-1],"split_conditions":[-3.4991692E-9],"split_indices":[0],"split_type":[0],"sum_hessian":[5.8156085E2],"tree_param":{"num_deleted":"0","num_feature":"9","num_nodes":"1","size_leaf_vector":"1"}},{"base_weights":[-1.1561582E-8],"categories":[],"categories_nodes":[],"categories_segments":[],"categories_sizes":[],"default_left":[0],"id":76,"left_children":[-1],"loss_changes":[0E0],"parents":[2147483647],"right_children":[-1],"split_conditions":[-3.4684746E-9],"split_indices":[0],"split_type":[0],"sum_hessian":[5.8156085E2],"tree_param":{"num_deleted":"0","num_feature":"9","num_nodes":"1","size_leaf_vector":"1"}},{"base_weights":[-1.1459266E-8],"categories":[],"categories_nodes":[],"categories_segments":[],"categories_sizes":[],"default_left":[0],"id":77,"left_children":[-1],"loss_changes":[0E0],"parents":[2147483647],"right_children":[-1],"split_conditions":[-3.43778E-9],"split_indices":[0],"split_type":[0],"sum_hessian":[5.8156085E2],"tree_param":{"num_deleted":"0","num_feature":"9","num_nodes":"1","size_leaf_vector":"1"}},{"base_weights":[-1.1254637E-8],"categories":[],"categories_nodes":[],"categories_segments":[],"categories_sizes":[],"default_left":[0],"id":78,"left_children":[-1],"loss_changes":[0E0],"parents":[2147483647],"right_children":[-1],"split_conditions":[-3.3763914E-9],"split_indices":[0],"split_type":[0],"sum_hessian":[5.8156085E2],"tree_param":{"num_deleted":"0","num_feature":"9","num_nodes":"1","size_leaf_vector":"1"}},{"base_weights":[-1.1050007E-8],"categories":[],"categories_nodes":[],"categories_segments":[],"categories_sizes":[],"default_left":[0],"id":79,"left_children":[-1],"loss_changes":[0E0],"parents":[2147483647],"right_children":[-1],"split_conditions":[-3.3150023E-9],"split_indices":[0],"split_type":[0],"sum_hessian":[5.8156085E2],"tree_param":{"num_deleted":"0","num_feature":"9","num_nodes":"1","size_leaf_vector":"1"}},{"base_weights":[-1.09476925E-8],"categories":[],"categories_nodes":[],"categories_segments":[],"categories_sizes":[],"default_left":[0],"id":80,"left_children":[-1],"loss_changes":[0E0],"parents":[2147483647],"right_children":[-1],"split_conditions":[-3.284308E-9],"split_indices":[0],"split_type":[0],"sum_hessian":[5.8156085E2],"tree_param":{"num_deleted":"0","num_feature":"9","num_nodes":"1","size_leaf_vector":"1"}},{"base_weights":[-1.09476925E-8],"categories":[],"categories_nodes":[],"categories_segments":[],"categories_sizes":[],"default_left":[0],"id":81,"left_children":[-1],"loss_changes":[0E0],"parents":[2147483647],"right_children":[-1],"split_conditions":[-3.284308E-9],"split_indices":[0],"split_type":[0],"sum_hessian":[5.8156085E2],"tree_param":{"num_deleted":"0","num_feature":"9","num_nodes":"1","size_leaf_vector":"1"}},{"base_weights":[-1.0743062E-8],"categories":[],"categories_nodes":[],"categories_segments":[],"categories_sizes":[],"default_left":[0],"id":82,"left_children":[-1],"loss_changes":[0E0],"parents":[2147483647],"right_children":[-1],"split_conditions":[-3.2229188E-9],"split_indices":[0],"split_type":[0],"sum_hessian":[5.8156085E2],"tree_param":{"num_deleted":"0","num_feature":"9","num_nodes":"1","size_leaf_vector":"1"}},{"base_weights":[-1.0333803E-8],"categories":[],"categories_nodes":[],"categories_segments":[],"categories_sizes":[],"default_left":[0],"id":83,"left_children":[-1],"loss_changes":[0E0],"parents":[2147483647],"right_children":[-1],"split_conditions":[-3.100141E-9],"split_indices":[0],"split_type":[0],"sum_hessian":[5.8156085E2],"tree_param":{"num_deleted":"0","num_feature":"9","num_nodes":"1","size_leaf_vector":"1"}},{"base_weights":[-1.02314885E-8],"categories":[],"categories_nodes":[],"categories_segments":[],"categories_sizes":[],"default_left":[0],"id":84,"left_children":[-1],"loss_changes":[0E0],"parents":[2147483647],"right_children":[-1],"split_conditions":[-3.0694467E-9],"split_indices":[0],"split_type":[0],"sum_hessian":[5.8156085E2],"tree_param":{"num_deleted":"0","num_feature":"9","num_nodes":"1","size_leaf_vector":"1"}},{"base_weights":[-1.02314885E-8],"categories":[],"categories_nodes":[],"categories_segments":[],"categories_sizes":[],"default_left":[0],"id":85,"left_children":[-1],"loss_changes":[0E0],"parents":[2147483647],"right_children":[-1],"split_conditions":[-3.0694467E-9],"split_indices":[0],"split_type":[0],"sum_hessian":[5.8156085E2],"tree_param":{"num_deleted":"0","num_feature":"9","num_nodes":"1","size_leaf_vector":"1"}},{"base_weights":[-1.02314885E-8],"categories":[],"categories_nodes":[],"categories_segments":[],"categories_sizes":[],"default_left":[0],"id":86,"left_children":[-1],"loss_changes":[0E0],"parents":[2147483647],"right_children":[-1],"split_conditions":[-3.0694467E-9],"split_indices":[0],"split_type":[0],"sum_hessian":[5.8156085E2],"tree_param":{"num_deleted":"0","num_feature":"9","num_nodes":"1","size_leaf_vector":"1"}},{"base_weights":[-1.02314885E-8],"categories":[],"categories_nodes":[],"categories_segments":[],"categories_sizes":[],"default_left":[0],"id":87,"left_children":[-1],"loss_changes":[0E0],"parents":[2147483647],"right_children":[-1],"split_conditions":[-3.0694467E-9],"split_indices":[0],"split_type":[0],"sum_hessian":[5.8156085E2],"tree_param":{"num_deleted":"0","num_feature":"9","num_nodes":"1","size_leaf_vector":"1"}},{"base_weights":[-1.02314885E-8],"categories":[],"categories_nodes":[],"categories_segments":[],"categories_sizes":[],"default_left":[0],"id":88,"left_children":[-1],"loss_changes":[0E0],"parents":[2147483647],"right_children":[-1],"split_conditions":[-3.0694467E-9],"split_indices":[0],"split_type":[0],"sum_hessian":[5.8156085E2],"tree_param":{"num_deleted":"0","num_feature":"9","num_nodes":"1","size_leaf_vector":"1"}},{"base_weights":[-9.822228E-9],"categories":[],"categories_nodes":[],"categories_segments":[],"categories_sizes":[],"default_left":[0],"id":89,"left_children":[-1],"loss_changes":[0E0],"parents":[2147483647],"right_children":[-1],"split_conditions":[-2.9466687E-9],"split_indices":[0],"split_type":[0],"sum_hessian":[5.8156085E2],"tree_param":{"num_deleted":"0","num_feature":"9","num_nodes":"1","size_leaf_vector":"1"}},{"base_weights":[-9.719914E-9],"categories":[],"categories_nodes":[],"categories_segments":[],"categories_sizes":[],"default_left":[0],"id":90,"left_children":[-1],"loss_changes":[0E0],"parents":[2147483647],"right_children":[-1],"split_conditions":[-2.9159744E-9],"split_indices":[0],"split_type":[0],"sum_hessian":[5.8156085E2],"tree_param":{"num_deleted":"0","num_feature":"9","num_nodes":"1","size_leaf_vector":"1"}},{"base_weights":[-9.617599E-9],"categories":[],"categories_nodes":[],"categories_segments":[],"categories_sizes":[],"default_left":[0],"id":91,"left_children":[-1],"loss_changes":[0E0],"parents":[2147483647],"right_children":[-1],"split_conditions":[-2.8852798E-9],"split_indices":[0],"split_type":[0],"sum_hessian":[5.8156085E2],"tree_param":{"num_deleted":"0","num_feature":"9","num_nodes":"1","size_leaf_vector":"1"}},{"base_weights":[-9.412969E-9],"categories":[],"categories_nodes":[],"categories_segments":[],"categories_sizes":[],"default_left":[0],"id":92,"left_children":[-1],"loss_changes":[0E0],"parents":[2147483647],"right_children":[-1],"split_conditions":[-2.823891E-9],"split_indices":[0],"split_type":[0],"sum_hessian":[5.8156085E2],"tree_param":{"num_deleted":"0","num_feature":"9","num_nodes":"1","size_leaf_vector":"1"}},{"base_weights":[-9.412969E-9],"categories":[],"categories_nodes":[],"categories_segments":[],"categories_sizes":[],"default_left":[0],"id":93,"left_children":[-1],"loss_changes":[0E0],"parents":[2147483647],"right_children":[-1],"split_conditions":[-2.823891E-9],"split_indices":[0],"split_type":[0],"sum_hessian":[5.8156085E2],"tree_param":{"num_deleted":"0","num_feature":"9","num_nodes":"1","size_leaf_vector":"1"}},{"base_weights":[-9.412969E-9],"categories":[],"categories_nodes":[],"categories_segments":[],"categories_sizes":[],"default_left":[0],"id":94,"left_children":[-1],"loss_changes":[0E0],"parents":[2147483647],"right_children":[-1],"split_conditions":[-2.823891E-9],"split_indices":[0],"split_type":[0],"sum_hessian":[5.8156085E2],"tree_param":{"num_deleted":"0","num_feature":"9","num_nodes":"1","size_leaf_vector":"1"}},{"base_weights":[-9.208339E-9],"categories":[],"categories_nodes":[],"categories_segments":[],"categories_sizes":[],"default_left":[0],"id":95,"left_children":[-1],"loss_changes":[0E0],"parents":[2147483647],"right_children":[-1],"split_conditions":[-2.7625018E-9],"split_indices":[0],"split_type":[0],"sum_hessian":[5.8156085E2],"tree_param":{"num_deleted":"0","num_feature":"9","num_nodes":"1","size_leaf_vector":"1"}},{"base_weights":[-9.208339E-9],"categories":[],"categories_nodes":[],"categories_segments":[],"categories_sizes":[],"default_left":[0],"id":96,"left_children":[-1],"loss_changes":[0E0],"parents":[2147483647],"right_children":[-1],"split_conditions":[-2.7625018E-9],"split_indices":[0],"split_type":[0],"sum_hessian":[5.8156085E2],"tree_param":{"num_deleted":"0","num_feature":"9","num_nodes":"1","size_leaf_vector":"1"}},{"base_weights":[-9.208339E-9],"categories":[],"categories_nodes":[],"categories_segments":[],"categories_sizes":[],"default_left":[0],"id":97,"left_children":[-1],"loss_changes":[0E0],"parents":[2147483647],"right_children":[-1],"split_conditions":[-2.7625018E-9],"split_indices":[0],"split_type":[0],"sum_hessian":[5.8156085E2],"tree_param":{"num_deleted":"0","num_feature":"9","num_nodes":"1","size_leaf_vector":"1"}},{"base_weights":[-9.106024E-9],"categories":[],"categories_nodes":[],"categories_segments":[],"categories_sizes":[],"default_left":[0],"id":98,"left_children":[-1],"loss_changes":[0E0],"parents":[2147483647],"right_children":[-1],"split_conditions":[-2.7318074E-9],"split_indices":[0],"split_type":[0],"sum_hessian":[5.8156085E2],"tree_param":{"num_deleted":"0","num_feature":"9","num_nodes":"1","size_leaf_vector":"1"}},{"base_weights":[-9.106024E-9],"categories":[],"categories_nodes":[],"categories_segments":[],"categories_sizes":[],"default_left":[0],"id":99,"left_children":[-1],"loss_changes":[0E0],"parents":[2147483647],"right_children":[-1],"split_conditions":[-2.7318074E-9],"split_indices":[0],"split_type":[0],"sum_hessian":[5.8156085E2],"tree_param":{"num_deleted":"0","num_feature":"9","num_nodes":"1","size_leaf_vector":"1"}}]},"name":"gbtree"},"name":"dart","weight_drop":[1E0,1E0,1E0,1E0,1E0,1E0,1E0,1E0,1E0,1E0,1E0,1E0,1E0,1E0,1E0,1E0,1E0,1E0,1E0,1E0,1E0,1E0,1E0,1E0,1E0,1E0,1E0,1E0,1E0,1E0,1E0,1E0,1E0,1E0,1E0,1E0,1E0,1E0,1E0,1E0,1E0,1E0,1E0,1E0,1E0,1E0,1E0,1E0,1E0,1E0,1E0,1E0,1E0,1E0,1E0,1E0,1E0,1E0,1E0,1E0,1E0,1E0,1E0,1E0,1E0,1E0,1E0,1E0,1E0,1E0,1E0,1E0,1E0,1E0,1E0,1E0,1E0,1E0,1E0,1E0,1E0,1E0,1E0,1E0,1E0,1E0,1E0,1E0,1E0,1E0,1E0,1E0,1E0,1E0,1E0,1E0,1E0,1E0,1E0,1E0]},"learner_model_param":{"base_score":"3.9509284E-1","boost_from_average":"1","num_class":"0","num_feature":"9","num_target":"1"},"objective":{"name":"binary:logistic","reg_loss_param":{"scale_pos_weight":"1"}}},"version":[2,0,3]}